{"learner":{"attributes":{"scikit_learn":"{\"_estimator_type\": \"classifier\"}"},"feature_names":["return_5","volatility_5","return_10","volatility_10","return_20","volatility_20","return_50","volatility_50","roc_acceleration","price_sma20_ratio","price_sma50_ratio","sma20_sma50_ratio","price_zscore","vol_ratio","atr_pct","bb_width","vol_ratio_20","vol_trend","vwap_deviation","up_down_vol_ratio","rsi_14","macd_hist","bb_pctb","stoch_rsi","hurst","adx_14","trend_r2","trend_p_value","hour_sin","hour_cos","day_of_week","body_ratio","upper_shadow","lower_shadow","candle_dir_1","candle_dir_2","candle_dir_3","gk_volatility","parkinson_vol","vol_momentum","vol_acceleration","buying_pressure_avg","buying_pressure_trend","price_acceleration","range_expansion","candle_streak","vol_adj_return","cp_bullish_count","cp_bearish_count","cp_max_bullish_strength","cp_max_bearish_strength","cp_net_direction","cp_volume_confirmations","cp_engulfing","cp_star","cp_pin_or_hammer","cp_three_candle","cp_composite_score","regime_encoded","regime_is_trending","regime_is_ranging"],"feature_types":["float","float","float","float","float","float","float","float","float","float","float","float","float","float","float","float","float","float","float","float","float","float","float","float","float","float","float","float","float","float","float","float","float","float","int","int","int","float","float","float","float","float","float","float","float","float","float","int","int","float","float","float","int","float","float","float","float","float","float","float","float"],"gradient_booster":{"model":{"cats":{"enc":[],"feature_segments":[],"sorted_idx":[]},"gbtree_model_param":{"num_parallel_tree":"1","num_trees":"300"},"iteration_indptr":[0,1,2,3,4,5,6,7,8,9,10,11,12,13,14,15,16,17,18,19,20,21,22,23,24,25,26,27,28,29,30,31,32,33,34,35,36,37,38,39,40,41,42,43,44,45,46,47,48,49,50,51,52,53,54,55,56,57,58,59,60,61,62,63,64,65,66,67,68,69,70,71,72,73,74,75,76,77,78,79,80,81,82,83,84,85,86,87,88,89,90,91,92,93,94,95,96,97,98,99,100,101,102,103,104,105,106,107,108,109,110,111,112,113,114,115,116,117,118,119,120,121,122,123,124,125,126,127,128,129,130,131,132,133,134,135,136,137,138,139,140,141,142,143,144,145,146,147,148,149,150,151,152,153,154,155,156,157,158,159,160,161,162,163,164,165,166,167,168,169,170,171,172,173,174,175,176,177,178,179,180,181,182,183,184,185,186,187,188,189,190,191,192,193,194,195,196,197,198,199,200,201,202,203,204,205,206,207,208,209,210,211,212,213,214,215,216,217,218,219,220,221,222,223,224,225,226,227,228,229,230,231,232,233,234,235,236,237,238,239,240,241,242,243,244,245,246,247,248,249,250,251,252,253,254,255,256,257,258,259,260,261,262,263,264,265,266,267,268,269,270,271,272,273,274,275,276,277,278,279,280,281,282,283,284,285,286,287,288,289,290,291,292,293,294,295,296,297,298,299,300],"tree_info":[0,0,0,0,0,0,0,0,0,0,0,0,0,0,0,0,0,0,0,0,0,0,0,0,0,0,0,0,0,0,0,0,0,0,0,0,0,0,0,0,0,0,0,0,0,0,0,0,0,0,0,0,0,0,0,0,0,0,0,0,0,0,0,0,0,0,0,0,0,0,0,0,0,0,0,0,0,0,0,0,0,0,0,0,0,0,0,0,0,0,0,0,0,0,0,0,0,0,0,0,0,0,0,0,0,0,0,0,0,0,0,0,0,0,0,0,0,0,0,0,0,0,0,0,0,0,0,0,0,0,0,0,0,0,0,0,0,0,0,0,0,0,0,0,0,0,0,0,0,0,0,0,0,0,0,0,0,0,0,0,0,0,0,0,0,0,0,0,0,0,0,0,0,0,0,0,0,0,0,0,0,0,0,0,0,0,0,0,0,0,0,0,0,0,0,0,0,0,0,0,0,0,0,0,0,0,0,0,0,0,0,0,0,0,0,0,0,0,0,0,0,0,0,0,0,0,0,0,0,0,0,0,0,0,0,0,0,0,0,0,0,0,0,0,0,0,0,0,0,0,0,0,0,0,0,0,0,0,0,0,0,0,0,0,0,0,0,0,0,0,0,0,0,0,0,0,0,0,0,0,0,0,0,0,0,0,0,0,0,0,0,0,0,0,0,0,0,0,0,0],"trees":[{"base_weights":[3.1150656E-2,1.6787905E-1,-1.1479704E-1,2.8392315E-1,-1.0356572E-1,-5.0503707E-1,-5.410763E-2,1.184897E-1,4.4781998E-1,-3.2032707E-1,1.1731689E-1,5.3122984E-3,-7.265739E-1,-1.5572693E-2,-6.4350826E-1,2.5200143E-1,-2.5910765E-1,6.63578E-1,1.646943E-1,1.136166E-1,-5.851772E-1,3.825817E-1,-4.3035778E-1,-3.3464484E-2,-3.2573137E-1,1.455179E-1,-1.5171781E-1,-2.8385079E-2,-6.337685E-3,1.1279495E-2,-8.02275E-3,-1.728096E-2,5.5319164E-3,8.6658215E-3,2.5344335E-2,1.1314021E-2,-9.9688815E-3,-8.63457E-3,1.46344565E-2,-2.5884664E-2,-1.3438112E-3,-0E0,2.4293168E-2,6.568716E-4,-2.5935369E-2,-2.6328461E-2,7.25926E-3,1.360052E-2,-0E0,-9.579549E-3,3.5784335E-3],"categories":[],"categories_nodes":[],"categories_segments":[],"categories_sizes":[],"default_left":[0,0,0,0,0,0,0,0,0,0,0,0,0,0,0,0,0,0,0,0,0,0,0,0,0,0,0,0,0,0,0,0,0,0,0,0,0,0,0,0,0,0,0,0,0,0,0,0,0,0,0],"id":0,"left_children":[1,3,5,7,9,11,13,15,17,19,21,-1,23,25,27,29,31,33,35,37,39,41,43,-1,45,47,49,-1,-1,-1,-1,-1,-1,-1,-1,-1,-1,-1,-1,-1,-1,-1,-1,-1,-1,-1,-1,-1,-1,-1,-1],"loss_changes":[1.779331E1,1.462906E1,9.963786E0,8.512585E0,6.7769127E0,9.0326605E0,8.302082E0,8.443786E0,9.379692E0,8.460365E0,1.0408342E1,0E0,5.658861E0,7.8235264E0,2.19563E0,8.184196E0,6.4420996E0,5.298683E0,7.968795E0,4.583018E0,6.399682E0,7.853151E0,4.8542438E0,0E0,8.367252E0,7.346657E0,8.955823E0,0E0,0E0,0E0,0E0,0E0,0E0,0E0,0E0,0E0,0E0,0E0,0E0,0E0,0E0,0E0,0E0,0E0,0E0,0E0,0E0,0E0,0E0,0E0,0E0],"parents":[2147483647,0,0,1,1,2,2,3,3,4,4,5,5,6,6,7,7,8,8,9,9,10,10,12,12,13,13,14,14,15,15,16,16,17,17,18,18,19,19,20,20,21,21,22,22,24,24,25,25,26,26],"right_children":[2,4,6,8,10,12,14,16,18,20,22,-1,24,26,28,30,32,34,36,38,40,42,44,-1,46,48,50,-1,-1,-1,-1,-1,-1,-1,-1,-1,-1,-1,-1,-1,-1,-1,-1,-1,-1,-1,-1,-1,-1,-1,-1],"split_conditions":[2.4647519E-1,8.807162E-3,2.396007E-3,8.6967146E-1,1.07596135E-2,-2.0528007E0,4.9871343E-1,2.6116027E-3,1.4207633E-3,7.7708566E-1,2.322538E2,5.3122984E-3,2.7687699E-3,-6.264754E-1,-6.2285136E-3,1.6593636E0,2.8974563E-1,4.5451224E-1,3.95638E-3,2.0893558E-3,1.1005315E0,2.63771E-1,1.519868E-2,-3.3464484E-2,4.041871E-1,3.6082366E-3,3.5871004E-3,-2.8385079E-2,-6.337685E-3,1.1279495E-2,-8.02275E-3,-1.728096E-2,5.5319164E-3,8.6658215E-3,2.5344335E-2,1.1314021E-2,-9.9688815E-3,-8.63457E-3,1.46344565E-2,-2.5884664E-2,-1.3438112E-3,-0E0,2.4293168E-2,6.568716E-4,-2.5935369E-2,-2.6328461E-2,7.25926E-3,1.360052E-2,-0E0,-9.579549E-3,3.5784335E-3],"split_indices":[33,4,38,19,9,46,39,0,11,12,21,0,10,46,9,17,32,41,37,9,17,32,0,0,33,38,3,0,0,0,0,0,0,0,0,0,0,0,0,0,0,0,0,0,0,0,0,0,0,0,0],"split_type":[0,0,0,0,0,0,0,0,0,0,0,0,0,0,0,0,0,0,0,0,0,0,0,0,0,0,0,0,0,0,0,0,0,0,0,0,0,0,0,0,0,0,0,0,0,0,0,0,0,0,0],"sum_hessian":[8.869336E2,4.588363E2,4.280973E2,3.2213507E2,1.3670123E2,5.4980385E1,3.7311688E2,1.6294188E2,1.591932E2,6.92253E1,6.747593E1,1.3245275E1,4.173511E1,3.526242E2,2.049269E1,1.2145667E2,4.14852E1,8.821853E1,7.097468E1,2.6240639E1,4.2984665E1,4.6233505E1,2.1242422E1,1.8993225E1,2.2741886E1,1.6044276E2,1.9218144E2,1.0246345E1,1.0246345E1,9.89647E1,2.2491976E1,2.4241352E1,1.7243849E1,3.0988945E1,5.7229584E1,5.048199E1,2.049269E1,1.2495543E1,1.3745096E1,2.7240282E1,1.5744383E1,2.5490906E1,2.07426E1,1.0996078E1,1.0246345E1,1.1245988E1,1.1495899E1,5.048199E1,1.0996077E2,1.1920747E2,7.297397E1],"tree_param":{"num_deleted":"0","num_feature":"61","num_nodes":"51","size_leaf_vector":"1"}},{"base_weights":[-1.8744355E-2,-1.4669141E-1,1.331112E-1,-1.9627257E-1,3.2633677E-1,-1.9223747E-1,2.4265322E-1,-8.373564E-2,-4.489034E-1,5.3601605E-1,-8.429212E-3,1.6133925E-2,-6.891521E-1,3.2363158E-1,-1.8449062E-1,-2.2281967E-2,-5.792609E-1,1.9507488E-2,-5.931691E-1,2.751581E-2,5.002719E-3,1.9688232E-2,-1.24670506E-1,-5.8825123E-3,-2.8142795E-2,1.9876543E-1,6.613435E-1,1.6535911E-1,-6.197733E-1,-1.89072E-3,2.3632776E-2,-4.077796E-3,-2.674646E-2,1.6831838E-2,-8.658229E-3,-2.1338047E-2,1.1189148E-3,6.3227E-3,-1.1174818E-2,8.857449E-3,-1.0725152E-2,2.5706323E-2,1.9104204E-4,-5.859768E-3,1.7647985E-2,-5.1910025E-3,-2.8496478E-2],"categories":[],"categories_nodes":[],"categories_segments":[],"categories_sizes":[],"default_left":[0,0,0,0,0,0,0,0,0,0,0,0,0,0,0,0,0,0,0,0,0,0,0,0,0,0,0,0,0,0,0,0,0,0,0,0,0,0,0,0,0,0,0,0,0,0,0],"id":1,"left_children":[1,3,5,7,9,11,13,15,17,19,-1,21,23,25,27,29,31,33,35,-1,-1,-1,37,-1,-1,39,41,43,45,-1,-1,-1,-1,-1,-1,-1,-1,-1,-1,-1,-1,-1,-1,-1,-1,-1,-1],"loss_changes":[1.7255169E1,1.1412516E1,1.4544668E1,1.2240982E1,6.2331185E0,1.083267E1,1.06974125E1,9.138456E0,9.247442E0,4.328491E0,0E0,6.967361E0,3.065135E0,1.033251E1,7.837968E0,8.978406E0,4.05132E0,5.9101896E0,7.9219513E0,0E0,0E0,0E0,5.336153E0,0E0,0E0,1.046566E1,8.434811E0,4.6933246E0,2.6878157E0,0E0,0E0,0E0,0E0,0E0,0E0,0E0,0E0,0E0,0E0,0E0,0E0,0E0,0E0,0E0,0E0,0E0,0E0],"parents":[2147483647,0,0,1,1,2,2,3,3,4,4,5,5,6,6,7,7,8,8,9,9,11,11,12,12,13,13,14,14,15,15,16,16,17,17,18,18,22,22,25,25,26,26,27,27,28,28],"right_children":[2,4,6,8,10,12,14,16,18,20,-1,22,24,26,28,30,32,34,36,-1,-1,-1,38,-1,-1,40,42,44,46,-1,-1,-1,-1,-1,-1,-1,-1,-1,-1,-1,-1,-1,-1,-1,-1,-1,-1],"split_conditions":[2.5634462E-1,1.5262306E0,4.8420462E-1,8.744394E-1,1.7617813E0,3.4919205E-1,5.916442E-1,3.6131507E-1,1.2231499E-1,8.4439084E-2,-8.429212E-3,4.039708E-1,-3.082498E-1,1.567469E-2,5.6164665E-3,3.161774E-1,1.6593636E0,5.7915235E-1,8.660254E-1,2.751581E-2,5.002719E-3,1.9688232E-2,4.9730204E-3,-5.8825123E-3,-2.8142795E-2,7.069496E-1,1.5261108E0,2.0643414E-3,4.839476E-3,-1.89072E-3,2.3632776E-2,-4.077796E-3,-2.674646E-2,1.6831838E-2,-8.658229E-3,-2.1338047E-2,1.1189148E-3,6.3227E-3,-1.1174818E-2,8.857449E-3,-1.0725152E-2,2.5706323E-2,1.9104204E-4,-5.859768E-3,1.7647985E-2,-5.1910025E-3,-2.8496478E-2],"split_indices":[32,13,16,12,13,33,41,39,26,32,0,41,39,15,0,39,17,41,28,0,0,0,14,0,0,50,17,0,43,0,0,0,0,0,0,0,0,0,0,0,0,0,0,0,0,0,0],"split_type":[0,0,0,0,0,0,0,0,0,0,0,0,0,0,0,0,0,0,0,0,0,0,0,0,0,0,0,0,0,0,0,0,0,0,0,0,0,0,0,0,0,0,0,0,0,0,0],"sum_hessian":[8.838729E2,4.80808E2,4.030649E2,4.368258E2,4.3982193E1,1.00455475E2,3.026094E2,3.048692E2,1.3195662E2,3.3235954E1,1.0746237E1,7.1714676E1,2.8740799E1,2.5538104E2,4.7228386E1,2.7362973E2,3.123945E1,3.0989155E1,1.0096747E2,1.4493964E1,1.8741991E1,1.1994192E1,5.9720486E1,1.1246237E1,1.7494562E1,1.8941273E2,6.596831E1,2.648922E1,2.0739164E1,2.6263495E2,1.0994807E1,1.4494184E1,1.6745266E1,1.0995266E1,1.9993889E1,8.5222984E1,1.5744486E1,2.4988003E1,3.473248E1,1.6267516E2,2.6737572E1,4.997454E1,1.5993765E1,1.4494335E1,1.1994885E1,1.0494286E1,1.024488E1],"tree_param":{"num_deleted":"0","num_feature":"61","num_nodes":"47","size_leaf_vector":"1"}},{"base_weights":[3.5606318E-3,2.7022429E-2,-5.1914734E-1,-5.957313E-3,4.382293E-1,-1.53087E-2,-3.2710813E-2,-1.002996E-1,1.3268031E-1,5.7849133E-1,-5.9445384E-3,7.083757E-3,-8.662637E-3,1.452297E-1,-1.7691533E-1,2.1344368E-1,-1.9841956E-1,8.083899E-1,1.7156089E-3,-4.524718E-3,1.22281425E-2,-3.6983124E-3,-1.9127015E-2,-0E0,1.0838761E-2,-1.6497897E-2,6.2445197E-3,1.28667075E-2,3.54326E-2],"categories":[],"categories_nodes":[],"categories_segments":[],"categories_sizes":[],"default_left":[0,0,0,0,0,0,0,0,0,0,0,0,0,0,0,0,0,0,0,0,0,0,0,0,0,0,0,0,0],"id":2,"left_children":[1,3,5,7,9,11,-1,13,15,17,-1,-1,-1,19,21,23,25,27,-1,-1,-1,-1,-1,-1,-1,-1,-1,-1,-1],"loss_changes":[1.0854326E1,1.1782083E1,1.0568087E1,1.0432971E1,6.097871E0,1.6985847E0,0E0,9.021109E0,8.701185E0,6.0863514E0,0E0,0E0,0E0,9.012442E0,8.629925E0,8.314222E0,9.400858E0,3.698866E0,0E0,0E0,0E0,0E0,0E0,0E0,0E0,0E0,0E0,0E0,0E0],"parents":[2147483647,0,0,1,1,2,2,3,3,4,4,5,5,7,7,8,8,9,9,13,13,14,14,15,15,16,16,17,17],"right_children":[2,4,6,8,10,12,-1,14,16,18,-1,-1,-1,20,22,24,26,28,-1,-1,-1,-1,-1,-1,-1,-1,-1,-1,-1],"split_conditions":[2.698915E2,4.6443222E1,9.6833336E-1,2.8974563E-1,5.936668E-1,7.046293E-1,-3.2710813E-2,1.2231499E-1,1.3993074E0,1.7396493E-1,-5.9445384E-3,7.083757E-3,-8.662637E-3,-1.711585E1,1.5867605E0,-2.5226533E-1,5.527842E-1,5.226272E1,1.7156089E-3,-4.524718E-3,1.22281425E-2,-3.6983124E-3,-1.9127015E-2,-0E0,1.0838761E-2,-1.6497897E-2,6.2445197E-3,1.28667075E-2,3.54326E-2],"split_indices":[21,25,23,32,41,16,0,26,16,42,0,0,0,21,19,40,23,25,0,0,0,0,0,0,0,0,0,0,0],"split_type":[0,0,0,0,0,0,0,0,0,0,0,0,0,0,0,0,0,0,0,0,0,0,0,0,0,0,0,0,0],"sum_hessian":[8.928307E2,8.568418E2,3.5988884E1,7.9437274E2,6.2469063E1,2.0492378E1,1.5496508E1,4.7431824E2,3.2005447E2,5.1722473E1,1.074659E1,1.02465315E1,1.0245847E1,1.11449844E2,3.628684E2,2.5859387E2,6.1460617E1,3.4729603E1,1.699287E1,5.2226475E1,5.9223373E1,3.2787692E2,3.4991474E1,1.0594658E2,1.5264728E2,3.297979E1,2.8480827E1,1.973791E1,1.49916935E1],"tree_param":{"num_deleted":"0","num_feature":"61","num_nodes":"29","size_leaf_vector":"1"}},{"base_weights":[-1.536304E-2,6.1714943E-2,-2.171703E-1,4.3131217E-1,2.2066744E-2,-5.025028E-1,-0E0,6.586887E-1,-6.7220656E-3,-1.1883079E-1,1.3495071E-1,-9.7028095E-1,-3.2789177E-1,1.5819523E-1,-3.7718648E-1,9.8311895E-1,2.8626725E-1,-2.129647E-1,2.3067908E-1,5.9807185E-2,4.8579216E-1,-4.2420764E-2,-5.821958E-3,7.915772E-3,-4.6091625E-1,-2.551888E-1,3.844366E-1,-5.906475E-1,6.677284E-4,4.0978357E-2,1.43120475E-2,2.0472657E-2,-5.0686896E-3,-1.2206806E-2,-6.384477E-4,2.0159826E-2,-7.0681046E-3,3.5701578E-3,-1.7658385E-2,3.0533215E-2,8.210739E-3,-1.9441396E-2,2.6632927E-3,-2.3163907E-2,9.5530594E-4,2.7041612E-2,6.247588E-3,-6.2608207E-3,-2.3851397E-2],"categories":[],"categories_nodes":[],"categories_segments":[],"categories_sizes":[],"default_left":[0,0,0,0,0,0,0,0,0,0,0,0,0,0,0,0,0,0,0,0,0,0,0,0,0,0,0,0,0,0,0,0,0,0,0,0,0,0,0,0,0,0,0,0,0,0,0,0,0],"id":3,"left_children":[1,3,5,7,9,11,13,15,-1,17,19,21,23,25,27,29,31,33,35,37,39,-1,-1,-1,41,43,45,47,-1,-1,-1,-1,-1,-1,-1,-1,-1,-1,-1,-1,-1,-1,-1,-1,-1,-1,-1,-1,-1],"loss_changes":[1.4108268E1,9.419617E0,1.5555876E1,9.733275E0,9.467476E0,7.8336334E0,8.732849E0,4.7615986E0,0E0,8.766243E0,8.512634E0,8.611279E0,6.7942333E0,9.886033E0,3.8828835E0,2.7901306E0,4.935651E0,7.638256E0,1.2016335E1,1.0587789E1,5.5385933E0,0E0,0E0,0E0,7.3265915E0,5.795889E0,5.4813004E0,1.6105089E0,0E0,0E0,0E0,0E0,0E0,0E0,0E0,0E0,0E0,0E0,0E0,0E0,0E0,0E0,0E0,0E0,0E0,0E0,0E0,0E0,0E0],"parents":[2147483647,0,0,1,1,2,2,3,3,4,4,5,5,6,6,7,7,9,9,10,10,11,11,12,12,13,13,14,14,15,15,16,16,17,17,18,18,19,19,20,20,24,24,25,25,26,26,27,27],"right_children":[2,4,6,8,10,12,14,16,-1,18,20,22,24,26,28,30,32,34,36,38,40,-1,-1,-1,42,44,46,48,-1,-1,-1,-1,-1,-1,-1,-1,-1,-1,-1,-1,-1,-1,-1,-1,-1,-1,-1,-1,-1],"split_conditions":[8.807162E-3,3.789086E-1,3.3656633E-3,1.08887E0,8.271749E-1,1.1644015E-1,2.017535E-2,1.34209795E-2,-6.7220656E-3,3.671787E-1,4.8427666E-3,7.5071204E-1,5.478795E-1,6.1041847E1,1.0641627E-1,-8.617357E-3,-2.5233973E-2,1.0273443E-3,1.1720727E-1,1.4326968E-2,5.4479055E-3,-4.2420764E-2,-5.821958E-3,7.915772E-3,8.519016E-2,3.4130402E-3,8.1624985E-1,8.8045925E-1,6.677284E-4,4.0978357E-2,1.43120475E-2,2.0472657E-2,-5.0686896E-3,-1.2206806E-2,-6.384477E-4,2.0159826E-2,-7.0681046E-3,3.5701578E-3,-1.7658385E-2,3.0533215E-2,8.210739E-3,-1.9441396E-2,2.6632927E-3,-2.3163907E-2,9.5530594E-4,2.7041612E-2,6.247588E-3,-6.2608207E-3,-2.3851397E-2],"split_indices":[4,41,3,19,19,32,2,15,0,49,3,13,12,20,42,2,10,8,57,15,3,0,0,0,44,1,13,23,0,0,0,0,0,0,0,0,0,0,0,0,0,0,0,0,0,0,0,0,0],"split_type":[0,0,0,0,0,0,0,0,0,0,0,0,0,0,0,0,0,0,0,0,0,0,0,0,0,0,0,0,0,0,0,0,0,0,0,0,0,0,0,0,0,0,0,0,0,0,0,0,0],"sum_hessian":[9.0027704E2,6.513884E2,2.4888858E2,6.0460175E1,5.909283E2,1.0646548E2,1.424231E2,4.521948E1,1.5240696E1,2.6162045E2,3.293078E2,2.5994692E1,8.047079E1,1.0119268E2,4.1230423E1,2.19836E1,2.323588E1,2.074007E2,5.4219772E1,2.738503E2,5.5457478E1,1.5247931E1,1.0746762E1,1.3994569E1,6.647622E1,3.523324E1,6.595944E1,2.6736343E1,1.4494081E1,1.0243293E1,1.1740308E1,1.2242647E1,1.0993233E1,1.01202225E2,1.0619847E2,2.7732893E1,2.6486877E1,2.5286078E2,2.0989546E1,1.3239435E1,4.2218044E1,4.9733498E1,1.674272E1,1.1745263E1,2.3487976E1,1.4240488E1,5.1718952E1,1.1240795E1,1.5495548E1],"tree_param":{"num_deleted":"0","num_feature":"61","num_nodes":"49","size_leaf_vector":"1"}},{"base_weights":[1.8497512E-2,9.4256476E-2,-2.4414033E-1,1.8175203E-1,-1.1343486E-1,1.1253748E-1,-3.5770893E-1,-4.3043606E-2,2.61712E-1,-1.7729673E-1,3.6449608E-1,1.35752335E-2,-1.1623817E-1,-1.1741036E-1,-6.0693914E-1,4.374231E-1,-1.9263713E-1,5.8058985E-2,3.486117E-1,-6.891445E-1,-8.841423E-2,2.2264916E-2,-1.3668565E-3,-1.4931177E-2,5.0643533E-3,-2.947681E-1,1.2864924E-2,-2.314312E-1,-8.7869865E-1,2.6351816E-4,2.384555E-2,-1.5626614E-3,-2.103105E-2,-6.294184E-3,1.0161966E-2,1.219379E-2,-1.3341662E-3,-3.3152945E-2,-6.084171E-3,-5.079228E-3,8.955083E-3,-1.9077254E-2,-1.8778109E-4,9.937235E-3,-2.0038368E-2,-1.4268642E-2,-3.2240458E-2],"categories":[],"categories_nodes":[],"categories_segments":[],"categories_sizes":[],"default_left":[0,0,0,0,0,0,0,0,0,0,0,0,0,0,0,0,0,0,0,0,0,0,0,0,0,0,0,0,0,0,0,0,0,0,0,0,0,0,0,0,0,0,0,0,0,0,0],"id":4,"left_children":[1,3,5,7,9,11,13,15,17,19,21,-1,23,25,27,29,31,33,35,37,39,-1,-1,-1,-1,41,-1,43,45,-1,-1,-1,-1,-1,-1,-1,-1,-1,-1,-1,-1,-1,-1,-1,-1,-1,-1],"loss_changes":[1.781847E1,1.2733634E1,8.261453E0,8.939217E0,6.388259E0,4.034289E0,8.798834E0,9.433878E0,6.2880154E0,8.034893E0,4.06917E0,0E0,3.581615E0,8.055073E0,6.80925E0,4.4920335E0,6.914139E0,8.634712E0,5.9214764E0,4.5186605E0,5.067869E0,0E0,0E0,0E0,0E0,5.971323E0,0E0,8.952758E0,1.8097496E0,0E0,0E0,0E0,0E0,0E0,0E0,0E0,0E0,0E0,0E0,0E0,0E0,0E0,0E0,0E0,0E0,0E0,0E0],"parents":[2147483647,0,0,1,1,2,2,3,3,4,4,5,5,6,6,7,7,8,8,9,9,10,10,12,12,13,13,14,14,15,15,16,16,17,17,18,18,19,19,20,20,25,25,27,27,28,28],"right_children":[2,4,6,8,10,12,14,16,18,20,22,-1,24,26,28,30,32,34,36,38,40,-1,-1,-1,-1,42,-1,44,46,-1,-1,-1,-1,-1,-1,-1,-1,-1,-1,-1,-1,-1,-1,-1,-1,-1,-1],"split_conditions":[1.1912174E0,3.8032055E-1,-1.1441447E-1,-2.7879244E-1,6.951063E-3,1.1117639E-1,5.8139926E-1,-4.9116072E-1,1.390414E-1,-4.0320614E-1,4.24736E-1,1.35752335E-2,5.972919E-2,2.8765723E-1,1.2356304E-2,5.373124E-1,9.1991657E-1,3.7996569E-3,8.414411E-1,-5.140419E-3,7.3812777E-1,2.2264916E-2,-1.3668565E-3,-1.4931177E-2,5.0643533E-3,8.628562E-3,1.2864924E-2,1.8942195E-3,1.6123499E-1,2.6351816E-4,2.384555E-2,-1.5626614E-3,-2.103105E-2,-6.294184E-3,1.0161966E-2,1.219379E-2,-1.3341662E-3,-3.3152945E-2,-6.084171E-3,-5.079228E-3,8.955083E-3,-1.9077254E-2,-1.8778109E-4,9.937235E-3,-2.0038368E-2,-1.4268642E-2,-3.2240458E-2],"split_indices":[12,33,42,44,2,33,41,44,32,44,24,0,44,42,6,23,23,38,12,6,26,0,0,0,0,9,0,1,33,0,0,0,0,0,0,0,0,0,0,0,0,0,0,0,0,0,0],"split_type":[0,0,0,0,0,0,0,0,0,0,0,0,0,0,0,0,0,0,0,0,0,0,0,0,0,0,0,0,0,0,0,0,0,0,0,0,0,0,0,0,0,0,0,0,0,0,0],"sum_hessian":[8.934747E2,6.9532874E2,1.9814594E2,4.9042026E2,2.0490848E2,4.722039E1,1.5092555E2,1.27931465E2,3.624888E2,1.8241913E2,2.2489353E1,1.8734922E1,2.8485468E1,7.8950386E1,7.197516E1,2.8984623E1,9.894684E1,1.1044494E2,2.5204385E2,2.4492428E1,1.579267E2,1.1244683E1,1.124467E1,1.1994384E1,1.6491083E1,6.0708904E1,1.824148E1,3.2237553E1,3.973761E1,1.4492845E1,1.4491779E1,7.970665E1,1.9240187E1,5.6223366E1,5.4221573E1,2.2031628E2,3.1727571E1,1.1497489E1,1.299494E1,1.3218976E2,2.5736937E1,2.623723E1,3.4471672E1,1.3994083E1,1.824347E1,1.5743183E1,2.3994425E1],"tree_param":{"num_deleted":"0","num_feature":"61","num_nodes":"47","size_leaf_vector":"1"}},{"base_weights":[3.3151682E-2,1.1111343E-1,-2.2874114E-1,3.758687E-1,6.109486E-2,-5.766524E-1,-8.47995E-2,5.943003E-1,7.535118E-2,-9.886486E-3,2.7636302E-1,-0E0,-1.0974269E0,1.9113506E-1,-2.567933E-1,9.112692E-1,1.578699E-1,-1.4750323E-2,2.9016164E-1,-1.7252895E-1,8.515729E-2,5.5015546E-1,6.947727E-2,1.3003989E-2,-1.6212983E-2,-4.0625233E-2,-2.1268237E-2,4.7513232E-1,-1.0594763E-2,-2.6187524E-2,-7.896779E-2,3.24928E-2,1.1623983E-2,-7.6214545E-3,1.5923759E-2,1.7128885E-2,-0E0,-1.4615647E-2,4.395379E-3,5.0926856E-3,-6.411071E-3,3.5267854E-3,2.3827812E-2,-8.425994E-3,6.593646E-3,4.281395E-3,2.0972349E-2,1.0814767E-2,-7.090879E-3],"categories":[],"categories_nodes":[],"categories_segments":[],"categories_sizes":[],"default_left":[0,0,0,0,0,0,0,0,0,0,0,0,0,0,0,0,0,0,0,0,0,0,0,0,0,0,0,0,0,0,0,0,0,0,0,0,0,0,0,0,0,0,0,0,0,0,0,0,0],"id":5,"left_children":[1,3,5,7,9,11,13,15,17,19,21,23,25,27,29,31,33,-1,35,37,39,41,43,-1,-1,-1,-1,45,-1,-1,47,-1,-1,-1,-1,-1,-1,-1,-1,-1,-1,-1,-1,-1,-1,-1,-1,-1,-1],"loss_changes":[1.833803E1,9.010182E0,1.000145E1,6.8579416E0,9.0526085E0,1.762701E1,7.1610746E0,7.995081E0,6.157361E0,6.8914623E0,8.043924E0,7.566739E0,5.518341E-1,9.254427E0,9.759852E0,1.8885117E0,4.8049383E0,0E0,3.0773678E0,1.6802238E1,7.120637E0,6.108099E0,4.6570582E0,0E0,0E0,0E0,0E0,2.4493332E0,0E0,0E0,5.3003755E0,0E0,0E0,0E0,0E0,0E0,0E0,0E0,0E0,0E0,0E0,0E0,0E0,0E0,0E0,0E0,0E0,0E0,0E0],"parents":[2147483647,0,0,1,1,2,2,3,3,4,4,5,5,6,6,7,7,8,8,9,9,10,10,11,11,12,12,13,13,14,14,15,15,16,16,18,18,19,19,20,20,21,21,22,22,27,27,30,30],"right_children":[2,4,6,8,10,12,14,16,18,20,22,24,26,28,30,32,34,-1,36,38,40,42,44,-1,-1,-1,-1,46,-1,-1,48,-1,-1,-1,-1,-1,-1,-1,-1,-1,-1,-1,-1,-1,-1,-1,-1,-1,-1],"split_conditions":[6.3488577E-3,6.2422745E-2,8.628562E-3,3.7808227E-3,4.7919555E-3,-1.4247579E-3,-2.7197009E-2,7.278481E-1,3.7301679E-3,1.6391942E-1,-4.1597445E-2,6.552003E1,4.067064E-3,8.660254E-1,-8.634195E-3,7.461166E-1,2.47547E-3,-1.4750323E-2,1E0,9.118447E-1,2.6519306E-3,-2.3915672E-1,-1.5534098E-2,1.3003989E-2,-1.6212983E-2,-4.0625233E-2,-2.1268237E-2,-2.1815133E-1,-1.0594763E-2,-2.6187524E-2,1.2231499E-1,3.24928E-2,1.1623983E-2,-7.6214545E-3,1.5923759E-2,1.7128885E-2,-0E0,-1.4615647E-2,4.395379E-3,5.0926856E-3,-6.411071E-3,3.5267854E-3,2.3827812E-2,-8.425994E-3,6.593646E-3,4.281395E-3,2.0972349E-2,1.0814767E-2,-7.090879E-3],"split_indices":[18,33,9,37,38,43,39,31,5,32,42,20,38,29,43,22,1,0,34,19,18,42,2,0,0,0,0,39,0,0,26,0,0,0,0,0,0,0,0,0,0,0,0,0,0,0,0,0,0],"split_type":[0,0,0,0,0,0,0,0,0,0,0,0,0,0,0,0,0,0,0,0,0,0,0,0,0,0,0,0,0,0,0,0,0,0,0,0,0,0,0,0,0,0,0,0,0,0,0,0,0],"sum_hessian":[8.9538586E2,6.917568E2,2.0362912E2,1.0689891E2,5.8485785E2,5.722298E1,1.4640614E2,6.0193626E1,4.6705284E1,4.4021747E2,1.4464037E2,2.8234947E1,2.8988033E1,5.5461246E1,9.094489E1,3.3210346E1,2.698328E1,1.1740331E1,3.4964954E1,1.6293054E2,2.7728693E2,6.0201385E1,8.443898E1,1.5739877E1,1.249507E1,1.3995025E1,1.4993008E1,3.6974365E1,1.8486881E1,1.8240625E1,7.270427E1,2.2967901E1,1.0242444E1,1.2741962E1,1.4241318E1,1.698655E1,1.7978405E1,8.1971375E1,8.0959175E1,2.1756741E2,5.9719517E1,2.3228558E1,3.697283E1,2.4230255E1,6.020872E1,1.674005E1,2.0234316E1,1.7989437E1,5.4714836E1],"tree_param":{"num_deleted":"0","num_feature":"61","num_nodes":"49","size_leaf_vector":"1"}},{"base_weights":[3.8968786E-3,-1.0734892E-1,1.6963035E-1,-3.699678E-2,-4.1018993E-1,4.0181947E-1,4.6036832E-2,1.1641126E-2,-4.6486467E-1,-9.730829E-2,-6.5321994E-1,8.1004137E-1,2.0324044E-1,2.4810961E-1,-2.5058967E-1,-1.1270716E-1,2.387013E-1,-5.76787E-2,-8.1585383E-1,-3.9576086E-1,9.157396E-3,-0E0,-8.9386266E-1,3.3302024E-2,3.052006E-3,-2.310937E-1,3.9147645E-1,4.146962E-1,-2.6857057E-1,-4.7248647E-1,7.495507E-2,4.164546E-3,-6.8710856E-3,1.0979799E-2,-4.4157854E-3,-1.2972702E-2,9.076762E-3,-1.040273E-2,-3.2952007E-2,-0E0,-2.3225805E-2,-4.1198216E-2,-1.6600503E-2,7.88515E-3,-2.2464527E-2,-7.1285497E-3,1.7254528E-2,1.8319538E-2,1.3675559E-3,8.378223E-3,-1.9496402E-2,-1.98718E-2,3.241356E-3,-1.5954344E-2,1.7878843E-2],"categories":[],"categories_nodes":[],"categories_segments":[],"categories_sizes":[],"default_left":[0,0,0,0,0,0,0,0,0,0,0,0,0,0,0,0,0,0,0,0,0,0,0,0,0,0,0,0,0,0,0,0,0,0,0,0,0,0,0,0,0,0,0,0,0,0,0,0,0,0,0,0,0,0,0],"id":6,"left_children":[1,3,5,7,9,11,13,15,17,19,21,23,25,27,29,31,33,35,37,39,-1,-1,41,-1,-1,43,45,47,49,51,53,-1,-1,-1,-1,-1,-1,-1,-1,-1,-1,-1,-1,-1,-1,-1,-1,-1,-1,-1,-1,-1,-1,-1,-1],"loss_changes":[1.6510832E1,1.1216835E1,1.0169173E1,9.230525E0,7.2289753E0,9.424604E0,1.4405022E1,1.1195211E1,6.108346E0,5.852628E0,8.582411E0,7.791849E0,7.311964E0,1.2602809E1,7.192552E0,7.540442E0,7.0824814E0,3.4713988E0,1.9518547E0,4.0041447E0,0E0,0E0,4.4702454E0,0E0,0E0,7.4361095E0,7.499757E0,7.6751556E0,7.935725E0,6.7552366E0,1.3446871E1,0E0,0E0,0E0,0E0,0E0,0E0,0E0,0E0,0E0,0E0,0E0,0E0,0E0,0E0,0E0,0E0,0E0,0E0,0E0,0E0,0E0,0E0,0E0,0E0],"parents":[2147483647,0,0,1,1,2,2,3,3,4,4,5,5,6,6,7,7,8,8,9,9,10,10,11,11,12,12,13,13,14,14,15,15,16,16,17,17,18,18,19,19,22,22,25,25,26,26,27,27,28,28,29,29,30,30],"right_children":[2,4,6,8,10,12,14,16,18,20,22,24,26,28,30,32,34,36,38,40,-1,-1,42,-1,-1,44,46,48,50,52,54,-1,-1,-1,-1,-1,-1,-1,-1,-1,-1,-1,-1,-1,-1,-1,-1,-1,-1,-1,-1,-1,-1,-1,-1],"split_conditions":[2.8974563E-1,4.174086E0,-4.72577E-3,4.0728977E-1,-3.4116335E-2,3.617359E-3,2.557425E-1,9.589519E-2,2.2486487E-1,7.301445E1,1.5444745E-3,-2.0528007E0,4.2878147E-3,8.9659256E-1,2.6110081E-2,-2.237172E-3,2E-1,1.8625627E0,3.4902792E-3,4.4388366E-1,9.157396E-3,-0E0,3.9437944E-1,3.3302024E-2,3.052006E-3,4.8214635E-1,3.495839E-1,4.6635795E-1,7.435577E-3,9.112042E-1,2.2192248E-3,4.164546E-3,-6.8710856E-3,1.0979799E-2,-4.4157854E-3,-1.2972702E-2,9.076762E-3,-1.040273E-2,-3.2952007E-2,-0E0,-2.3225805E-2,-4.1198216E-2,-1.6600503E-2,7.88515E-3,-2.2464527E-2,-7.1285497E-3,1.7254528E-2,1.8319538E-2,1.3675559E-3,8.378223E-3,-1.9496402E-2,-1.98718E-2,3.241356E-3,-1.5954344E-2,1.7878843E-2],"split_indices":[32,46,10,39,39,37,33,44,33,20,11,46,38,23,44,0,45,16,5,23,0,0,24,0,0,32,24,24,10,16,11,0,0,0,0,0,0,0,0,0,0,0,0,0,0,0,0,0,0,0,0,0,0,0,0],"split_type":[0,0,0,0,0,0,0,0,0,0,0,0,0,0,0,0,0,0,0,0,0,0,0,0,0,0,0,0,0,0,0,0,0,0,0,0,0,0,0,0,0,0,0,0,0,0,0,0,0,0,0,0,0,0,0],"sum_hessian":[8.9053094E2,5.321971E2,3.583339E2,4.3449557E2,9.7701485E1,1.22072556E2,2.3626134E2,3.9126315E2,4.323243E1,4.4476616E1,5.322487E1,3.743917E1,8.4633385E1,1.4132446E2,9.4936874E1,2.5260913E2,1.3865402E2,2.148771E1,2.1744717E1,2.598812E1,1.8488499E1,1.4990777E1,3.823409E1,2.5204882E1,1.2234288E1,2.4969612E1,5.9663773E1,1.0760587E2,3.3718586E1,5.646688E1,3.846999E1,7.894645E1,1.7366269E2,1.0492407E2,3.3729954E1,1.0743535E1,1.0744177E1,1.0247559E1,1.1497159E1,1.3993838E1,1.1994282E1,1.299348E1,2.524061E1,1.2985774E1,1.1983838E1,1.2981328E1,4.6682446E1,6.890421E1,3.870166E1,1.3734306E1,1.9984282E1,4.2725136E1,1.3741747E1,1.748712E1,2.098287E1],"tree_param":{"num_deleted":"0","num_feature":"61","num_nodes":"55","size_leaf_vector":"1"}},{"base_weights":[-1.0011824E-2,8.9585945E-2,-1.5193658E-1,1.332018E-1,-2.574728E-1,-2.3161856E-2,-3.732074E-1,-3.0241346E-1,1.658072E-1,1.3312859E-2,-4.4556272E-1,-1.2248772E-1,2.9645142E-1,-4.8011675E-1,4.5055285E-2,1.7078579E-3,-1.6161485E-2,-1.4358677E-1,2.3136428E-1,-2.7680583E-2,-1.483228E-1,-4.1934806E-1,-2.248995E-2,2.6266076E-2,4.5725048E-2,-2.7621152E-2,-6.0693413E-1,1.4586582E-2,-9.024204E-3,5.014576E-3,-1.4053103E-2,1.0075481E-2,3.129083E-5,7.836115E-3,-2.2447014E-2,4.48652E-3,-1.7976167E-2,-1.8917257E-2,1.4268536E-3,8.72847E-3,-1.681082E-2,1.3395726E-2,-1.34633435E-2,-2.8903238E-2,-1.1142471E-2],"categories":[],"categories_nodes":[],"categories_segments":[],"categories_sizes":[],"default_left":[0,0,0,0,0,0,0,0,0,0,0,0,0,0,0,0,0,0,0,0,0,0,0,0,0,0,0,0,0,0,0,0,0,0,0,0,0,0,0,0,0,0,0,0,0],"id":7,"left_children":[1,3,5,7,9,11,13,15,17,-1,19,21,23,25,27,-1,-1,29,31,-1,33,35,37,-1,39,41,43,-1,-1,-1,-1,-1,-1,-1,-1,-1,-1,-1,-1,-1,-1,-1,-1,-1,-1],"loss_changes":[1.2875651E1,8.104969E0,1.0585218E1,6.818754E0,8.238468E0,7.6659813E0,6.3192234E0,3.025674E0,9.112517E0,0E0,6.2435017E0,5.3661404E0,7.914869E0,6.0997353E0,4.8087587E0,0E0,0E0,8.139297E0,8.766476E0,0E0,8.516907E0,5.0172396E0,6.2796025E0,0E0,6.5213213E0,5.740484E0,6.059538E0,0E0,0E0,0E0,0E0,0E0,0E0,0E0,0E0,0E0,0E0,0E0,0E0,0E0,0E0,0E0,0E0,0E0,0E0],"parents":[2147483647,0,0,1,1,2,2,3,3,4,4,5,5,6,6,7,7,8,8,10,10,11,11,12,12,13,13,14,14,17,17,18,18,20,20,21,21,22,22,24,24,25,25,26,26],"right_children":[2,4,6,8,10,12,14,16,18,-1,20,22,24,26,28,-1,-1,30,32,-1,34,36,38,-1,40,42,44,-1,-1,-1,-1,-1,-1,-1,-1,-1,-1,-1,-1,-1,-1,-1,-1,-1,-1],"split_conditions":[3.0111188E-1,1.8173362E0,5.0404406E-1,2.40083E-1,2.447999E-3,-1.1212816E-1,6.4466435E-1,9.303591E-2,-4.4456923E-1,1.3312859E-2,9.150327E-3,-1.6456407E2,2.5096955E-4,1.2636973E-1,4.2533837E-3,1.7078579E-3,-1.6161485E-2,5.106322E-1,7.063849E-1,-2.7680583E-2,2.6969124E-2,1.11380965E-1,5.5045885E-1,2.6266076E-2,5.684243E-1,-2.5881904E-1,9.9826294E-1,1.4586582E-2,-9.024204E-3,5.014576E-3,-1.4053103E-2,1.0075481E-2,3.129083E-5,7.836115E-3,-2.2447014E-2,4.48652E-3,-1.7976167E-2,-1.8917257E-2,1.4268536E-3,8.72847E-3,-1.681082E-2,1.3395726E-2,-1.34633435E-2,-2.8903238E-2,-1.1142471E-2],"split_indices":[33,12,12,24,7,12,41,33,40,0,0,21,9,26,8,0,0,41,31,0,4,26,19,0,41,29,19,0,0,0,0,0,0,0,0,0,0,0,0,0,0,0,0,0,0],"split_type":[0,0,0,0,0,0,0,0,0,0,0,0,0,0,0,0,0,0,0,0,0,0,0,0,0,0,0,0,0,0,0,0,0,0,0,0,0,0,0,0,0,0,0,0,0],"sum_hessian":[9.056314E2,5.313632E2,3.7426816E2,4.739033E2,5.745995E1,2.3883603E2,1.3543213E2,3.1207924E1,4.4269537E2,1.1240317E1,4.621963E1,1.838678E2,5.4968227E1,1.08197876E2,2.7234251E1,1.2479361E1,1.8728563E1,7.6185295E1,3.6651007E2,1.5738643E1,3.048099E1,4.39645E1,1.3990329E2,1.4741149E1,4.0227077E1,2.473663E1,8.346124E1,1.1992714E1,1.5241537E1,3.896256E1,3.7222733E1,2.5060457E2,1.159055E2,1.8488804E1,1.1992185E1,1.0240929E1,3.372357E1,1.3241309E1,1.2666199E2,2.9732225E1,1.0494852E1,1.1244548E1,1.3492083E1,3.0236559E1,5.322468E1],"tree_param":{"num_deleted":"0","num_feature":"61","num_nodes":"45","size_leaf_vector":"1"}},{"base_weights":[-1.2170776E-2,1.1051591E-1,-1.6630393E-1,2.486987E-1,-6.9440557E-3,-3.549117E-2,-3.5976472E-1,-0E0,3.8304606E-1,7.079201E-2,-2.8752348E-1,-1.3661078E-1,3.3934262E-1,-3.129533E-2,-2.672396E-1,-4.4572595E-1,2.1528904E-1,4.7868794E-1,-6.967755E-3,-1.5762335E-1,1.9810164E-1,-2.2189537E-2,-1.0078222E-1,3.441184E-2,-3.6971956E-1,-7.081192E-2,7.5478774E-1,-2.3244161E-2,-1.8004492E-1,5.480496E-4,-2.701557E-2,8.91214E-4,2.1110987E-2,1.693794E-2,-2.3136932E-5,1.8142111E-3,-2.150476E-2,1.3904413E-2,-4.2675008E-4,7.290223E-3,-8.524745E-3,4.27178E-3,-1.4793406E-2,-2.6695272E-2,-4.9006226E-3,-1.0772617E-2,7.6109483E-3,3.1360265E-2,7.005371E-3,-9.223635E-3,7.148471E-3],"categories":[],"categories_nodes":[],"categories_segments":[],"categories_sizes":[],"default_left":[0,0,0,0,0,0,0,0,0,0,0,0,0,0,0,0,0,0,0,0,0,0,0,0,0,0,0,0,0,0,0,0,0,0,0,0,0,0,0,0,0,0,0,0,0,0,0,0,0,0,0],"id":8,"left_children":[1,3,5,7,9,11,13,15,17,19,21,23,25,-1,27,29,31,33,-1,35,37,-1,39,41,43,45,47,-1,49,-1,-1,-1,-1,-1,-1,-1,-1,-1,-1,-1,-1,-1,-1,-1,-1,-1,-1,-1,-1,-1,-1],"loss_changes":[1.700708E1,8.180237E0,9.959196E0,7.599451E0,6.009219E0,9.178744E0,9.160595E0,8.152124E0,9.066034E0,6.2601314E0,4.660635E0,7.78478E0,9.038841E0,0E0,5.8037205E0,6.093285E0,5.0096493E0,5.526802E0,0E0,9.601038E0,7.9415507E0,0E0,3.0008364E0,6.4092183E0,8.2173605E0,2.7617302E0,3.0627384E0,0E0,6.8789253E0,0E0,0E0,0E0,0E0,0E0,0E0,0E0,0E0,0E0,0E0,0E0,0E0,0E0,0E0,0E0,0E0,0E0,0E0,0E0,0E0,0E0,0E0],"parents":[2147483647,0,0,1,1,2,2,3,3,4,4,5,5,6,6,7,7,8,8,9,9,10,10,11,11,12,12,14,14,15,15,16,16,17,17,19,19,20,20,22,22,23,23,24,24,25,25,26,26,28,28],"right_children":[2,4,6,8,10,12,14,16,18,20,22,24,26,-1,28,30,32,34,-1,36,38,-1,40,42,44,46,48,-1,50,-1,-1,-1,-1,-1,-1,-1,-1,-1,-1,-1,-1,-1,-1,-1,-1,-1,-1,-1,-1,-1,-1],"split_conditions":[2.7969122E-1,-6.7533E-2,1.5756501E-3,2.2269241E1,5.7915235E-1,-6.2623934E-4,2.5370962E-3,-7.349116E-3,5E-1,3.7095993E-5,-2.4401887E-1,3.2382447E-1,7.0122583E-3,-3.129533E-2,-1.2724628E-2,-2.3394583E-3,3.2083048E-3,1.6811212E0,-6.967755E-3,-2.780918E-3,2.3253635E1,-2.2189537E-2,1.2231499E-1,1.3992162E-3,-1.6675601E2,5E-1,5.534483E-1,-2.3244161E-2,4.5193103E-3,5.480496E-4,-2.701557E-2,8.91214E-4,2.1110987E-2,1.693794E-2,-2.3136932E-5,1.8142111E-3,-2.150476E-2,1.3904413E-2,-4.2675008E-4,7.290223E-3,-8.524745E-3,4.27178E-3,-1.4793406E-2,-2.6695272E-2,-4.9006226E-3,-1.0772617E-2,7.6109483E-3,3.1360265E-2,7.005371E-3,-9.223635E-3,7.148471E-3],"split_indices":[33,42,9,25,41,9,9,43,58,43,44,31,15,0,6,10,3,17,0,43,25,0,26,10,21,28,41,0,3,0,0,0,0,0,0,0,0,0,0,0,0,0,0,0,0,0,0,0,0,0,0],"split_type":[0,0,0,0,0,0,0,0,0,0,0,0,0,0,0,0,0,0,0,0,0,0,0,0,0,0,0,0,0,0,0,0,0,0,0,0,0,0,0,0,0,0,0,0,0,0,0,0,0,0,0],"sum_hessian":[8.9453656E2,4.9730893E2,3.9722763E2,2.286449E2,2.6866403E2,2.3932225E2,1.5790538E2,8.162337E1,1.4702153E2,2.1071144E2,5.795259E1,1.9010793E2,4.9214333E1,1.599214E1,1.4191324E2,2.5465033E1,5.6158333E1,1.280494E2,1.8972145E1,7.439727E1,1.3631418E2,1.4739045E1,4.3213543E1,1.09897964E2,8.020995E1,2.5236347E1,2.3977983E1,1.798852E1,1.2392472E2,1.3228708E1,1.2236324E1,4.2677864E1,1.348047E1,1.0882123E2,1.9228159E1,5.4419926E1,1.997734E1,6.0164318E1,7.614986E1,1.42366295E1,2.8976915E1,9.290897E1,1.698899E1,2.0489815E1,5.972014E1,1.374102E1,1.1495327E1,1.3735635E1,1.0242349E1,9.594887E1,2.7975853E1],"tree_param":{"num_deleted":"0","num_feature":"61","num_nodes":"51","size_leaf_vector":"1"}},{"base_weights":[-3.813081E-4,-7.780769E-2,1.5911259E-1,-1.2276035E-2,-3.6788926E-1,2.7341837E-1,-8.521086E-2,9.092062E-3,-2.4399323E-2,1.934162E-1,-5.15644E-1,1.1209127E-1,5.238109E-1,4.958347E-2,-2.5858821E-2,2.0794166E-2,-1.4738297E-2,-6.145681E-3,1.8500796E-2,-7.6901994E-4,-5.8266413E-1,3.2327735E-1,-1.3491753E-1,6.6217065E-1,-3.8807765E-3,-3.1627712E-1,3.5784537E-1,-4.3331897E-3,3.7059244E-3,-2.0161608E-2,-5.948309E-3,-3.372309E-4,2.7001083E-2,-9.349254E-3,1.0563077E-2,4.7742715E-3,2.5113303E-2,-1.9927287E-2,7.2832685E-5,2.4156033E-3,2.3864081E-2],"categories":[],"categories_nodes":[],"categories_segments":[],"categories_sizes":[],"default_left":[0,0,0,0,0,0,0,0,0,0,0,0,0,0,0,0,0,0,0,0,0,0,0,0,0,0,0,0,0,0,0,0,0,0,0,0,0,0,0,0,0],"id":9,"left_children":[1,3,5,7,9,11,13,15,-1,17,19,21,23,25,-1,-1,27,-1,-1,-1,29,31,33,35,-1,37,39,-1,-1,-1,-1,-1,-1,-1,-1,-1,-1,-1,-1,-1,-1],"loss_changes":[1.1008547E1,1.1334156E1,8.221882E0,8.72118E0,9.431777E0,7.745118E0,1.0102669E1,8.102591E0,0E0,4.4196415E0,2.683134E0,6.639236E0,7.2758255E0,9.385885E0,0E0,0E0,8.445396E0,0E0,0E0,0E0,2.1157074E0,1.3478048E1,5.2120314E0,5.0770645E0,0E0,4.383093E0,5.1191087E0,0E0,0E0,0E0,0E0,0E0,0E0,0E0,0E0,0E0,0E0,0E0,0E0,0E0,0E0],"parents":[2147483647,0,0,1,1,2,2,3,3,4,4,5,5,6,6,7,7,9,9,10,10,11,11,12,12,13,13,16,16,20,20,21,21,22,22,23,23,25,25,26,26],"right_children":[2,4,6,8,10,12,14,16,-1,18,20,22,24,26,-1,-1,28,-1,-1,-1,30,32,34,36,-1,38,40,-1,-1,-1,-1,-1,-1,-1,-1,-1,-1,-1,-1,-1,-1],"split_conditions":[3.3964032E-1,4.118703E0,5.2613683E-2,3.2963842E-1,2.6932284E-3,3.8707708E-3,5.872514E-1,1.4650539E-3,-2.4399323E-2,3.9665185E-2,4.8889834E-1,2.8844755E-3,7.580947E-1,2.251462E-1,-2.5858821E-2,2.0794166E-2,2.8512625E-3,-6.145681E-3,1.8500796E-2,-7.6901994E-4,7.7348775E-1,2.9762734E-3,1.120007E0,-1.1957456E2,-3.8807765E-3,-8.1302635E-2,2.8881071E1,-4.3331897E-3,3.7059244E-3,-2.0161608E-2,-5.948309E-3,-3.372309E-4,2.7001083E-2,-9.349254E-3,1.0563077E-2,4.7742715E-3,2.5113303E-2,-1.9927287E-2,7.2832685E-5,2.4156033E-3,2.3864081E-2],"split_indices":[32,46,42,32,7,5,41,5,0,42,41,5,50,31,0,0,1,0,0,0,31,37,13,21,0,44,25,0,0,0,0,0,0,0,0,0,0,0,0,0,0],"split_type":[0,0,0,0,0,0,0,0,0,0,0,0,0,0,0,0,0,0,0,0,0,0,0,0,0,0,0,0,0,0,0,0,0,0,0,0,0,0,0,0,0],"sum_hessian":[8.8942017E2,6.007103E2,2.8870984E2,4.925568E2,1.08153534E2,1.973637E2,9.134613E1,4.8132007E2,1.1236726E1,2.1985264E1,8.6168274E1,1.2251873E2,7.484496E1,7.91047E1,1.2241433E1,1.4736191E1,4.665839E2,1.1493772E1,1.0491492E1,1.1238741E1,7.492953E1,6.63706E1,5.6148132E1,6.2118313E1,1.2726655E1,3.5704098E1,4.34006E1,2.418244E2,2.2475948E2,5.894469E1,1.5984841E1,4.291873E1,2.3451866E1,4.2178925E1,1.3969206E1,1.7456743E1,4.4661568E1,1.6481892E1,1.9222206E1,2.8434792E1,1.4965809E1],"tree_param":{"num_deleted":"0","num_feature":"61","num_nodes":"41","size_leaf_vector":"1"}},{"base_weights":[-2.7295727E-2,2.6200294E-2,-2.3295805E-1,1.4115022E-1,-6.682418E-2,-1.570084E-2,-5.891341E-1,3.3233762E-1,-4.7898E-2,-1.415794E-1,1.5999316E-1,-5.1766187E-1,1.2448013E-1,-9.022934E-1,-5.7144936E-2,7.982007E-2,5.895598E-1,-1.277354E-1,1.5621376E-2,-3.295932E-2,-4.0004614E-1,6.3376135E-1,-9.6249214E-4,-4.8679634E-4,-2.6396208E-2,-4.002513E-1,3.204109E-1,-3.772185E-2,-6.7576927E-1,5.7719927E-3,-1.1738598E-2,-3.4221767E-3,1.312246E-2,4.333139E-3,2.19112E-2,-6.690638E-3,1.2782111E-2,-7.974551E-3,2.9100338E-3,-2.4474287E-2,-3.990747E-3,8.000986E-3,2.7630337E-2,1.759574E-2,-5.7792044E-3,1.2985959E-3,-2.2307059E-2,1.2673193E-5,1.8746307E-2,-5.099905E-3,-2.7290564E-2],"categories":[],"categories_nodes":[],"categories_segments":[],"categories_sizes":[],"default_left":[0,0,0,0,0,0,0,0,0,0,0,0,0,0,0,0,0,0,0,0,0,0,0,0,0,0,0,0,0,0,0,0,0,0,0,0,0,0,0,0,0,0,0,0,0,0,0,0,0,0,0],"id":10,"left_children":[1,3,5,7,9,11,13,15,17,19,21,23,25,27,29,31,33,35,-1,37,39,41,43,-1,-1,45,47,-1,49,-1,-1,-1,-1,-1,-1,-1,-1,-1,-1,-1,-1,-1,-1,-1,-1,-1,-1,-1,-1,-1,-1],"loss_changes":[9.850465E0,7.5883446E0,1.40988035E1,1.1602858E1,6.6528134E0,8.5043E0,1.1175993E1,1.00349865E1,7.312263E0,8.136797E0,7.5591316E0,4.5107803E0,9.781457E0,1.1967049E0,2.5630448E0,5.9622793E0,4.4081917E0,7.6762996E0,0E0,6.4871078E0,9.091263E0,1.7860394E0,8.400894E0,0E0,0E0,4.19161E0,6.5492578E0,0E0,3.0607424E0,0E0,0E0,0E0,0E0,0E0,0E0,0E0,0E0,0E0,0E0,0E0,0E0,0E0,0E0,0E0,0E0,0E0,0E0,0E0,0E0,0E0,0E0],"parents":[2147483647,0,0,1,1,2,2,3,3,4,4,5,5,6,6,7,7,8,8,9,9,10,10,11,11,12,12,13,13,14,14,15,15,16,16,17,17,19,19,20,20,21,21,22,22,25,25,26,26,28,28],"right_children":[2,4,6,8,10,12,14,16,18,20,22,24,26,28,30,32,34,36,-1,38,40,42,44,-1,-1,46,48,-1,50,-1,-1,-1,-1,-1,-1,-1,-1,-1,-1,-1,-1,-1,-1,-1,-1,-1,-1,-1,-1,-1,-1],"split_conditions":[8.660254E-1,-6.296759E-4,5.807778E-1,1.063341E0,4.296021E-3,3.490046E-2,8.432356E-1,-2.0840639E-1,5E-1,3.971399E-3,8.193815E-1,2.607969E-3,4.9335933E-3,4.1889073E-3,1.1504725E0,3.228745E-1,2.3989682E-1,7.898346E-3,1.5621376E-2,1.7080547E-1,1.8854425E-3,4.2581096E-1,4.1595767E-3,-4.8679634E-4,-2.6396208E-2,3.190195E-1,-3.4200372E-3,-3.772185E-2,9.78622E-3,5.7719927E-3,-1.1738598E-2,-3.4221767E-3,1.312246E-2,4.333139E-3,2.19112E-2,-6.690638E-3,1.2782111E-2,-7.974551E-3,2.9100338E-3,-2.4474287E-2,-3.990747E-3,8.000986E-3,2.7630337E-2,1.759574E-2,-5.7792044E-3,1.2985959E-3,-2.2307059E-2,1.2673193E-5,1.8746307E-2,-5.099905E-3,-2.7290564E-2],"split_indices":[29,0,12,17,3,23,17,44,29,38,17,3,14,2,17,32,31,11,0,32,2,24,5,0,0,26,18,0,15,0,0,0,0,0,0,0,0,0,0,0,0,0,0,0,0,0,0,0,0,0,0],"split_type":[0,0,0,0,0,0,0,0,0,0,0,0,0,0,0,0,0,0,0,0,0,0,0,0,0,0,0,0,0,0,0,0,0,0,0,0,0,0,0,0,0,0,0,0,0,0,0,0,0,0,0],"sum_hessian":[8.8657733E2,7.037955E2,1.8278183E2,3.1577902E2,3.8801648E2,1.1535128E2,6.743054E1,1.5703654E2,1.587425E2,2.933932E2,9.4623276E1,2.4472925E1,9.087836E1,4.1213715E1,2.621683E1,8.115389E1,7.5882645E1,1.4102043E2,1.7722067E1,2.0898389E2,8.440931E1,2.2977772E1,7.16455E1,1.148763E1,1.2985295E1,2.3724327E1,6.715403E1,1.1990802E1,2.9222914E1,1.4979995E1,1.1236834E1,5.2960896E1,2.8192997E1,1.9721987E1,5.6160656E1,1.2180021E2,1.9220224E1,7.493512E1,1.3404877E2,3.096364E1,5.3445667E1,1.2239216E1,1.0738556E1,1.622654E1,5.5418964E1,1.0732643E1,1.2991684E1,3.4199287E1,3.2954742E1,1.0739032E1,1.8483881E1],"tree_param":{"num_deleted":"0","num_feature":"61","num_nodes":"51","size_leaf_vector":"1"}},{"base_weights":[4.6034923E-4,9.6466504E-2,-1.2025705E-1,1.2296912E-1,-1.7530644E-2,-2.4933502E-1,1.317648E-1,1.9640635E-1,-8.205396E-2,9.217162E-2,-3.684952E-1,-2.9562575E-1,3.0839762E-1,3.263524E-2,3.570449E-1,-2.4495395E-1,4.2024675E-1,-1.9070785E-2,2.6051205E-1,1.4552443E-1,-4.6087608E-1,-5.03643E-1,5.9520046E-4,4.1964585E-1,-6.563224E-3,-3.3691213E-3,1.0294883E-2,1.0052884E-3,1.4295235E-2,1.0479162E-3,-1.3250049E-2,2.1863049E-2,3.1318264E-3,1.4216129E-2,-4.1665495E-3,-6.4813555E-3,2.0551993E-2,-7.112503E-3,-1.9683251E-2,-3.8519346E-3,-2.5228508E-2,2.0098545E-2,5.3627454E-3],"categories":[],"categories_nodes":[],"categories_segments":[],"categories_sizes":[],"default_left":[0,0,0,0,0,0,0,0,0,0,0,0,0,0,0,0,0,0,0,0,0,0,0,0,0,0,0,0,0,0,0,0,0,0,0,0,0,0,0,0,0,0,0],"id":11,"left_children":[1,3,5,7,-1,9,11,13,15,17,19,21,23,25,27,29,31,-1,33,35,37,39,-1,41,-1,-1,-1,-1,-1,-1,-1,-1,-1,-1,-1,-1,-1,-1,-1,-1,-1,-1,-1],"loss_changes":[1.0405841E1,9.060263E0,1.3003659E1,7.3705487E0,0E0,1.0884806E1,1.0366961E1,9.3002E0,1.0648967E1,8.695032E0,9.564156E0,2.787483E0,5.9267178E0,8.284373E0,6.773218E0,5.5800276E0,2.6867151E0,0E0,5.1692705E0,6.4794106E0,6.7444954E0,2.623486E0,0E0,4.400013E0,0E0,0E0,0E0,0E0,0E0,0E0,0E0,0E0,0E0,0E0,0E0,0E0,0E0,0E0,0E0,0E0,0E0,0E0,0E0],"parents":[2147483647,0,0,1,1,2,2,3,3,5,5,6,6,7,7,8,8,9,9,10,10,11,11,12,12,13,13,14,14,15,15,16,16,18,18,19,19,20,20,21,21,23,23],"right_children":[2,4,6,8,-1,10,12,14,16,18,20,22,24,26,28,30,32,-1,34,36,38,40,-1,42,-1,-1,-1,-1,-1,-1,-1,-1,-1,-1,-1,-1,-1,-1,-1,-1,-1,-1,-1],"split_conditions":[2.7969122E-1,6.655895E-1,3.7765054E-3,4.9643472E-1,-1.7530644E-2,-2.5312517E0,-3.5612524E0,2.5634462E-1,8.333333E-1,-1.6456407E2,-7.821209E-3,-2.3120827E-4,1.5730617E0,4.3046612E-1,3.208534E-1,-3.1067901E-3,-7.3344354E-4,-1.9070785E-2,1.0493964E0,1E0,3.1081478E-3,4.4912827E-1,5.9520046E-4,9.1294634E-1,-6.563224E-3,-3.3691213E-3,1.0294883E-2,1.0052884E-3,1.4295235E-2,1.0479162E-3,-1.3250049E-2,2.1863049E-2,3.1318264E-3,1.4216129E-2,-4.1665495E-3,-6.4813555E-3,2.0551993E-2,-7.112503E-3,-1.9683251E-2,-3.8519346E-3,-2.5228508E-2,2.0098545E-2,5.3627454E-3],"split_indices":[33,41,3,24,0,46,46,32,30,21,43,8,13,24,24,2,0,0,17,34,38,41,0,17,0,0,0,0,0,0,0,0,0,0,0,0,0,0,0,0,0,0,0],"split_type":[0,0,0,0,0,0,0,0,0,0,0,0,0,0,0,0,0,0,0,0,0,0,0,0,0,0,0,0,0,0,0,0,0,0,0,0,0,0,0,0,0,0,0],"sum_hessian":[8.944731E2,4.998394E2,3.9463373E2,4.8311246E2,1.6726913E1,2.6177313E2,1.328606E2,3.5684238E2,1.26270096E2,6.7178505E1,1.9459464E2,3.796137E1,9.4899216E1,1.788146E2,1.7802776E2,9.657274E1,2.969736E1,1.1240906E1,5.59376E1,2.8975142E1,1.6561949E2,2.2730743E1,1.5230626E1,7.9169266E1,1.5729956E1,1.22123726E2,5.6690884E1,4.9376423E1,1.2865134E2,3.990948E1,5.6663254E1,1.3219888E1,1.647747E1,3.670689E1,1.9230711E1,1.7733986E1,1.1241156E1,7.994489E1,8.567459E1,1.2488422E1,1.0242322E1,3.6467865E1,4.2701397E1],"tree_param":{"num_deleted":"0","num_feature":"61","num_nodes":"43","size_leaf_vector":"1"}},{"base_weights":[3.4159236E-4,1.7076772E-1,-9.609217E-2,-2.3898278E-1,2.287446E-1,-9.435361E-3,-2.7976322E-1,7.408077E-2,-2.418696E-2,2.9259822E-1,-1.7346317E-1,-4.035011E-1,4.467204E-2,-5.4015976E-1,-3.3432886E-2,1.4417244E-2,-1.2614581E-2,8.768495E-3,3.988183E-1,-4.5041806E-1,1.3470904E-2,-1.080429E-1,-2.2863725E-2,1.08676456E-1,-1.906498E-1,-3.412697E-2,-7.55312E-1,1.2388791E-2,-1.6486233E-1,2.030621E-2,-3.955109E-3,1.6235769E-2,5.24134E-3,-2.3973294E-2,-2.770298E-3,1.0480744E-2,-1.347645E-2,-7.8502484E-4,9.431078E-3,6.1472394E-3,-1.125841E-2,-1.4586247E-2,9.186571E-3,-2.6928117E-2,-2.9079164E-3,-8.990466E-3,9.736363E-3],"categories":[],"categories_nodes":[],"categories_segments":[],"categories_sizes":[],"default_left":[0,0,0,0,0,0,0,0,0,0,0,0,0,0,0,0,0,0,0,0,0,0,0,0,0,0,0,0,0,0,0,0,0,0,0,0,0,0,0,0,0,0,0,0,0,0,0],"id":12,"left_children":[1,3,5,7,9,11,13,15,-1,17,19,21,23,25,27,-1,-1,29,31,33,-1,35,-1,37,39,41,43,-1,45,-1,-1,-1,-1,-1,-1,-1,-1,-1,-1,-1,-1,-1,-1,-1,-1,-1,-1],"loss_changes":[1.4777882E1,7.840336E0,9.016219E0,7.565316E0,7.5047855E0,8.501735E0,1.1482904E1,5.9932427E0,0E0,7.376343E0,7.286401E0,4.680773E0,5.2251587E0,9.27932E0,5.716619E0,0E0,0E0,6.975104E0,5.3503838E0,3.2004395E0,0E0,4.9025745E0,0E0,7.7064185E0,5.5848646E0,4.7719097E0,5.2563972E0,0E0,5.228801E0,0E0,0E0,0E0,0E0,0E0,0E0,0E0,0E0,0E0,0E0,0E0,0E0,0E0,0E0,0E0,0E0,0E0,0E0],"parents":[2147483647,0,0,1,1,2,2,3,3,4,4,5,5,6,6,7,7,9,9,10,10,11,11,12,12,13,13,14,14,17,17,18,18,19,19,21,21,23,23,24,24,25,25,26,26,28,28],"right_children":[2,4,6,8,10,12,14,16,-1,18,20,22,24,26,28,-1,-1,30,32,34,-1,36,-1,38,40,42,44,-1,46,-1,-1,-1,-1,-1,-1,-1,-1,-1,-1,-1,-1,-1,-1,-1,-1,-1,-1],"split_conditions":[1.5598983E-1,-3.5763234E-1,3.5296173E-3,5.086916E-1,1E0,-2.0010556E2,3.3656633E-3,-1.3082011E-3,-2.418696E-2,1.8901186E1,6.4974013E-3,2.5881904E-1,1.384589E0,2.0518886E-1,7.891111E-1,1.4417244E-2,-1.2614581E-2,1.5512749E-3,3.9830985E-3,-1.6104935E-2,1.3470904E-2,4.1755778E-1,-2.2863725E-2,6.9868296E-1,4.4912827E-1,6.765442E1,8.660254E-1,1.2388791E-2,5.3633547E-1,2.030621E-2,-3.955109E-3,1.6235769E-2,5.24134E-3,-2.3973294E-2,-2.770298E-3,1.0480744E-2,-1.347645E-2,-7.8502484E-4,9.431078E-3,6.1472394E-3,-1.125841E-2,-1.4586247E-2,9.186571E-3,-2.6928117E-2,-2.9079164E-3,-8.990466E-3,9.736363E-3],"split_indices":[33,39,18,16,59,21,3,10,0,25,7,28,16,26,13,0,0,3,3,44,0,41,0,16,41,20,28,0,33,0,0,0,0,0,0,0,0,0,0,0,0,0,0,0,0,0,0],"split_type":[0,0,0,0,0,0,0,0,0,0,0,0,0,0,0,0,0,0,0,0,0,0,0,0,0,0,0,0,0,0,0,0,0,0,0,0,0,0,0,0,0,0,0,0,0,0,0],"sum_hessian":[8.9382043E2,3.235623E2,5.702581E2,3.8691593E1,2.848707E2,3.8999356E2,1.8026459E2,2.5711445E1,1.298015E1,2.469555E2,3.791519E1,4.6193645E1,3.4379993E2,8.587856E1,9.4386024E1,1.4476282E1,1.1235163E1,6.861074E1,1.7834476E2,2.6956644E1,1.095855E1,2.7212887E1,1.8980759E1,2.7213422E2,7.166569E1,2.6727571E1,5.915099E1,1.9975082E1,7.441094E1,1.0973652E1,5.7637093E1,1.0651067E2,7.183408E1,1.1984756E1,1.4971888E1,1.1229912E1,1.5982974E1,1.6454936E2,1.0758486E2,2.2218857E1,4.9446835E1,1.1489884E1,1.5237687E1,4.7666718E1,1.1484273E1,5.9428234E1,1.498271E1],"tree_param":{"num_deleted":"0","num_feature":"61","num_nodes":"47","size_leaf_vector":"1"}},{"base_weights":[4.0680867E-2,-1.00064576E-1,1.04337335E-1,2.1265827E-1,-1.7078117E-1,1.414087E-1,-3.0413836E-1,2.126684E-2,-5.6955963E-3,-2.98094E-1,2.5549848E-2,1.1896801E-1,6.268601E-1,4.259472E-3,-5.1099247E-1,1.8135088E-2,-3.074796E-1,-7.05649E-1,-1.2641826E-1,2.9724765E-1,-3.316069E-1,1.5784925E-1,-1.9186687E-1,2.3847416E-3,3.375556E-2,-2.9201417E-3,-7.2782445E-1,-0E0,-1.9965714E-2,-2.76902E-2,-7.383976E-4,-6.659376E-3,1.2181996E-2,-5.2792705E-3,1.4446463E-2,-9.027777E-4,-2.6904348E-2,9.934608E-3,7.96951E-4,-1.1081745E-2,1.6620355E-2,-1.0477486E-2,-2.8978853E-2],"categories":[],"categories_nodes":[],"categories_segments":[],"categories_sizes":[],"default_left":[0,0,0,0,0,0,0,0,0,0,0,0,0,0,0,0,0,0,0,0,0,0,0,0,0,0,0,0,0,0,0,0,0,0,0,0,0,0,0,0,0,0,0],"id":13,"left_children":[1,3,5,7,9,11,13,-1,15,17,19,21,23,-1,25,-1,27,29,31,33,35,37,39,-1,-1,-1,41,-1,-1,-1,-1,-1,-1,-1,-1,-1,-1,-1,-1,-1,-1,-1,-1],"loss_changes":[8.078202E0,6.242937E0,9.449844E0,5.817833E0,5.8437247E0,5.8574486E0,5.0249963E0,0E0,7.178296E0,9.4062195E0,9.051895E0,6.693886E0,6.063488E0,0E0,2.857953E0,0E0,3.000785E0,5.695633E0,5.3077087E0,4.919962E0,6.4742217E0,1.1035979E1,8.452293E0,0E0,0E0,0E0,1.0013323E0,0E0,0E0,0E0,0E0,0E0,0E0,0E0,0E0,0E0,0E0,0E0,0E0,0E0,0E0,0E0,0E0],"parents":[2147483647,0,0,1,1,2,2,3,3,4,4,5,5,6,6,8,8,9,9,10,10,11,11,12,12,14,14,16,16,17,17,18,18,19,19,20,20,21,21,22,22,26,26],"right_children":[2,4,6,8,10,12,14,-1,16,18,20,22,24,-1,26,-1,28,30,32,34,36,38,40,-1,-1,-1,42,-1,-1,-1,-1,-1,-1,-1,-1,-1,-1,-1,-1,-1,-1,-1,-1],"split_conditions":[-2.0840639E-1,4.2478803E-1,1.8481595E-2,-3.6008428E-3,4.465418E-3,1.2702508E-2,1.9033259E-1,2.126684E-2,-6.707106E1,3.3333334E-1,5.776095E-3,4.186386E-1,9.958011E-3,4.259472E-3,5.8266675E-1,1.8135088E-2,1.3984656E0,5.534483E-1,6.6146545E1,5.2966726E-1,7.011445E-1,-1.7358017E-3,5E-1,2.3847416E-3,3.375556E-2,-2.9201417E-3,2.128776E0,-0E0,-1.9965714E-2,-2.76902E-2,-7.383976E-4,-6.659376E-3,1.2181996E-2,-5.2792705E-3,1.4446463E-2,-9.027777E-4,-2.6904348E-2,9.934608E-3,7.96951E-4,-1.1081745E-2,1.6620355E-2,-1.0477486E-2,-2.8978853E-2],"split_indices":[44,13,2,43,5,0,40,0,21,30,5,39,4,0,41,0,46,41,20,17,17,0,29,0,0,0,12,0,0,0,0,0,0,0,0,0,0,0,0,0,0,0,0],"split_type":[0,0,0,0,0,0,0,0,0,0,0,0,0,0,0,0,0,0,0,0,0,0,0,0,0,0,0,0,0,0,0,0,0,0,0,0,0,0,0,0,0,0,0],"sum_hessian":[8.97176E2,2.7758176E2,6.1959424E2,4.9670822E1,2.2791093E2,5.699136E2,4.9680656E1,1.4224564E1,3.544626E1,1.3855496E2,8.935598E1,5.477033E2,2.2210262E1,1.5477456E1,3.4203197E1,1.0736692E1,2.4709564E1,3.8704052E1,9.985091E1,5.1417152E1,3.7938828E1,4.8854272E2,5.9160587E1,1.1976323E1,1.023394E1,1.3235319E1,2.096788E1,1.4233312E1,1.04762535E1,2.8467373E1,1.0236678E1,8.612446E1,1.3726444E1,1.3981064E1,3.743609E1,2.646048E1,1.1478351E1,2.0827509E2,2.8026764E2,4.892726E1,1.0233325E1,1.0487887E1,1.0479992E1],"tree_param":{"num_deleted":"0","num_feature":"61","num_nodes":"43","size_leaf_vector":"1"}},{"base_weights":[1.1151942E-2,1.1144043E-1,-1.2348366E-1,1.4409262E-1,-4.8321488E-1,4.0523872E-1,-1.6137941E-1,2.8457603E-1,4.9978632E-2,-2.971036E-3,-2.5767881E-2,2.5535299E-2,-4.1926773E-3,-5.640116E-1,-1.1337206E-1,3.650653E-1,-3.5717633E-1,3.9551067E-3,2.0868026E-2,-0E0,-8.4607E-1,-1.8768717E-1,1.4470379E-1,1.3545911E-2,-2.691372E-3,-0E0,-1.9279389E-2,-2.1944974E-2,1.2086383E-3,-3.731687E-2,-1.071274E-2,-9.566971E-3,2.9639609E-3,1.5291275E-2,-4.857212E-3],"categories":[],"categories_nodes":[],"categories_segments":[],"categories_sizes":[],"default_left":[0,0,0,0,0,0,0,0,0,0,0,0,0,0,0,0,0,0,0,0,0,0,0,0,0,0,0,0,0,0,0,0,0,0,0],"id":14,"left_children":[1,3,5,7,9,11,13,15,17,-1,-1,-1,-1,19,21,23,25,27,-1,-1,29,31,33,-1,-1,-1,-1,-1,-1,-1,-1,-1,-1,-1,-1],"loss_changes":[1.2179998E1,1.0101002E1,7.7516594E0,6.393709E0,3.4337611E0,6.702789E0,6.632881E0,1.0397958E1,8.672735E0,0E0,0E0,0E0,0E0,5.8624125E0,6.301684E0,7.1002197E0,2.1864486E0,7.377976E0,0E0,0E0,3.4413261E0,9.683151E0,8.4285E0,0E0,0E0,0E0,0E0,0E0,0E0,0E0,0E0,0E0,0E0,0E0,0E0],"parents":[2147483647,0,0,1,1,2,2,3,3,4,4,5,5,6,6,7,7,8,8,13,13,14,14,15,15,16,16,17,17,20,20,21,21,22,22],"right_children":[2,4,6,8,10,12,14,16,18,-1,-1,-1,-1,20,22,24,26,28,-1,-1,30,32,34,-1,-1,-1,-1,-1,-1,-1,-1,-1,-1,-1,-1],"split_conditions":[2.9154518E-1,2.2730533E-2,1.0016129E-2,-5.140419E-3,1.5465981E0,1.8408546E1,-1.8774553E2,8.224404E-1,6.1957445E-3,-2.971036E-3,-2.5767881E-2,2.5535299E-2,-4.1926773E-3,-3.832446E-3,1.1111111E-1,1.3508885E0,4.2442983E-1,-8.219412E-3,2.0868026E-2,-0E0,2.7186012E1,1.3532174E-1,-1.7947751E-1,1.3545911E-2,-2.691372E-3,-0E0,-1.9279389E-2,-2.1944974E-2,1.2086383E-3,-3.731687E-2,-1.071274E-2,-9.566971E-3,2.9639609E-3,1.5291275E-2,-4.857212E-3],"split_indices":[33,2,26,6,16,21,21,40,5,0,0,0,0,11,51,46,26,10,0,0,25,44,40,0,0,0,0,0,0,0,0,0,0,0,0],"split_type":[0,0,0,0,0,0,0,0,0,0,0,0,0,0,0,0,0,0,0,0,0,0,0,0,0,0,0,0,0,0,0,0,0,0,0],"sum_hessian":[8.9829095E2,5.1628735E2,3.820036E2,4.913286E2,2.4958717E1,2.3722553E1,3.5828107E2,1.9420494E2,2.971237E2,1.39846325E1,1.0974085E1,1.2731745E1,1.0990808E1,3.5212444E1,3.230686E2,1.7374359E2,2.046135E1,2.7966455E2,1.7459118E1,1.2486016E1,2.2726427E1,2.5216385E2,7.090477E1,1.4655383E2,2.7189758E1,1.02288475E1,1.0232503E1,1.0975403E1,2.6868915E2,1.0490366E1,1.223606E1,1.7351434E2,7.86495E1,3.221181E1,3.869296E1],"tree_param":{"num_deleted":"0","num_feature":"61","num_nodes":"35","size_leaf_vector":"1"}},{"base_weights":[-6.8491404E-3,5.02944E-3,-2.140836E-2,2.6098026E-2,-3.9403826E-1,-4.1993484E-2,1.596178E-1,-7.217393E-2,-2.8986683E-2,6.2583074E-2,-1.8382637E-1,2.1983595E-1,-2.5975838E-1,-1.5697613E-2,9.524702E-3,6.2190285E-3,-4.6075415E-3,-7.6710647E-3,1.2349759E-2,4.8244214E-3,2.4503583E-2,-1.4676283E-2,6.4902883E-3],"categories":[],"categories_nodes":[],"categories_segments":[],"categories_sizes":[],"default_left":[0,0,0,0,0,0,0,0,0,0,0,0,0,0,0,0,0,0,0,0,0,0,0],"id":15,"left_children":[1,3,-1,5,7,9,11,13,-1,15,17,19,21,-1,-1,-1,-1,-1,-1,-1,-1,-1,-1],"loss_changes":[7.7392015E0,7.3295016E0,0E0,7.692622E0,7.58998E0,8.319657E0,7.3214574E0,5.744428E0,0E0,1.0116421E1,1.0353702E1,8.311478E0,4.246398E0,0E0,0E0,0E0,0E0,0E0,0E0,0E0,0E0,0E0,0E0],"parents":[2147483647,0,0,1,1,3,3,4,4,5,5,6,6,7,7,9,9,10,10,11,11,12,12],"right_children":[2,4,-1,6,8,10,12,14,-1,16,18,20,22,-1,-1,-1,-1,-1,-1,-1,-1,-1,-1],"split_conditions":[2.32939E0,2.5136998E2,-2.140836E-2,3.754126E-3,1.1769205E-1,7.933105E-4,8.664562E-1,9.3599963E-1,-2.8986683E-2,7.6406014E-1,1.135159E0,8.6717343E-1,1.3632097E0,-1.5697613E-2,9.524702E-3,6.2190285E-3,-4.6075415E-3,-7.6710647E-3,1.2349759E-2,4.8244214E-3,2.4503583E-2,-1.4676283E-2,6.4902883E-3],"split_indices":[17,21,0,3,42,0,40,13,0,13,13,44,44,0,0,0,0,0,0,0,0,0,0],"split_type":[0,0,0,0,0,0,0,0,0,0,0,0,0,0,0,0,0,0,0,0,0,0,0],"sum_hessian":[8.9366943E2,8.804333E2,1.3236166E1,8.387717E2,4.166159E1,5.549077E2,2.8386398E2,2.8440094E1,1.3221496E1,3.1882977E2,2.3607796E2,2.4967949E2,3.4184483E1,1.3220318E1,1.5219776E1,1.9185704E2,1.2697272E2,2.1211983E2,2.3958141E1,2.2998196E2,1.9697535E1,2.3455467E1,1.0729013E1],"tree_param":{"num_deleted":"0","num_feature":"61","num_nodes":"23","size_leaf_vector":"1"}},{"base_weights":[-2.7438091E-2,-1.0083062E-1,8.414496E-2,-1.376365E-1,2.6906866E-1,2.530571E-1,-4.050854E-2,3.5507393E-1,-1.7150241E-1,2.2996996E-2,1.032154E-2,1.1693749E-1,5.672966E-1,2.187146E-1,-1.7803662E-1,7.39884E-4,2.2097839E-2,-1.19844414E-1,-4.7817573E-1,1.8936226E-2,-3.2113612E-1,-1.46039175E-2,2.01535E-1,8.9639026E-1,2.69991E-3,-2.501296E-2,5.8728886E-1,-5.485489E-1,-4.1822366E-2,-4.5235627E-3,1.031698E-2,-3.137065E-2,-8.40407E-3,-2.8923014E-2,8.978801E-3,1.3308751E-2,-9.505535E-4,3.381725E-2,1.2989192E-2,1.8661514E-2,-8.828458E-3,4.1181883E-3,2.728646E-2,-2.5090257E-2,1.1583422E-3,2.3022495E-2,-4.5837373E-3],"categories":[],"categories_nodes":[],"categories_segments":[],"categories_sizes":[],"default_left":[0,0,0,0,0,0,0,0,0,0,0,0,0,0,0,0,0,0,0,0,0,0,0,0,0,0,0,0,0,0,0,0,0,0,0,0,0,0,0,0,0,0,0,0,0,0,0],"id":16,"left_children":[1,3,5,7,9,11,13,15,17,-1,19,21,23,25,27,-1,-1,29,31,-1,33,-1,35,37,-1,39,41,43,45,-1,-1,-1,-1,-1,-1,-1,-1,-1,-1,-1,-1,-1,-1,-1,-1,-1,-1],"loss_changes":[7.297352E0,7.36519E0,7.494856E0,8.272471E0,6.015777E0,6.110032E0,7.310223E0,3.73251E0,7.026037E0,0E0,7.585983E0,5.6454744E0,6.513258E0,6.5385027E0,6.5716133E0,0E0,0E0,5.7702856E0,6.3336706E0,0E0,1.0136495E1,0E0,5.622676E0,1.3021088E0,0E0,7.91922E0,3.5935364E0,6.2913713E0,9.137586E0,0E0,0E0,0E0,0E0,0E0,0E0,0E0,0E0,0E0,0E0,0E0,0E0,0E0,0E0,0E0,0E0,0E0,0E0],"parents":[2147483647,0,0,1,1,2,2,3,3,4,4,5,5,6,6,7,7,8,8,10,10,11,11,12,12,13,13,14,14,17,17,18,18,20,20,22,22,23,23,25,25,26,26,27,27,28,28],"right_children":[2,4,6,8,10,12,14,16,18,-1,20,22,24,26,28,-1,-1,30,32,-1,34,-1,36,38,-1,40,42,44,46,-1,-1,-1,-1,-1,-1,-1,-1,-1,-1,-1,-1,-1,-1,-1,-1,-1,-1],"split_conditions":[2.8974563E-1,1.5504792E0,4.8512277E-1,2.722283E-3,2.5901085E1,4.5926118E-1,2.8844755E-3,6.375894E-1,4.9208727E0,2.2996996E-2,-2.0526737E-2,-3.8680768E-1,-1.7904723E-2,3.4805652E-1,-3.4989017E-1,7.39884E-4,2.2097839E-2,8.572931E-1,6.653602E1,1.8936226E-2,4.9224193E-4,-1.46039175E-2,4.0727073E-1,-9.0678506E-2,2.69991E-3,-1.2534238E-4,9.827777E-4,3.433994E1,-3.5540733E-1,-4.5235627E-3,1.031698E-2,-3.137065E-2,-8.40407E-3,-2.8923014E-2,8.978801E-3,1.3308751E-2,-9.505535E-4,3.381725E-2,1.2989192E-2,1.8661514E-2,-8.828458E-3,4.1181883E-3,2.728646E-2,-2.5090257E-2,1.1583422E-3,2.3022495E-2,-4.5837373E-3],"split_indices":[32,13,41,14,25,41,5,31,46,0,4,44,42,31,40,0,0,26,20,0,18,0,41,44,0,18,43,25,44,0,0,0,0,0,0,0,0,0,0,0,0,0,0,0,0,0,0],"split_type":[0,0,0,0,0,0,0,0,0,0,0,0,0,0,0,0,0,0,0,0,0,0,0,0,0,0,0,0,0,0,0,0,0,0,0,0,0,0,0,0,0,0,0,0,0,0,0],"sum_hessian":[8.863937E2,5.364385E2,3.4995523E2,4.8977182E2,4.6666637E1,1.4874472E2,2.0121051E2,2.9709194E1,4.6006262E2,1.4227161E1,3.2439476E1,1.0636806E2,4.237666E1,6.858132E1,1.326292E2,1.7483473E1,1.2225721E1,3.9695657E2,6.3106075E1,1.09758835E1,2.146359E1,1.1468406E1,9.489965E1,2.367106E1,1.8705599E1,4.1914673E1,2.6666645E1,3.343286E1,9.9196335E1,3.7399988E2,2.2956686E1,1.37185E1,4.9387573E1,1.0233787E1,1.1229805E1,4.6310177E1,4.8589474E1,1.345578E1,1.021528E1,1.1219465E1,3.069521E1,1.2706155E1,1.3960491E1,2.2209282E1,1.1223579E1,1.0209444E1,8.8986885E1],"tree_param":{"num_deleted":"0","num_feature":"61","num_nodes":"47","size_leaf_vector":"1"}},{"base_weights":[2.5331099E-2,9.862794E-2,-1.1223175E-1,1.7081629E-1,-7.28159E-2,-7.701217E-1,-3.4969207E-2,3.7570357E-2,2.9628876E-1,-4.5255968E-1,8.261297E-2,-3.9340734E-2,-1.0952485E-2,2.5272015E-1,-1.5469691E-1,1.8795237E-1,-2.4593896E-1,4.1552424E-1,4.7270957E-2,-7.18093E-1,-0E0,-1.4554624E-2,1.4832632E-1,-1.8840212E-1,4.2206424E-1,-5.4980725E-1,-3.0052578E-2,1.0189025E-2,-1.7111158E-2,1.1301018E-2,-1.4419887E-2,8.87313E-4,1.584744E-2,-2.041778E-2,7.421437E-3,-3.0836647E-2,-1.3907093E-3,1.0855308E-2,-2.6308284E-3,7.308389E-3,-1.8932108E-2,2.114885E-2,-3.427348E-4,2.3118746E-3,-2.4346394E-2,8.819793E-3,-5.46283E-3],"categories":[],"categories_nodes":[],"categories_segments":[],"categories_sizes":[],"default_left":[0,0,0,0,0,0,0,0,0,0,0,0,0,0,0,0,0,0,0,0,0,0,0,0,0,0,0,0,0,0,0,0,0,0,0,0,0,0,0,0,0,0,0,0,0,0,0],"id":17,"left_children":[1,3,5,7,9,11,13,15,17,19,21,-1,-1,23,25,27,29,31,33,35,-1,-1,37,39,41,43,45,-1,-1,-1,-1,-1,-1,-1,-1,-1,-1,-1,-1,-1,-1,-1,-1,-1,-1,-1,-1],"loss_changes":[8.919176E0,7.212848E0,1.5277958E1,6.7131395E0,1.0311456E1,5.4881096E0,9.57896E0,8.6760235E0,6.031046E0,6.1008406E0,4.6268096E0,0E0,0E0,6.3047495E0,9.512196E0,1.5690231E1,1.0637532E1,5.90691E0,1.0516373E1,6.234524E0,0E0,0E0,5.796018E0,4.90883E0,7.5673056E0,7.997078E0,7.5976057E0,0E0,0E0,0E0,0E0,0E0,0E0,0E0,0E0,0E0,0E0,0E0,0E0,0E0,0E0,0E0,0E0,0E0,0E0,0E0,0E0],"parents":[2147483647,0,0,1,1,2,2,3,3,4,4,5,5,6,6,7,7,8,8,9,9,10,10,13,13,14,14,15,15,16,16,17,17,18,18,19,19,22,22,23,23,24,24,25,25,26,26],"right_children":[2,4,6,8,10,12,14,16,18,20,22,-1,-1,24,26,28,30,32,34,36,-1,-1,38,40,42,44,46,-1,-1,-1,-1,-1,-1,-1,-1,-1,-1,-1,-1,-1,-1,-1,-1,-1,-1,-1,-1],"split_conditions":[3.4059028E-3,3.9657143E-1,-3.7925512E-1,2.4591405E-3,4.7591135E-1,5.615497E-1,-1.1441447E-1,3.503905E-3,4.6850364E-3,4.120956E-3,2.9912564E-1,-3.9340734E-2,-1.0952485E-2,6.288064E-1,6.252186E-1,6.341619E-1,-2.92152E-1,5.8026295E-2,3.1005245E-1,-3.826815E-4,-0E0,-1.4554624E-2,2.0679468E-1,3.3131394E-1,9.449161E-1,1.6401467E0,-1.02638654E-1,1.0189025E-2,-1.7111158E-2,1.1301018E-2,-1.4419887E-2,8.87313E-4,1.584744E-2,-2.041778E-2,7.421437E-3,-3.0836647E-2,-1.3907093E-3,1.0855308E-2,-2.6308284E-3,7.308389E-3,-1.8932108E-2,2.114885E-2,-3.427348E-4,2.3118746E-3,-2.4346394E-2,8.819793E-3,-5.46283E-3],"split_indices":[18,33,39,1,33,23,42,37,7,7,16,0,0,23,13,49,39,32,24,18,0,0,31,23,23,46,39,0,0,0,0,0,0,0,0,0,0,0,0,0,0,0,0,0,0,0,0],"split_type":[0,0,0,0,0,0,0,0,0,0,0,0,0,0,0,0,0,0,0,0,0,0,0,0,0,0,0,0,0,0,0,0,0,0,0,0,0,0,0,0,0,0,0,0,0,0,0],"sum_hessian":[8.8079156E2,5.7641205E2,3.0437952E2,4.0685736E2,1.6955469E2,2.969645E1,2.7468307E2,1.9973639E2,2.0712097E2,4.86935E1,1.20861176E2,1.0478536E1,1.9217913E1,7.9331955E1,1.9535114E2,1.3164182E2,6.809458E1,1.38339E2,6.878196E1,2.9965769E1,1.8727734E1,1.0739575E1,1.10121605E2,2.1452913E1,5.787904E1,4.4634686E1,1.5071645E2,1.10949326E2,2.0692486E1,1.7961432E1,5.013315E1,3.244363E1,1.0589538E2,1.34734535E1,5.5308506E1,1.9476486E1,1.0489283E1,5.792464E1,5.2196964E1,1.0969264E1,1.0483649E1,3.4683758E1,2.3195278E1,1.3225169E1,3.1409515E1,4.6905857E1,1.03810585E2],"tree_param":{"num_deleted":"0","num_feature":"61","num_nodes":"47","size_leaf_vector":"1"}},{"base_weights":[-2.81554E-2,5.453092E-2,-1.8535231E-1,5.9346825E-1,2.563154E-2,-3.604049E-1,-3.436947E-2,4.534384E-3,2.4717657E-2,-2.745949E-1,7.3219165E-2,-1.7416118E-1,-6.62574E-1,-4.9452302E-1,7.657417E-2,1.0907648E-2,-4.087072E-1,-3.5863392E-2,2.0993924E-1,2.2653091E-1,-3.6758676E-1,-9.7669256E-1,-3.600243E-3,-5.780204E-3,-2.5932519E-2,2.9281554E-1,-2.5636488E-1,-1.6610006E-2,3.785995E-3,-6.5684007E-3,5.973318E-3,2.7117547E-2,3.6511137E-3,1.646003E-2,-8.719756E-3,6.3572694E-3,-1.7991176E-2,-3.4659944E-2,-1.8624552E-2,1.4100226E-2,-9.074883E-3,3.843609E-3,-1.5255353E-2],"categories":[],"categories_nodes":[],"categories_segments":[],"categories_sizes":[],"default_left":[0,0,0,0,0,0,0,0,0,0,0,0,0,0,0,0,0,0,0,0,0,0,0,0,0,0,0,0,0,0,0,0,0,0,0,0,0,0,0,0,0,0,0],"id":18,"left_children":[1,3,5,7,9,11,13,-1,-1,15,17,19,21,23,25,-1,27,29,31,33,35,37,-1,-1,-1,39,41,-1,-1,-1,-1,-1,-1,-1,-1,-1,-1,-1,-1,-1,-1,-1,-1],"loss_changes":[1.1761408E1,8.97708E0,8.103686E0,2.4575233E0,8.021067E0,7.586376E0,8.913657E0,0E0,0E0,6.863816E0,7.349236E0,7.3410997E0,8.527531E0,3.1400537E0,1.0147948E1,0E0,5.2770185E0,1.17976675E1,1.2833299E1,5.509906E0,8.889359E0,1.4025116E-1,0E0,0E0,0E0,9.361544E0,5.59005E0,0E0,0E0,0E0,0E0,0E0,0E0,0E0,0E0,0E0,0E0,0E0,0E0,0E0,0E0,0E0,0E0],"parents":[2147483647,0,0,1,1,2,2,3,3,4,4,5,5,6,6,9,9,10,10,11,11,12,12,13,13,14,14,16,16,17,17,18,18,19,19,20,20,21,21,25,25,26,26],"right_children":[2,4,6,8,10,12,14,-1,-1,16,18,20,22,24,26,-1,28,30,32,34,36,38,-1,-1,-1,40,42,-1,-1,-1,-1,-1,-1,-1,-1,-1,-1,-1,-1,-1,-1,-1,-1],"split_conditions":[3.4556992E-3,5.1632854E-3,3.3656633E-3,2.8024751E-3,-1.9240546E2,3.2687925E-3,5.660994E1,4.534384E-3,2.4717657E-2,-2.2373352E-2,2.5881904E-1,1.249625E0,4.6827523E-3,6.638932E-3,1.7656127E-2,1.0907648E-2,6.9141173E-1,-7.681257E-1,-1.725542E0,5E-1,1.2231499E-1,8.093823E-3,-3.600243E-3,-5.780204E-3,-2.5932519E-2,8.660254E-1,2.5012918E-2,-1.6610006E-2,3.785995E-3,-6.5684007E-3,5.973318E-3,2.7117547E-2,3.6511137E-3,1.646003E-2,-8.719756E-3,6.3572694E-3,-1.7991176E-2,-3.4659944E-2,-1.8624552E-2,1.4100226E-2,-9.074883E-3,3.843609E-3,-1.5255353E-2],"split_indices":[18,26,3,38,21,5,20,0,0,18,29,12,5,4,2,0,26,46,12,29,26,2,0,0,0,29,6,0,0,0,0,0,0,0,0,0,0,0,0,0,0,0,0],"split_type":[0,0,0,0,0,0,0,0,0,0,0,0,0,0,0,0,0,0,0,0,0,0,0,0,0,0,0,0,0,0,0,0,0,0,0,0,0,0,0,0,0,0,0],"sum_hessian":[8.982859E2,5.8825745E2,3.1002844E2,2.7421858E1,5.608356E2,1.413654E2,1.6866304E2,1.0973443E1,1.6448416E1,7.4565186E1,4.8627042E2,9.002408E1,5.134132E1,3.1947157E1,1.3671588E2,1.1965832E1,6.2599354E1,2.7007294E2,2.1619746E2,2.8692545E1,6.133153E1,3.1152422E1,2.0188896E1,1.9713179E1,1.2233977E1,8.3576E1,5.313988E1,4.9638134E1,1.2961222E1,1.5259193E2,1.17481E2,2.1918428E1,1.9427904E2,1.7962652E1,1.0729893E1,1.7220783E1,4.411075E1,1.7188406E1,1.3964016E1,6.511862E1,1.8457375E1,2.0965185E1,3.2174698E1],"tree_param":{"num_deleted":"0","num_feature":"61","num_nodes":"43","size_leaf_vector":"1"}},{"base_weights":[-1.8172156E-2,-8.63525E-2,2.1174593E-1,-1.7171234E-1,7.228025E-2,2.900691E-1,-1.5916845E-2,-2.272948E-2,-3.2912725E-1,2.275903E-1,-1.6166638E-1,2.9565461E-2,4.4086674E-1,3.5339974E-2,-1.9913783E-2,1.2369913E-1,-3.947468E-1,3.3629352E-1,-1.7877955E-2,8.979011E-2,-3.8488585E-1,1.6606778E-2,-1.8443966E-1,7.0455146E-1,1.6500068E-1,5.745816E-3,-5.274249E-3,-9.05265E-3,1.2362329E-2,-5.354158E-3,-1.701106E-2,1.1924493E-2,-7.365339E-3,8.571887E-3,-1.438935E-2,7.164084E-3,-1.6811624E-2,-1.3863741E-2,4.4250214E-3,2.4446271E-2,4.7213994E-3,1.3355932E-2,-4.408785E-3],"categories":[],"categories_nodes":[],"categories_segments":[],"categories_sizes":[],"default_left":[0,0,0,0,0,0,0,0,0,0,0,0,0,0,0,0,0,0,0,0,0,0,0,0,0,0,0,0,0,0,0,0,0,0,0,0,0,0,0,0,0,0,0],"id":19,"left_children":[1,3,5,7,9,11,-1,13,15,17,19,21,23,25,-1,27,29,31,-1,33,35,-1,37,39,41,-1,-1,-1,-1,-1,-1,-1,-1,-1,-1,-1,-1,-1,-1,-1,-1,-1,-1],"loss_changes":[1.3933336E1,9.371094E0,1.2031139E1,1.0412852E1,8.84558E0,7.1071424E0,0E0,8.941897E0,6.634817E0,1.3426127E1,5.574633E0,8.250374E0,7.97456E0,7.1929274E0,0E0,3.7715402E0,6.684252E0,4.9010315E0,0E0,5.3899965E0,6.0707054E0,0E0,4.9628325E0,2.9743233E0,5.470102E0,0E0,0E0,0E0,0E0,0E0,0E0,0E0,0E0,0E0,0E0,0E0,0E0,0E0,0E0,0E0,0E0,0E0,0E0],"parents":[2147483647,0,0,1,1,2,2,3,3,4,4,5,5,7,7,8,8,9,9,10,10,11,11,12,12,13,13,15,15,16,16,17,17,19,19,20,20,22,22,23,23,24,24],"right_children":[2,4,6,8,10,12,-1,14,16,18,20,22,24,26,-1,28,30,32,-1,34,36,-1,38,40,42,-1,-1,-1,-1,-1,-1,-1,-1,-1,-1,-1,-1,-1,-1,-1,-1,-1,-1],"split_conditions":[4.678577E-3,7.757911E-2,2.997787E2,1E0,4.6326712E-1,-8.171661E-3,-1.5916845E-2,1.8120537E0,-1.08857376E2,4.691343E-3,9.350562E-7,4.039708E-1,4.2918968E-1,1.976743E-3,-1.9913783E-2,4.044889E-1,4.030443E-1,8.778116E-3,-1.7877955E-2,8.664562E-1,3.0611104E-1,1.6606778E-2,4.3251568E-1,2.6465388E-2,1.4319858E-3,5.745816E-3,-5.274249E-3,-9.05265E-3,1.2362329E-2,-5.354158E-3,-1.701106E-2,1.1924493E-2,-7.365339E-3,8.571887E-3,-1.438935E-2,7.164084E-3,-1.6811624E-2,-1.3863741E-2,4.4250214E-3,2.4446271E-2,4.7213994E-3,1.3355932E-2,-4.408785E-3],"split_indices":[3,44,21,36,44,18,0,16,21,37,27,41,24,10,0,24,24,8,0,40,24,0,24,6,8,0,0,0,0,0,0,0,0,0,0,0,0,0,0,0,0,0,0],"split_type":[0,0,0,0,0,0,0,0,0,0,0,0,0,0,0,0,0,0,0,0,0,0,0,0,0,0,0,0,0,0,0,0,0,0,0,0,0,0,0,0,0,0,0],"sum_hessian":[8.869053E2,6.8602405E2,2.0088121E2,4.471436E2,2.3888048E2,1.8317632E2,1.7704893E1,2.318795E2,2.152641E2,1.4437259E2,9.450789E1,6.876536E1,1.1441096E2,2.1392343E2,1.7956059E1,2.6443213E1,1.8882089E2,1.2890497E2,1.5467623E1,4.437313E1,5.0134754E1,1.9426897E1,4.9338463E1,5.6351936E1,5.8059017E1,1.2388894E2,9.003449E1,1.0224948E1,1.6218266E1,8.6300446E1,1.0252045E2,1.1767782E2,1.1227155E1,3.4146717E1,1.0226413E1,1.0475764E1,3.965899E1,2.6929745E1,2.2408716E1,4.562579E1,1.0726149E1,3.0643255E1,2.741576E1],"tree_param":{"num_deleted":"0","num_feature":"61","num_nodes":"43","size_leaf_vector":"1"}},{"base_weights":[1.989407E-3,2.3739025E-2,-5.368133E-1,-3.7126783E-2,2.0265692E-1,-2.6920927E-3,-2.7413692E-2,-1.4792259E-1,1.1647135E-1,2.4912694E-2,1.5786317E-1,3.0207044E-1,-1.9573726E-1,-4.73627E-1,1.9762132E-1,-2.592326E-1,2.1524729E-1,-9.4819125E-3,1.8525414E-2,-9.247567E-3,-5.5129157E-4,-2.369239E-2,1.6975899E-3,-8.5016275E-3,7.7345073E-3,-1.8081097E-2,2.6332382E-3,-3.2867515E-3,9.626061E-3],"categories":[],"categories_nodes":[],"categories_segments":[],"categories_sizes":[],"default_left":[0,0,0,0,0,0,0,0,0,0,0,0,0,0,0,0,0,0,0,0,0,0,0,0,0,0,0,0,0],"id":20,"left_children":[1,3,5,7,9,-1,-1,11,13,-1,15,17,19,21,23,25,27,-1,-1,-1,-1,-1,-1,-1,-1,-1,-1,-1,-1],"loss_changes":[1.0324743E1,9.428403E0,5.2921124E0,1.096988E1,5.6226845E0,0E0,0E0,8.154865E0,1.29872055E1,0E0,5.0791035E0,7.5397353E0,6.691474E0,5.7844653E0,7.040148E0,3.2926726E0,6.4684963E0,0E0,0E0,0E0,0E0,0E0,0E0,0E0,0E0,0E0,0E0,0E0,0E0],"parents":[2147483647,0,0,1,1,2,2,3,3,4,4,7,7,8,8,10,10,11,11,12,12,13,13,14,14,15,15,16,16],"right_children":[2,4,6,8,10,-1,-1,12,14,-1,16,18,20,22,24,26,28,-1,-1,-1,-1,-1,-1,-1,-1,-1,-1,-1,-1],"split_conditions":[2.698915E2,1.1647074E0,9.6833336E-1,2.8974563E-1,1.1883296E0,-2.6920927E-3,-2.7413692E-2,3.338501E-1,3.571937E-1,2.4912694E-2,4.1398844E-3,6.833258E-2,2.6110081E-2,5.7351875E-1,2.238851E-3,-1.954763E-3,-1.500118E-2,-9.4819125E-3,1.8525414E-2,-9.247567E-3,-5.5129157E-4,-2.369239E-2,1.6975899E-3,-8.5016275E-3,7.7345073E-3,-1.8081097E-2,2.6332382E-3,-3.2867515E-3,9.626061E-3],"split_indices":[21,13,23,32,13,0,0,16,16,0,14,32,44,23,7,43,2,0,0,0,0,0,0,0,0,0,0,0,0],"split_type":[0,0,0,0,0,0,0,0,0,0,0,0,0,0,0,0,0,0,0,0,0,0,0,0,0,0,0,0,0],"sum_hessian":[8.900044E2,8.578448E2,3.2159584E1,6.400242E2,2.1782062E2,1.6208698E1,1.5950885E1,3.7299594E2,2.6702826E2,1.1724969E1,2.0609564E2,3.420229E1,3.3879367E2,3.0665815E1,2.3636243E2,2.344234E1,1.826533E2,1.1233824E1,2.2968466E1,2.053533E2,1.3344037E2,1.8952782E1,1.1713034E1,2.4910355E1,2.1145207E2,1.1475054E1,1.1967287E1,4.4105556E1,1.3854776E2],"tree_param":{"num_deleted":"0","num_feature":"61","num_nodes":"29","size_leaf_vector":"1"}},{"base_weights":[-1.3298471E-2,1.0997414E-1,-1.6187245E-1,1.8264861E-1,-6.977138E-2,-8.083605E-2,-4.472088E-1,2.1522312E-1,-2.603754E-1,-2.037319E-1,2.3593241E-1,9.613304E-2,-2.097614E-1,-6.461438E-1,-5.853234E-2,1.4804228E-1,5.502029E-1,1.3565136E-3,-1.7556304E-2,-1.0170487E-1,-2.6495334E-2,-3.0059839E-2,2.108408E-2,-0E0,2.0900134E-2,-7.9504095E-2,-4.6144274E-1,-9.0519994E-1,-2.8648347E-1,1.0919098E-2,-1.2697337E-2,7.596574E-3,-1.5113215E-3,2.0739231E-2,-1.5117931E-4,2.553243E-4,-1.8048389E-2,8.821273E-3,-1.4286414E-2,-1.3881069E-2,4.351513E-3,-7.216669E-3,7.7656903E-3,-1.8546805E-2,-7.6938176E-4,-3.322414E-2,-1.3963938E-2,6.415072E-3,-2.0357693E-2],"categories":[],"categories_nodes":[],"categories_segments":[],"categories_sizes":[],"default_left":[0,0,0,0,0,0,0,0,0,0,0,0,0,0,0,0,0,0,0,0,0,0,0,0,0,0,0,0,0,0,0,0,0,0,0,0,0,0,0,0,0,0,0,0,0,0,0,0,0],"id":21,"left_children":[1,3,5,7,9,11,13,15,17,19,21,23,25,27,29,31,33,-1,-1,35,-1,37,-1,39,-1,41,43,45,47,-1,-1,-1,-1,-1,-1,-1,-1,-1,-1,-1,-1,-1,-1,-1,-1,-1,-1,-1,-1],"loss_changes":[1.6225792E1,6.3654695E0,9.073374E0,5.084572E0,5.7889767E0,7.298806E0,6.497179E0,6.909174E0,2.5912027E0,6.358368E0,5.543192E0,7.8330717E0,5.8225317E0,4.4650745E0,5.320643E0,5.783539E0,4.3314962E0,0E0,0E0,5.05608E0,0E0,4.483631E0,0E0,8.045596E0,0E0,6.9292994E0,3.999114E0,1.3356667E0,5.8075647E0,0E0,0E0,0E0,0E0,0E0,0E0,0E0,0E0,0E0,0E0,0E0,0E0,0E0,0E0,0E0,0E0,0E0,0E0,0E0,0E0],"parents":[2147483647,0,0,1,1,2,2,3,3,4,4,5,5,6,6,7,7,8,8,9,9,10,10,11,11,12,12,13,13,14,14,15,15,16,16,19,19,21,21,23,23,25,25,26,26,27,27,28,28],"right_children":[2,4,6,8,10,12,14,16,18,20,22,24,26,28,30,32,34,-1,-1,36,-1,38,-1,40,-1,42,44,46,48,-1,-1,-1,-1,-1,-1,-1,-1,-1,-1,-1,-1,-1,-1,-1,-1,-1,-1,-1,-1],"split_conditions":[1.976743E-3,3.9657143E-1,8.660254E-1,2.1993074E0,5.453286E-1,1.869698E-1,-6.905203E-2,8.934501E-2,1E0,7.1811885E-1,5.9555165E-5,4.7203884E-1,1.3783057E0,2.4015326E1,2.5774658E-1,6.917171E-5,5.359099E-3,1.3565136E-3,-1.7556304E-2,5.819335E-3,-2.6495334E-2,-1.7947751E-1,2.108408E-2,1.7912868E1,2.0900134E-2,2.864901E-3,4.2260215E-3,6.666667E-1,4.0912465E-3,1.0919098E-2,-1.2697337E-2,7.596574E-3,-1.5113215E-3,2.0739231E-2,-1.5117931E-4,2.553243E-4,-1.8048389E-2,8.821273E-3,-1.4286414E-2,-1.3881069E-2,4.351513E-3,-7.216669E-3,7.7656903E-3,-1.8546805E-2,-7.6938176E-4,-3.322414E-2,-1.3963938E-2,6.415072E-3,-2.0357693E-2],"split_indices":[10,33,29,46,41,33,40,46,35,50,27,49,12,25,40,0,38,0,0,5,0,40,0,25,0,1,3,30,9,0,0,0,0,0,0,0,0,0,0,0,0,0,0,0,0,0,0,0,0],"split_type":[0,0,0,0,0,0,0,0,0,0,0,0,0,0,0,0,0,0,0,0,0,0,0,0,0,0,0,0,0,0,0,0,0,0,0,0,0,0,0,0,0,0,0,0,0,0,0,0,0],"sum_hessian":[8.811301E2,4.8074985E2,4.0038028E2,3.435022E2,1.3724765E2,3.1463965E2,8.574063E1,3.2156393E2,2.193827E1,9.657612E1,4.067154E1,1.3184486E2,1.8279478E2,5.5326405E1,3.0414223E1,2.7099487E2,5.056907E1,1.1715146E1,1.0223124E1,8.6350464E1,1.0225655E1,2.6692526E1,1.3979012E1,1.1515733E2,1.6687532E1,1.229737E2,5.9821087E1,2.9912947E1,2.5413458E1,1.3711542E1,1.6702682E1,1.7773956E2,9.3255295E1,4.0361988E1,1.0207081E1,7.187081E1,1.4479652E1,1.546654E1,1.1225986E1,2.6689257E1,8.846808E1,8.430924E1,3.866446E1,4.2871742E1,1.6949343E1,1.7941101E1,1.1971847E1,1.1229304E1,1.41841545E1],"tree_param":{"num_deleted":"0","num_feature":"61","num_nodes":"49","size_leaf_vector":"1"}},{"base_weights":[-6.376822E-3,1.1859089E-1,-1.09534E-1,4.352345E-1,5.1328517E-2,7.2391774E-3,-2.8502953E-1,1.8806028E-1,7.361423E-1,-0E0,4.6781757E-1,-8.2879506E-2,3.720804E-1,-4.4466427E-1,-2.1265214E-2,2.0433301E-2,-1.419018E-1,4.5605744E-3,3.028412E-2,3.751471E-2,-1.6897196E-2,8.3432925E-1,-7.5024753E-3,2.288776E-3,-3.2777274E-1,4.5739293E-2,7.051006E-1,3.922359E-3,-5.1891166E-1,-1.4994484E-2,1.4550073E-1,4.9013747E-3,-1.5640806E-2,3.5090027E-3,-7.615542E-3,3.0893905E-2,1.3938895E-2,7.79379E-3,-3.8354753E-3,-1.5912272E-2,1.4738613E-3,1.6466802E-2,-1.5692813E-2,2.8782008E-2,8.000595E-3,-1.7563839E-2,3.8636022E-4,1.3566729E-2,-1.18128285E-2],"categories":[],"categories_nodes":[],"categories_segments":[],"categories_sizes":[],"default_left":[0,0,0,0,0,0,0,0,0,0,0,0,0,0,0,0,0,0,0,0,0,0,0,0,0,0,0,0,0,0,0,0,0,0,0,0,0,0,0,0,0,0,0,0,0,0,0,0,0],"id":22,"left_children":[1,3,5,7,9,11,13,15,17,19,21,23,25,27,29,-1,31,-1,-1,33,-1,35,-1,37,39,41,43,-1,45,-1,47,-1,-1,-1,-1,-1,-1,-1,-1,-1,-1,-1,-1,-1,-1,-1,-1,-1,-1],"loss_changes":[1.1427779E1,8.321985E0,1.0067201E1,4.5762587E0,7.0226946E0,9.792998E0,8.079068E0,7.042218E0,4.1143036E0,6.2509255E0,1.0089546E1,5.0257525E0,6.136135E0,5.424612E0,6.362711E0,0E0,3.279826E0,0E0,0E0,6.550293E0,0E0,3.7478256E-1,0E0,6.0151577E0,4.921998E0,9.871536E0,2.316903E0,0E0,4.012501E0,0E0,9.945396E0,0E0,0E0,0E0,0E0,0E0,0E0,0E0,0E0,0E0,0E0,0E0,0E0,0E0,0E0,0E0,0E0,0E0,0E0],"parents":[2147483647,0,0,1,1,2,2,3,3,4,4,5,5,6,6,7,7,8,8,9,9,10,10,11,11,12,12,13,13,14,14,16,16,19,19,21,21,23,23,24,24,25,25,26,26,28,28,30,30],"right_children":[2,4,6,8,10,12,14,16,18,20,22,24,26,28,30,-1,32,-1,-1,34,-1,36,-1,38,40,42,44,-1,46,-1,48,-1,-1,-1,-1,-1,-1,-1,-1,-1,-1,-1,-1,-1,-1,-1,-1,-1,-1],"split_conditions":[2.1051136E-1,2.568042E-3,3.607335E-1,2.0504287E-3,6.5602628E-3,-1.1212816E-1,3.5071217E-3,1.3925788E-3,1.8270968E-1,5.9140676E-1,8.811921E-3,7.0710677E-1,5.7902965E-3,-2.08092E-3,-1.404536E-1,2.0433301E-2,4.3142667E-1,4.5605744E-3,3.028412E-2,4.7982936E-3,-1.6897196E-2,7.214231E-3,-7.5024753E-3,2.0571654E-3,4.5975596E-3,2.8725845E-1,1.923191E-3,3.922359E-3,5E-1,-1.4994484E-2,9.326233E-3,4.9013747E-3,-1.5640806E-2,3.5090027E-3,-7.615542E-3,3.0893905E-2,1.3938895E-2,7.79379E-3,-3.8354753E-3,-1.5912272E-2,1.4738613E-3,1.6466802E-2,-1.5692813E-2,2.8782008E-2,8.000595E-3,-1.7563839E-2,3.8636022E-4,1.3566729E-2,-1.18128285E-2],"split_indices":[33,7,12,43,7,12,3,1,32,24,18,28,14,0,42,0,24,0,0,7,0,5,0,1,38,32,18,0,32,0,0,0,0,0,0,0,0,0,0,0,0,0,0,0,0,0,0,0,0],"split_type":[0,0,0,0,0,0,0,0,0,0,0,0,0,0,0,0,0,0,0,0,0,0,0,0,0,0,0,0,0,0,0,0,0,0,0,0,0,0,0,0,0,0,0,0,0,0,0,0,0],"sum_hessian":[8.826666E2,3.97688E2,4.849786E2,6.697862E1,3.3070938E2,2.9133496E2,1.9364365E2,3.9104237E1,2.7874392E1,2.9661554E2,3.4093845E1,2.3420729E2,5.7127674E1,1.19070854E2,7.45728E1,1.5188869E1,2.3915365E1,1.02274685E1,1.7646923E1,2.8016315E2,1.6452396E1,2.2632654E1,1.1461192E1,1.7433414E2,5.9873154E1,3.0457033E1,2.6670639E1,1.2972545E1,1.06098305E2,1.870415E1,5.5868652E1,1.3446057E1,1.0469308E1,2.218846E2,5.8278526E1,1.1938214E1,1.0694439E1,5.8631844E1,1.15702286E2,3.89263E1,2.0946854E1,1.64786E1,1.3978434E1,1.4942408E1,1.1728232E1,9.461964E1,1.1478671E1,3.6173088E1,1.9695564E1],"tree_param":{"num_deleted":"0","num_feature":"61","num_nodes":"49","size_leaf_vector":"1"}},{"base_weights":[-2.9930847E-2,5.6546677E-2,-1.3335614E-1,1.5887152E-1,-4.6968084E-2,-4.897706E-2,-3.9673382E-1,2.2497281E-1,-1.5445356E-1,3.6950535E-1,-1.080027E-1,-3.72048E-1,4.795355E-2,-4.4944566E-3,-5.4527175E-1,2.0747352E-2,4.187271E-1,9.17849E-2,-2.1780709E-2,2.8286254E-2,-4.1938263E-5,-2.1615753E-1,2.0273404E-1,7.91694E-2,-5.7272565E-1,2.8627592E-1,-7.398821E-2,-1.1585664E-2,1.2879027E-2,-6.7012167E-1,-1.5192316E-3,1.7850948E-2,-3.4242733E-3,2.0722272E-3,1.833161E-2,-1.0805213E-2,1.7803641E-2,-1.11649195E-2,3.1652136E-3,1.3037863E-2,-5.78662E-3,-7.490449E-3,1.3788543E-2,-2.1953825E-2,1.0584615E-3,1.6880129E-2,-9.876144E-4,-1.5987506E-2,2.2954138E-3,-2.67183E-2,-9.156624E-3],"categories":[],"categories_nodes":[],"categories_segments":[],"categories_sizes":[],"default_left":[0,0,0,0,0,0,0,0,0,0,0,0,0,0,0,0,0,0,0,0,0,0,0,0,0,0,0,0,0,0,0,0,0,0,0,0,0,0,0,0,0,0,0,0,0,0,0,0,0,0,0],"id":23,"left_children":[1,3,5,7,9,11,13,15,17,19,21,23,25,27,29,31,33,35,-1,-1,-1,37,39,41,43,45,47,-1,-1,49,-1,-1,-1,-1,-1,-1,-1,-1,-1,-1,-1,-1,-1,-1,-1,-1,-1,-1,-1,-1,-1],"loss_changes":[8.071664E0,5.22814E0,8.965738E0,5.2235394E0,6.182756E0,9.983846E0,5.576494E0,8.012426E0,6.455821E0,6.8578587E0,7.292801E0,6.8978624E0,7.168843E0,5.230018E0,4.0983887E0,8.280311E0,6.7715797E0,7.721354E0,0E0,0E0,0E0,8.2192955E0,5.343892E0,3.2871127E0,5.251623E0,7.5630383E0,1.137501E1,0E0,0E0,3.6044254E0,0E0,0E0,0E0,0E0,0E0,0E0,0E0,0E0,0E0,0E0,0E0,0E0,0E0,0E0,0E0,0E0,0E0,0E0,0E0,0E0,0E0],"parents":[2147483647,0,0,1,1,2,2,3,3,4,4,5,5,6,6,7,7,8,8,9,9,10,10,11,11,12,12,13,13,14,14,15,15,16,16,17,17,21,21,22,22,23,23,24,24,25,25,26,26,29,29],"right_children":[2,4,6,8,10,12,14,16,18,20,22,24,26,28,30,32,34,36,-1,-1,-1,38,40,42,44,46,48,-1,-1,50,-1,-1,-1,-1,-1,-1,-1,-1,-1,-1,-1,-1,-1,-1,-1,-1,-1,-1,-1,-1,-1],"split_conditions":[1.7194352E-3,2.4647519E-1,5.968083E-1,2E-1,4.2240754E-2,-2.4316809E-1,-1.02638654E-1,1.0558429E-2,1.6282728E-2,-9.6080836E-4,1.1111111E-1,4.8427433E-1,-9.352296E-3,4.0876794E-1,8.660254E-1,1.5884138E-3,-1.500118E-2,8.581602E-1,-2.1780709E-2,2.8286254E-2,-4.1938263E-5,5.711963E-1,5.191406E-1,2.7497334E-3,7.246006E1,8.2984996E-1,9.0450644E-2,-1.1585664E-2,1.2879027E-2,2.724293E1,-1.5192316E-3,1.7850948E-2,-3.4242733E-3,2.0722272E-3,1.833161E-2,-1.0805213E-2,1.7803641E-2,-1.11649195E-2,3.1652136E-3,1.3037863E-2,-5.78662E-3,-7.490449E-3,1.3788543E-2,-2.1953825E-2,1.0584615E-3,1.6880129E-2,-9.876144E-4,-1.5987506E-2,2.2954138E-3,-2.67183E-2,-9.156624E-3],"split_indices":[10,33,41,45,26,39,39,15,15,11,51,41,39,26,28,3,2,19,0,0,0,26,41,3,20,13,39,0,0,25,0,0,0,0,0,0,0,0,0,0,0,0,0,0,0,0,0,0,0,0,0],"split_type":[0,0,0,0,0,0,0,0,0,0,0,0,0,0,0,0,0,0,0,0,0,0,0,0,0,0,0,0,0,0,0,0,0,0,0,0,0,0,0,0,0,0,0,0,0,0,0,0,0,0,0],"sum_hessian":[8.96208E2,4.8700873E2,4.0919925E2,2.4583159E2,2.4117712E2,3.1257095E2,9.66283E1,2.0426073E2,4.157086E1,2.8906763E1,2.1227037E2,7.1541306E1,2.4102965E2,2.7662102E1,6.89662E1,1.01274994E2,1.0298574E2,2.9860573E1,1.171029E1,1.0460607E1,1.8446156E1,1.5863141E2,5.3638954E1,2.1935677E1,4.960563E1,8.150384E1,1.595258E2,1.5199339E1,1.2462763E1,5.401593E1,1.4950275E1,1.8388546E1,8.2886444E1,3.806361E1,6.492213E1,1.5690743E1,1.4169828E1,1.0723931E2,5.1392105E1,3.417268E1,1.9466272E1,1.1711458E1,1.0224219E1,3.9387264E1,1.0218366E1,4.3366615E1,3.8137226E1,3.8632977E1,1.2089283E2,3.1362112E1,2.2653816E1],"tree_param":{"num_deleted":"0","num_feature":"61","num_nodes":"51","size_leaf_vector":"1"}},{"base_weights":[-1.0515867E-2,-7.9660565E-2,1.2685007E-1,5.047583E-1,-1.03618555E-1,-3.6652923E-1,1.928936E-1,2.9400748E-3,2.4420952E-2,-6.6064626E-2,-4.5811155E-1,3.0430332E-3,-6.2932384E-1,-2.520329E-1,2.4379973E-1,3.492502E-2,-2.5583458E-1,-2.6653267E-2,-1.5236251E-1,-2.6195051E-2,-7.2879903E-3,-2.0285841E-2,1.0273208E-2,3.4454092E-1,6.927679E-2,-2.8661985E-3,6.5000854E-3,-1.9878268E-3,-1.4179371E-2,-2.239369E-2,6.0047237E-3,1.9503294E-3,1.8987019E-2,-6.6475137E-3,8.26505E-3],"categories":[],"categories_nodes":[],"categories_segments":[],"categories_sizes":[],"default_left":[0,0,0,0,0,0,0,0,0,0,0,0,0,0,0,0,0,0,0,0,0,0,0,0,0,0,0,0,0,0,0,0,0,0,0],"id":24,"left_children":[1,3,5,7,9,11,13,-1,-1,15,17,-1,19,21,23,25,27,-1,29,-1,-1,-1,-1,31,33,-1,-1,-1,-1,-1,-1,-1,-1,-1,-1],"loss_changes":[8.423942E0,8.2760315E0,9.736366E0,2.481429E0,7.384208E0,4.603251E0,6.0762634E0,0E0,0E0,1.0039104E1,6.4689617E0,0E0,1.4238939E0,7.4660788E0,4.005192E0,8.133665E0,7.243428E0,0E0,7.6159396E0,0E0,0E0,0E0,0E0,1.1721586E1,5.5692987E0,0E0,0E0,0E0,0E0,0E0,0E0,0E0,0E0,0E0,0E0],"parents":[2147483647,0,0,1,1,2,2,3,3,4,4,5,5,6,6,9,9,10,10,12,12,13,13,14,14,15,15,16,16,18,18,23,23,24,24],"right_children":[2,4,6,8,10,12,14,-1,-1,16,18,-1,20,22,24,26,28,-1,30,-1,-1,-1,-1,32,34,-1,-1,-1,-1,-1,-1,-1,-1,-1,-1],"split_conditions":[3.3964032E-1,3.5711563E-1,-2.0449308E-1,3.6556774E-3,4.186386E-1,1.1796436E-3,2.25978E-3,2.9400748E-3,2.4420952E-2,3.2757153E-3,-3.0672405E0,3.0430332E-3,2.3312283E0,3.215917E-1,1.1057683E0,9.6772987E-1,7.584927E-4,-2.6653267E-2,2.9189445E-3,-2.6195051E-2,-7.2879903E-3,-2.0285841E-2,1.0273208E-2,-2.7193776E-1,2.80298E-1,-2.8661985E-3,6.5000854E-3,-1.9878268E-3,-1.4179371E-2,-2.239369E-2,6.0047237E-3,1.9503294E-3,1.8987019E-2,-6.6475137E-3,8.26505E-3],"split_indices":[32,41,57,37,39,6,7,0,0,11,46,0,46,31,17,13,0,0,1,0,0,0,0,40,26,0,0,0,0,0,0,0,0,0,0],"split_type":[0,0,0,0,0,0,0,0,0,0,0,0,0,0,0,0,0,0,0,0,0,0,0,0,0,0,0,0,0,0,0,0,0,0,0],"sum_hessian":[8.8426825E2,5.902056E2,2.940626E2,2.1168692E1,5.69037E2,3.3105476E1,2.609571E2,1.0699935E1,1.0468757E1,5.1743994E2,5.159704E1,1.1936452E1,2.1169024E1,2.5375624E1,2.3558148E2,3.3775064E2,1.7968929E2,1.9441315E1,3.2155724E1,1.095775E1,1.0211274E1,1.4943217E1,1.0432405E1,1.4703818E2,8.8543304E1,1.9620395E2,1.4154669E2,9.799771E1,8.1691574E1,1.1459437E1,2.0696287E1,7.6434975E1,7.06032E1,3.6068474E1,5.247483E1],"tree_param":{"num_deleted":"0","num_feature":"61","num_nodes":"35","size_leaf_vector":"1"}},{"base_weights":[-4.537911E-3,9.4630845E-2,-1.3471097E-1,2.4140929E-1,-2.7402412E-2,-2.0849533E-1,1.21917985E-1,-2.2505121E-1,2.9296204E-1,4.2841667E-1,-7.782841E-2,-2.2173302E-2,-3.204114E-1,-0E0,2.1887328E-2,5.954425E-3,-1.8392289E-2,5.1478606E-1,1.8759137E-1,2.5350967E-2,-3.208039E-4,-1.8359413E-2,-3.3536986E-2,-4.336739E-1,9.9596344E-2,-5.3264457E-1,-1.7830157E-1,-1.7869836E-2,1.4770935E-1,2.069173E-3,2.1175312E-2,1.1073666E-3,1.5033697E-2,9.410412E-3,-3.1693103E-3,-2.321918E-2,-0E0,-1.086016E-2,9.158217E-3,-9.254437E-3,-2.561153E-2,5.719641E-3,-1.1303482E-2,-9.649811E-3,9.707347E-3],"categories":[],"categories_nodes":[],"categories_segments":[],"categories_sizes":[],"default_left":[0,0,0,0,0,0,0,0,0,0,0,0,0,0,0,0,0,0,0,0,0,0,0,0,0,0,0,0,0,0,0,0,0,0,0,0,0,0,0,0,0,0,0,0,0],"id":25,"left_children":[1,3,5,7,9,11,13,15,17,19,21,23,25,27,-1,-1,-1,29,31,-1,-1,-1,33,35,37,39,41,-1,43,-1,-1,-1,-1,-1,-1,-1,-1,-1,-1,-1,-1,-1,-1,-1,-1],"loss_changes":[1.1589422E1,9.172835E0,7.44409E0,5.727401E0,6.3501215E0,6.218807E0,6.2685165E0,4.25028E0,4.509697E0,5.2810116E0,5.7400966E0,6.057926E0,5.2870426E0,6.6576724E0,0E0,0E0,0E0,5.2607346E0,6.7264977E0,0E0,0E0,0E0,5.908575E0,4.057465E0,8.889284E0,4.437092E0,8.75688E0,0E0,5.3332534E0,0E0,0E0,0E0,0E0,0E0,0E0,0E0,0E0,0E0,0E0,0E0,0E0,0E0,0E0,0E0,0E0],"parents":[2147483647,0,0,1,1,2,2,3,3,4,4,5,5,6,6,7,7,8,8,9,9,10,10,11,11,12,12,13,13,17,17,18,18,22,22,23,23,24,24,25,25,26,26,28,28],"right_children":[2,4,6,8,10,12,14,16,18,20,22,24,26,28,-1,-1,-1,30,32,-1,-1,-1,34,36,38,40,42,-1,44,-1,-1,-1,-1,-1,-1,-1,-1,-1,-1,-1,-1,-1,-1,-1,-1],"split_conditions":[2.7969122E-1,-6.7533E-2,5.9618056E-1,-4.25672E-1,3.08465E-3,-1.9681377E-3,2.7498928E-1,3.7808227E-3,6.687898E-2,-9.7284526E-1,-2.887891E-1,7.105531E-3,4.967485E0,-3.6987033E-1,2.1887328E-2,5.954425E-3,-1.8392289E-2,8.340171E-1,1.5933698E-2,2.5350967E-2,-3.208039E-4,-1.8359413E-2,2.9003782E-2,2.1770755E-3,-1.0220484E-2,2.3183455E-3,3.4059028E-3,-1.7869836E-2,-8.6347744E-2,2.069173E-3,2.1175312E-2,1.1073666E-3,1.5033697E-2,9.410412E-3,-3.1693103E-3,-2.321918E-2,-0E0,-1.086016E-2,9.158217E-3,-9.254437E-3,-2.561153E-2,5.719641E-3,-1.1303482E-2,-9.649811E-3,9.707347E-3],"split_indices":[33,42,33,42,14,0,31,37,33,21,57,15,21,44,0,0,0,19,15,0,0,0,33,3,0,0,18,0,42,0,0,0,0,0,0,0,0,0,0,0,0,0,0,0,0],"split_type":[0,0,0,0,0,0,0,0,0,0,0,0,0,0,0,0,0,0,0,0,0,0,0,0,0,0,0,0,0,0,0,0,0,0,0,0,0,0,0,0,0,0,0,0,0],"sum_hessian":[8.928651E2,5.0578683E2,3.870783E2,2.298414E2,2.7594543E2,3.0183942E2,8.5238884E1,2.1624851E1,2.0821655E2,2.5400427E1,2.50545E2,1.1517262E2,1.866668E2,7.302609E1,1.22127905E1,1.0436817E1,1.1188033E1,6.363516E1,1.4458139E2,1.2435925E1,1.2964503E1,1.6702784E1,2.3384221E2,2.5691893E1,8.948073E1,7.181212E1,1.14854675E2,1.2946543E1,6.0079548E1,2.0377815E1,4.3257343E1,9.980755E1,4.477385E1,3.8343708E1,1.954985E2,1.3467515E1,1.2224377E1,2.6662783E1,6.2817947E1,4.514748E1,2.666464E1,3.9673347E1,7.518133E1,1.5458683E1,4.4620865E1],"tree_param":{"num_deleted":"0","num_feature":"61","num_nodes":"45","size_leaf_vector":"1"}},{"base_weights":[-7.495309E-3,2.1288024E-1,-5.574834E-2,1.1263044E-1,6.1137164E-1,-1.23319075E-1,4.8824865E-2,1.7614383E-1,-1.4647702E-2,3.3996336E-2,6.5627936E-3,-1.5286534E-1,1.4035777E-2,-4.026826E-1,9.9977195E-2,-1.11742385E-1,3.4891683E-1,-2.2901686E-1,4.3550592E-2,-2.2014018E-2,-3.3761645E-4,3.221244E-1,-2.721673E-2,9.49526E-3,-1.562777E-2,1.6797692E-2,-3.0015938E-3,-1.5758695E-3,-1.2140544E-2,-5.155214E-3,1.0737999E-2,3.5712756E-3,2.1034272E-2,4.621375E-3,-7.406029E-3],"categories":[],"categories_nodes":[],"categories_segments":[],"categories_sizes":[],"default_left":[0,0,0,0,0,0,0,0,0,0,0,0,0,0,0,0,0,0,0,0,0,0,0,0,0,0,0,0,0,0,0,0,0,0,0],"id":26,"left_children":[1,3,5,7,9,11,13,15,-1,-1,-1,17,-1,19,21,23,25,27,29,-1,-1,31,33,-1,-1,-1,-1,-1,-1,-1,-1,-1,-1,-1,-1],"loss_changes":[9.394946E0,5.972724E0,5.1877327E0,5.024831E0,5.4058437E0,7.8274364E0,6.5941563E0,6.075061E0,0E0,0E0,0E0,6.4494925E0,0E0,3.505836E0,7.4259305E0,8.372604E0,7.4113035E0,9.384865E0,8.280075E0,0E0,0E0,6.9252796E0,6.7020473E0,0E0,0E0,0E0,0E0,0E0,0E0,0E0,0E0,0E0,0E0,0E0,0E0],"parents":[2147483647,0,0,1,1,2,2,3,3,4,4,5,5,6,6,7,7,11,11,13,13,14,14,15,15,16,16,17,17,18,18,21,21,22,22],"right_children":[2,4,6,8,10,12,14,16,-1,-1,-1,18,-1,20,22,24,26,28,30,-1,-1,32,34,-1,-1,-1,-1,-1,-1,-1,-1,-1,-1,-1,-1],"split_conditions":[6.687898E-2,1E0,2.8974563E-1,1E0,8.250314E-3,6.9380985E-3,2.2840272E-3,-1.9794166E-1,-1.4647702E-2,3.3996336E-2,6.5627936E-3,1.1647074E0,1.4035777E-2,2.4227151E-1,3.1318048E-3,-2.5116783E-3,5.83803E-3,1E0,0E0,-2.2014018E-2,-3.3761645E-4,4.830123E-3,2.242161E-3,9.49526E-3,-1.562777E-2,1.6797692E-2,-3.0015938E-3,-1.5758695E-3,-1.2140544E-2,-5.155214E-3,1.0737999E-2,3.5712756E-3,2.1034272E-2,4.621375E-3,-7.406029E-3],"split_indices":[33,47,32,58,15,7,7,40,0,0,0,13,0,31,5,11,8,36,28,0,0,14,10,0,0,0,0,0,0,0,0,0,0,0,0],"split_type":[0,0,0,0,0,0,0,0,0,0,0,0,0,0,0,0,0,0,0,0,0,0,0,0,0,0,0,0,0,0,0,0,0,0,0],"sum_hessian":[8.8370044E2,1.5639427E2,7.2730615E2,1.276093E2,2.8784967E1,4.4334552E2,2.8396063E2,1.171406E2,1.0468703E1,1.0410745E1,1.8374224E1,4.24138E2,1.9207508E1,2.6901274E1,2.570594E2,4.3548016E1,7.359258E1,3.0650122E2,1.1763679E2,1.3210477E1,1.3690796E1,9.333722E1,1.6372215E2,2.1141323E1,2.2406693E1,5.018204E1,2.3410542E1,1.5504169E2,1.5145953E2,6.978084E1,4.785595E1,6.3000546E1,3.0336676E1,8.927844E1,7.444371E1],"tree_param":{"num_deleted":"0","num_feature":"61","num_nodes":"35","size_leaf_vector":"1"}},{"base_weights":[-1.3176078E-2,3.7258607E-3,-6.4500034E-1,8.6190246E-2,-1.0712677E-1,-6.926556E-3,-2.850499E-2,2.14347E-2,6.6514164E-2,1.3177157E-2,-2.423961E-1,-1.6061168E-2,8.3381556E-2,7.361147E-2,-1.434126E-2,-4.0165308E-1,2.1421332E-2,-1.6081831E-3,4.7203815E-3,-7.596914E-3,4.838101E-3,-1.7244132E-2,-4.1603547E-4,1.7642012E-2,-4.9869115E-3],"categories":[],"categories_nodes":[],"categories_segments":[],"categories_sizes":[],"default_left":[0,0,0,0,0,0,0,0,0,0,0,0,0,0,0,0,0,0,0,0,0,0,0,0,0],"id":27,"left_children":[1,3,5,7,9,-1,-1,-1,11,13,15,-1,17,19,-1,21,23,-1,-1,-1,-1,-1,-1,-1,-1],"loss_changes":[9.784172E0,8.018889E0,2.222662E0,5.912554E0,6.144596E0,0E0,0E0,0E0,4.951066E0,5.8307157E0,7.561185E0,0E0,4.9219995E0,5.1738744E0,0E0,7.2661915E0,7.5268316E0,0E0,0E0,0E0,0E0,0E0,0E0,0E0,0E0],"parents":[2147483647,0,0,1,1,2,2,3,3,4,4,8,8,9,9,10,10,12,12,13,13,15,15,16,16],"right_children":[2,4,6,8,10,-1,-1,-1,12,14,16,-1,18,20,-1,22,24,-1,-1,-1,-1,-1,-1,-1,-1],"split_conditions":[2.0086521E-2,2.9338062E-1,1.3621037E0,-2.0620402E-2,1E0,-6.926556E-3,-2.850499E-2,2.14347E-2,-1.7706096E-2,3.9980862E-1,4.2030425E-3,-1.6061168E-2,8.271749E-1,-3.32172E-1,-1.434126E-2,5E-1,4.5377472E-3,-1.6081831E-3,4.7203815E-3,-7.596914E-3,4.838101E-3,-1.7244132E-2,-4.1603547E-4,1.7642012E-2,-4.9869115E-3],"split_indices":[18,33,19,18,35,0,0,0,8,39,7,0,19,44,0,28,7,0,0,0,0,0,0,0,0],"split_type":[0,0,0,0,0,0,0,0,0,0,0,0,0,0,0,0,0,0,0,0,0,0,0,0,0],"sum_hessian":[8.9573706E2,8.738735E2,2.186361E1,5.029071E2,3.7096637E2,1.1183572E1,1.06800375E1,1.2663455E1,4.9024365E2,1.9612598E2,1.748404E2,1.1203361E1,4.7904028E2,1.7669797E2,1.9427998E1,1.0908311E2,6.5757286E1,1.6673303E2,3.1230725E2,3.5845425E1,1.4085255E2,7.420942E1,3.4873684E1,1.569492E1,5.0062366E1],"tree_param":{"num_deleted":"0","num_feature":"61","num_nodes":"25","size_leaf_vector":"1"}},{"base_weights":[3.3993092E-3,-5.390552E-2,1.5940979E-1,-2.5635082E-1,-5.380414E-3,4.5695296E-1,2.9502358E-2,8.495413E-2,-4.292267E-1,3.4878933E-1,-3.386567E-2,7.429873E-1,1.0409093E-1,-1.9004151E-2,1.1977467E-1,1.8867975E-2,-1.24719776E-1,-1.1479942E-1,-6.3659716E-1,-5.862556E-3,5.7354385E-1,-8.0356926E-2,2.5508782E-1,7.2572003E-3,9.325451E-1,3.7438858E-1,-1.2366933E-2,2.3562573E-1,-2.3083928E-1,4.9023544E-3,-1.6138002E-2,-1.1661616E-2,9.645697E-3,-7.2787874E-3,-2.4132473E-2,2.5199092E-4,2.6922058E-2,-8.522095E-3,-3.499468E-4,1.3010313E-3,1.9840183E-2,3.935338E-2,1.0735171E-2,1.812741E-2,1.8289285E-3,1.664813E-2,1.1456554E-3,-2.0168543E-2,5.606959E-3],"categories":[],"categories_nodes":[],"categories_segments":[],"categories_sizes":[],"default_left":[0,0,0,0,0,0,0,0,0,0,0,0,0,0,0,0,0,0,0,0,0,0,0,0,0,0,0,0,0,0,0,0,0,0,0,0,0,0,0,0,0,0,0,0,0,0,0,0,0],"id":28,"left_children":[1,3,5,7,9,11,13,15,17,19,21,23,25,-1,27,-1,29,31,33,-1,35,37,39,-1,41,43,-1,45,47,-1,-1,-1,-1,-1,-1,-1,-1,-1,-1,-1,-1,-1,-1,-1,-1,-1,-1,-1,-1],"loss_changes":[8.033567E0,6.336429E0,9.175024E0,7.556072E0,5.2782755E0,6.924699E0,1.0242631E1,5.2284284E0,5.101347E0,5.091024E0,6.616167E0,2.9325733E0,5.227265E0,0E0,6.3146873E0,0E0,4.146638E0,4.617321E0,2.572504E0,0E0,4.9115458E0,5.885317E0,5.576686E0,0E0,4.532776E0,1.5001769E0,0E0,7.1208034E0,7.460414E0,0E0,0E0,0E0,0E0,0E0,0E0,0E0,0E0,0E0,0E0,0E0,0E0,0E0,0E0,0E0,0E0,0E0,0E0,0E0,0E0],"parents":[2147483647,0,0,1,1,2,2,3,3,4,4,5,5,6,6,7,7,8,8,9,9,10,10,11,11,12,12,14,14,16,16,17,17,18,18,20,20,21,21,22,22,24,24,25,25,27,27,28,28],"right_children":[2,4,6,8,10,12,14,16,18,20,22,24,26,-1,28,-1,30,32,34,-1,36,38,40,-1,42,44,-1,46,48,-1,-1,-1,-1,-1,-1,-1,-1,-1,-1,-1,-1,-1,-1,-1,-1,-1,-1,-1,-1],"split_conditions":[3.8740917E-3,7.48503E-2,1.03618E0,-1.9906318E-1,7.5122E-4,5.863517E-3,1.1389863E0,-8.041346E-3,2.007722E-2,-2.1829496E-3,1.4672397E0,8.9640886E-2,6.451945E-1,-1.9004151E-2,8.4489495E-1,1.8867975E-2,8.660254E-1,5.615497E-1,2.0405027E-1,-5.862556E-3,-5E-1,-2.4975938E-1,1.0108015E-1,7.2572003E-3,5.979143E-1,-4.1288916E-2,-1.2366933E-2,1.0723106E0,5.4010236E-1,4.9023544E-3,-1.6138002E-2,-1.1661616E-2,9.645697E-3,-7.2787874E-3,-2.4132473E-2,2.5199092E-4,2.6922058E-2,-8.522095E-3,-3.499468E-4,1.3010313E-3,1.9840183E-2,3.935338E-2,1.0735171E-2,1.812741E-2,1.8289285E-3,1.664813E-2,1.1456554E-3,-2.0168543E-2,5.606959E-3],"split_indices":[1,32,17,39,1,37,17,10,32,0,19,33,22,0,23,0,29,23,33,0,29,39,44,0,23,6,0,16,31,0,0,0,0,0,0,0,0,0,0,0,0,0,0,0,0,0,0,0,0],"split_type":[0,0,0,0,0,0,0,0,0,0,0,0,0,0,0,0,0,0,0,0,0,0,0,0,0,0,0,0,0,0,0,0,0,0,0,0,0,0,0,0,0,0,0,0,0,0,0,0,0],"sum_hessian":[8.9113116E2,6.512894E2,2.3984174E2,1.2307523E2,5.2821423E2,7.065877E1,1.6918297E2,4.1138412E1,8.193682E1,3.6862736E1,4.9135147E2,3.733398E1,3.3324783E1,1.8435055E1,1.5074791E2,1.0730591E1,3.0407824E1,3.4372738E1,4.756408E1,1.0460509E1,2.6402227E1,4.2539023E2,6.596124E1,1.1930814E1,2.5403168E1,2.2615995E1,1.0708788E1,1.14444374E2,3.6303535E1,1.8200068E1,1.2207754E1,2.167257E1,1.2700168E1,1.6203627E1,3.1360453E1,1.0703113E1,1.5699115E1,1.0458755E2,3.208027E2,4.530321E1,2.0658035E1,1.3444455E1,1.1958714E1,1.1424544E1,1.1191451E1,4.176219E1,7.268218E1,1.740754E1,1.8895996E1],"tree_param":{"num_deleted":"0","num_feature":"61","num_nodes":"49","size_leaf_vector":"1"}},{"base_weights":[2.981848E-2,1.3670841E-1,-5.4672316E-2,9.344105E-2,5.6513745E-1,-1.5854952E-1,7.851976E-2,1.670668E-1,-2.6533306E-1,2.5384927E-2,1.837266E-3,-9.1922596E-2,-5.2710676E-1,3.8455302E-1,5.1579173E-3,2.9195789E-1,-7.2266094E-2,1.1519193E-2,-4.1461152E-1,8.584572E-2,-2.8222725E-1,-3.1194445E-2,-2.3801741E-1,1.1922667E-1,2.729182E-2,1.7821547E-1,-2.2535387E-1,1.633003E-2,3.9050062E-3,-9.922823E-3,3.7040769E-3,-5.490205E-3,-2.4610197E-2,-1.1933383E-2,6.307305E-3,-3.8059347E-3,-2.0901827E-2,3.8707033E-3,-1.9298537E-2,1.5404693E-2,-1.0745073E-2,8.10359E-3,-9.226841E-3,-1.2455401E-2,2.1967515E-3],"categories":[],"categories_nodes":[],"categories_segments":[],"categories_sizes":[],"default_left":[0,0,0,0,0,0,0,0,0,0,0,0,0,0,0,0,0,0,0,0,0,0,0,0,0,0,0,0,0,0,0,0,0,0,0,0,0,0,0,0,0,0,0,0,0],"id":29,"left_children":[1,3,5,7,9,11,13,15,17,-1,-1,19,21,23,25,27,29,-1,31,33,35,-1,37,39,-1,41,43,-1,-1,-1,-1,-1,-1,-1,-1,-1,-1,-1,-1,-1,-1,-1,-1,-1,-1],"loss_changes":[8.084152E0,7.0261407E0,6.93026E0,9.625466E0,4.613799E0,6.6264453E0,4.7735558E0,9.147296E0,6.3122463E0,0E0,0E0,8.273848E0,5.341611E0,5.23431E0,7.193541E0,7.8197365E0,5.4299245E0,0E0,4.2418165E0,7.6629806E0,7.1666517E0,0E0,4.753334E0,6.087983E0,0E0,4.7940607E0,4.5137424E0,0E0,0E0,0E0,0E0,0E0,0E0,0E0,0E0,0E0,0E0,0E0,0E0,0E0,0E0,0E0,0E0,0E0,0E0],"parents":[2147483647,0,0,1,1,2,2,3,3,4,4,5,5,6,6,7,7,8,8,11,11,12,12,13,13,14,14,15,15,16,16,18,18,19,19,20,20,22,22,23,23,25,25,26,26],"right_children":[2,4,6,8,10,12,14,16,18,-1,-1,20,22,24,26,28,30,-1,32,34,36,-1,38,40,-1,42,44,-1,-1,-1,-1,-1,-1,-1,-1,-1,-1,-1,-1,-1,-1,-1,-1,-1,-1],"split_conditions":[2.1051136E-1,6.3966718E-3,3.349231E-3,4.832885E-3,1.1117639E-1,1.0549671E2,1.6666667E-1,4.6635795E-1,2.92822E-1,2.5384927E-2,1.837266E-3,6.743775E-1,1.2705916E2,9.538921E1,3.7652582E-1,-4.0021217E-1,-1.5263298E-3,1.1519193E-2,5.0403825E-3,-4.094666E-2,4.9643472E-1,-3.1194445E-2,7.129223E1,-2.4685978E-3,2.729182E-2,1.8464856E2,6.666667E-1,1.633003E-2,3.9050062E-3,-9.922823E-3,3.7040769E-3,-5.490205E-3,-2.4610197E-2,-1.1933383E-2,6.307305E-3,-3.8059347E-3,-2.0901827E-2,3.8707033E-3,-1.9298537E-2,1.5404693E-2,-1.0745073E-2,8.10359E-3,-9.226841E-3,-1.2455401E-2,2.1967515E-3],"split_indices":[33,7,3,7,33,21,30,24,24,0,0,13,21,21,31,12,2,0,1,57,24,0,20,0,0,21,30,0,0,0,0,0,0,0,0,0,0,0,0,0,0,0,0,0,0],"split_type":[0,0,0,0,0,0,0,0,0,0,0,0,0,0,0,0,0,0,0,0,0,0,0,0,0,0,0,0,0,0,0,0,0,0,0,0,0,0,0,0,0,0,0,0,0],"sum_hessian":[8.887541E2,3.9338916E2,4.9536493E2,3.6015344E2,3.323573E1,2.7936124E2,2.1600368E2,3.0040976E2,5.9743675E1,2.008198E1,1.3153751E1,2.3939651E2,3.9964733E1,3.9336422E1,1.7666725E2,1.9793504E2,1.0247472E2,1.0204372E1,4.9539303E1,1.2352765E2,1.15868866E2,1.2162582E1,2.780215E1,2.8143278E1,1.1193143E1,1.019118E2,7.4755455E1,7.475001E1,1.23185036E2,4.4224007E1,5.825071E1,3.3855095E1,1.5684208E1,2.3880352E1,9.964729E1,8.6705765E1,2.9163101E1,1.4916051E1,1.2886099E1,1.5675047E1,1.2468232E1,8.696443E1,1.4947367E1,4.5837364E1,2.8918093E1],"tree_param":{"num_deleted":"0","num_feature":"61","num_nodes":"45","size_leaf_vector":"1"}},{"base_weights":[9.583187E-3,4.486394E-2,-3.2010284E-1,2.6484925E-1,-3.3596493E-3,-4.3552354E-2,-7.154216E-1,6.382039E-1,1.3557796E-1,-1.2015506E-1,1.506988E-1,1.2772231E-2,-2.683461E-1,-3.5108257E-2,-3.4934598E-1,5.2131047E-3,3.1460375E-2,2.9555145E-1,-1.1786543E-1,-6.237361E-2,-6.631887E-1,2.0754662E-1,-2.3026995E-1,2.8765206E-3,-1.8086687E-2,-0E0,-2.0068163E-2,1.3854104E-2,-7.224143E-3,-1.2989892E-2,9.016483E-3,2.9331577E-4,-1.1653745E-2,-2.9021457E-2,-1.8863117E-3,9.473563E-3,-4.472991E-3,-2.0928903E-2,3.6790322E-3],"categories":[],"categories_nodes":[],"categories_segments":[],"categories_sizes":[],"default_left":[0,0,0,0,0,0,0,0,0,0,0,0,0,0,0,0,0,0,0,0,0,0,0,0,0,0,0,0,0,0,0,0,0,0,0,0,0,0,0],"id":30,"left_children":[1,3,5,7,9,11,13,15,17,19,21,-1,23,-1,25,-1,-1,27,29,31,33,35,37,-1,-1,-1,-1,-1,-1,-1,-1,-1,-1,-1,-1,-1,-1,-1,-1],"loss_changes":[1.0446859E1,8.7588415E0,9.187844E0,6.7491703E0,1.2115843E1,5.8342476E0,4.572344E0,6.32018E0,4.7144294E0,1.1759769E1,6.3582993E0,0E0,4.8846264E0,0E0,2.6960318E0,0E0,0E0,6.5948815E0,6.1708746E0,8.3581505E0,6.1903048E0,9.935341E0,6.5865445E0,0E0,0E0,0E0,0E0,0E0,0E0,0E0,0E0,0E0,0E0,0E0,0E0,0E0,0E0,0E0,0E0],"parents":[2147483647,0,0,1,1,2,2,3,3,4,4,5,5,6,6,7,7,8,8,9,9,10,10,12,12,14,14,17,17,18,18,19,19,20,20,21,21,22,22],"right_children":[2,4,6,8,10,12,14,16,18,20,22,-1,24,-1,26,-1,-1,28,30,32,34,36,38,-1,-1,-1,-1,-1,-1,-1,-1,-1,-1,-1,-1,-1,-1,-1,-1],"split_conditions":[5E-1,6.687898E-2,3.9912676E-3,2.4802159E-3,3.349231E-3,2.638262E-1,2.8512625E-3,1.48511845E-5,4.8192795E-2,6.1413245E-3,2.0863595E0,1.2772231E-2,9.035981E-1,-3.5108257E-2,1.2589253E0,5.2131047E-3,3.1460375E-2,4.8521447E-1,4.3142667E-1,4.993163E-1,9.326233E-3,2E-1,4.051207E-3,2.8765206E-3,-1.8086687E-2,-0E0,-2.0068163E-2,1.3854104E-2,-7.224143E-3,-1.2989892E-2,9.016483E-3,2.9331577E-4,-1.1653745E-2,-2.9021457E-2,-1.8863117E-3,9.473563E-3,-4.472991E-3,-2.0928903E-2,3.6790322E-3],"split_indices":[58,33,18,5,3,31,1,8,42,0,16,0,17,0,13,0,0,24,24,24,0,45,37,0,0,0,0,0,0,0,0,0,0,0,0,0,0,0,0],"split_type":[0,0,0,0,0,0,0,0,0,0,0,0,0,0,0,0,0,0,0,0,0,0,0,0,0,0,0,0,0,0,0,0,0,0,0,0,0,0,0],"sum_hessian":[9.007765E2,8.160827E2,8.469382E1,1.4623372E2,6.69849E2,5.158563E1,3.3108185E1,3.4988155E1,1.1124557E2,3.8236008E2,2.8748892E2,1.569577E1,3.588986E1,1.2439198E1,2.066899E1,1.8093613E1,1.6894543E1,6.872056E1,4.252501E1,3.4810242E2,3.4257637E1,2.5163765E2,3.5851265E1,1.7436316E1,1.8453543E1,1.0461457E1,1.0207532E1,5.3099014E1,1.5621545E1,2.46255E1,1.7899508E1,2.8586975E2,6.223268E1,2.1593159E1,1.2664477E1,1.9387018E2,5.7767464E1,1.4949588E1,2.0901676E1],"tree_param":{"num_deleted":"0","num_feature":"61","num_nodes":"39","size_leaf_vector":"1"}},{"base_weights":[-2.8090836E-3,1.7036937E-2,-4.7285458E-1,7.241288E-2,-1.1204001E-1,3.712009E-3,-3.204892E-2,2.3396008E-2,5.6856133E-2,-2.2529932E-2,-7.748007E-2,9.8506615E-2,-2.2752963E-1,2.1703853E-1,-1.75684E-1,1.7707369E-3,1.4430371E-2,-1.4793788E-2,4.2591053E-3,1.9527076E-2,-2.2636044E-3,-2.1245638E-2,-3.1044332E-3],"categories":[],"categories_nodes":[],"categories_segments":[],"categories_sizes":[],"default_left":[0,0,0,0,0,0,0,0,0,0,0,0,0,0,0,0,0,0,0,0,0,0,0],"id":31,"left_children":[1,3,5,7,9,-1,-1,-1,11,-1,13,15,17,19,21,-1,-1,-1,-1,-1,-1,-1,-1],"loss_changes":[8.46541E0,6.1250215E0,1.3613562E1,6.2865047E0,5.2934E0,0E0,0E0,0E0,7.014555E0,0E0,7.172073E0,7.6104045E0,7.6323204E0,8.086298E0,6.7681646E0,0E0,0E0,0E0,0E0,0E0,0E0,0E0,0E0],"parents":[2147483647,0,0,1,1,2,2,3,3,4,4,8,8,10,10,11,11,12,12,13,13,14,14],"right_children":[2,4,6,8,10,-1,-1,-1,12,-1,14,16,18,20,22,-1,-1,-1,-1,-1,-1,-1,-1],"split_conditions":[2.698915E2,3.8032055E-1,9.5265144E-1,-2.0725967E-2,-3.461706E-2,3.712009E-3,-3.204892E-2,2.3396008E-2,5.427552E-3,-2.2529932E-2,-7.849676E-3,2.1614674E-2,5.078147E-1,4.700723E-1,-3.9191988E-1,1.7707369E-3,1.4430371E-2,-1.4793788E-2,4.2591053E-3,1.9527076E-2,-2.2636044E-3,-2.1245638E-2,-3.1044332E-3],"split_indices":[21,33,23,11,4,0,0,0,1,0,10,15,41,41,39,0,0,0,0,0,0,0,0],"split_type":[0,0,0,0,0,0,0,0,0,0,0,0,0,0,0,0,0,0,0,0,0,0,0],"sum_hessian":[8.89089E2,8.543081E2,3.4780884E1,6.000709E2,2.5423721E2,1.7913496E1,1.686739E1,1.0382321E1,5.896886E2,1.0472699E1,2.4376451E2,5.164174E2,7.3271164E1,5.958651E1,1.8417801E2,4.7090387E2,4.551354E1,4.27123E1,3.0558868E1,2.3420685E1,3.6165825E1,1.9391573E1,1.6478644E2],"tree_param":{"num_deleted":"0","num_feature":"61","num_nodes":"23","size_leaf_vector":"1"}},{"base_weights":[-6.521156E-5,7.405759E-2,-1.0427837E-1,1.0670193E-1,-2.8874853E-1,-1.993726E-1,2.1499467E-1,2.5387884E-3,2.2020078E-1,6.518597E-3,-4.7115132E-1,-1.4472704E-1,-6.0548383E-1,5.0678027E-1,-1.7495032E-1,1.2760842E-1,-2.3085254E-1,-0E0,3.8849267E-1,-2.1196662E-2,-1.34645525E-5,-2.2100733E-1,2.456149E-1,-6.086126E-4,-2.8385302E-2,2.92873E-1,3.0966768E-2,7.100178E-3,-3.5671768E-1,8.697272E-3,-3.2284528E-3,-2.3606455E-2,-1.0414788E-3,2.0916518E-2,-4.1457047E-3,-2.9000242E-3,1.4864519E-2,7.855309E-3,-8.265183E-3,1.5763193E-2,-1.2859759E-2,-1.5885802E-3,2.2389308E-2,-1.8514013E-2,-3.1548876E-3],"categories":[],"categories_nodes":[],"categories_segments":[],"categories_sizes":[],"default_left":[0,0,0,0,0,0,0,0,0,0,0,0,0,0,0,0,0,0,0,0,0,0,0,0,0,0,0,0,0,0,0,0,0,0,0,0,0,0,0,0,0,0,0,0,0],"id":32,"left_children":[1,3,5,7,9,11,13,15,17,-1,19,21,23,25,27,29,31,33,35,-1,-1,37,39,-1,-1,41,-1,-1,43,-1,-1,-1,-1,-1,-1,-1,-1,-1,-1,-1,-1,-1,-1,-1,-1],"loss_changes":[6.875869E0,6.1395216E0,1.1349945E1,5.574514E0,4.2060337E0,5.985385E0,9.995714E0,7.391774E0,8.365016E0,0E0,3.3690147E0,7.7504444E0,6.220503E0,4.5964966E0,3.0185332E0,6.468836E0,9.284425E0,9.957413E0,6.8779297E0,0E0,0E0,5.848113E0,8.460688E0,0E0,0E0,6.3396435E0,0E0,0E0,1.4477892E0,0E0,0E0,0E0,0E0,0E0,0E0,0E0,0E0,0E0,0E0,0E0,0E0,0E0,0E0,0E0,0E0],"parents":[2147483647,0,0,1,1,2,2,3,3,4,4,5,5,6,6,7,7,8,8,10,10,11,11,12,12,13,13,14,14,15,15,16,16,17,17,18,18,21,21,22,22,25,25,28,28],"right_children":[2,4,6,8,10,12,14,16,18,-1,20,22,24,26,28,30,32,34,36,-1,-1,38,40,-1,-1,42,-1,-1,44,-1,-1,-1,-1,-1,-1,-1,-1,-1,-1,-1,-1,-1,-1,-1,-1],"split_conditions":[2.9338062E-1,1.8481595E-2,7.616245E-3,7.596459E-3,1.0473515E-1,1.889669E-2,9.20581E-3,4.8995037E-3,8.625829E-1,6.518597E-3,8.7331E-3,6.4126328E-3,4.1879097E-1,6.666667E-1,6.8749756E-1,2.5691973E1,3.3308995E-1,8.3429223E-1,3.0379954E-1,-2.1196662E-2,-1.34645525E-5,6.009949E-1,4.1642818E-3,-6.086126E-4,-2.8385302E-2,1.1217324E-1,3.0966768E-2,7.100178E-3,1.3532174E-1,8.697272E-3,-3.2284528E-3,-2.3606455E-2,-1.0414788E-3,2.0916518E-2,-4.1457047E-3,-2.9000242E-3,1.4864519E-2,7.855309E-3,-8.265183E-3,1.5763193E-2,-1.2859759E-2,-1.5885802E-3,2.2389308E-2,-1.8514013E-2,-3.1548876E-3],"split_indices":[33,2,14,44,32,15,14,10,19,0,11,14,33,30,17,25,26,17,24,0,0,19,0,0,0,42,0,0,44,0,0,0,0,0,0,0,0,0,0,0,0,0,0,0,0],"split_type":[0,0,0,0,0,0,0,0,0,0,0,0,0,0,0,0,0,0,0,0,0,0,0,0,0,0,0,0,0,0,0,0,0,0,0,0,0,0,0,0,0,0,0,0,0],"sum_hessian":[8.8495636E2,5.1579285E2,3.691635E2,4.7526813E2,4.05247E1,2.8574594E2,8.3417595E1,2.5027089E2,2.2499724E2,1.0199978E1,3.0324724E1,2.548987E2,3.0847233E1,4.7811558E1,3.5606037E1,1.6437668E2,8.589421E1,9.864511E1,1.26352135E2,1.9122066E1,1.1202657E1,2.1459827E2,4.0300434E1,1.2454393E1,1.839284E1,3.659823E1,1.1213329E1,1.0216218E1,2.5389818E1,9.774472E1,6.663196E1,2.0428349E1,6.546586E1,1.5124162E1,8.352095E1,2.2357845E1,1.0399429E2,2.043483E1,1.9416344E2,2.9107252E1,1.1193184E1,2.138967E1,1.5208559E1,1.0461085E1,1.4928733E1],"tree_param":{"num_deleted":"0","num_feature":"61","num_nodes":"45","size_leaf_vector":"1"}},{"base_weights":[-2.1992585E-2,-1.0363638E-1,8.834603E-2,1.6803657E-1,-1.593681E-1,1.3062951E-1,-2.7972585E-1,2.7748305E-1,-9.9626575E-3,-1.5826259E-2,-3.0587175E-1,-2.3414515E-1,1.7815332E-1,4.0094797E-3,-5.739913E-1,2.3006951E-2,1.0206985E-1,1.2502001E-1,-3.496816E-1,-7.6486975E-1,-2.2704175E-1,-2.2545015E-2,1.552906E-1,3.2090297E-1,9.352277E-3,-6.018879E-3,-2.5216632E-2,-7.1389554E-3,