{"learner":{"attributes":{"scikit_learn":"{\"_estimator_type\": \"classifier\"}"},"feature_names":["return_5","volatility_5","return_10","volatility_10","return_20","volatility_20","return_50","volatility_50","roc_acceleration","price_sma20_ratio","price_sma50_ratio","sma20_sma50_ratio","price_zscore","vol_ratio","atr_pct","bb_width","vol_ratio_20","vol_trend","vwap_deviation","up_down_vol_ratio","rsi_14","macd_hist","bb_pctb","stoch_rsi","hurst","adx_14","trend_r2","trend_p_value","hour_sin","hour_cos","day_of_week","body_ratio","upper_shadow","lower_shadow","candle_dir_1","candle_dir_2","candle_dir_3","gk_volatility","parkinson_vol","vol_momentum","vol_acceleration","buying_pressure_avg","buying_pressure_trend","price_acceleration","range_expansion","candle_streak","vol_adj_return","cp_bullish_count","cp_bearish_count","cp_max_bullish_strength","cp_max_bearish_strength","cp_net_direction","cp_volume_confirmations","cp_engulfing","cp_star","cp_pin_or_hammer","cp_three_candle","cp_composite_score","regime_encoded","regime_is_trending","regime_is_ranging"],"feature_types":["float","float","float","float","float","float","float","float","float","float","float","float","float","float","float","float","float","float","float","float","float","float","float","float","float","float","float","float","float","float","float","float","float","float","int","int","int","float","float","float","float","float","float","float","float","float","float","int","int","float","float","float","int","float","float","float","float","float","float","float","float"],"gradient_booster":{"model":{"cats":{"enc":[],"feature_segments":[],"sorted_idx":[]},"gbtree_model_param":{"num_parallel_tree":"1","num_trees":"500"},"iteration_indptr":[0,1,2,3,4,5,6,7,8,9,10,11,12,13,14,15,16,17,18,19,20,21,22,23,24,25,26,27,28,29,30,31,32,33,34,35,36,37,38,39,40,41,42,43,44,45,46,47,48,49,50,51,52,53,54,55,56,57,58,59,60,61,62,63,64,65,66,67,68,69,70,71,72,73,74,75,76,77,78,79,80,81,82,83,84,85,86,87,88,89,90,91,92,93,94,95,96,97,98,99,100,101,102,103,104,105,106,107,108,109,110,111,112,113,114,115,116,117,118,119,120,121,122,123,124,125,126,127,128,129,130,131,132,133,134,135,136,137,138,139,140,141,142,143,144,145,146,147,148,149,150,151,152,153,154,155,156,157,158,159,160,161,162,163,164,165,166,167,168,169,170,171,172,173,174,175,176,177,178,179,180,181,182,183,184,185,186,187,188,189,190,191,192,193,194,195,196,197,198,199,200,201,202,203,204,205,206,207,208,209,210,211,212,213,214,215,216,217,218,219,220,221,222,223,224,225,226,227,228,229,230,231,232,233,234,235,236,237,238,239,240,241,242,243,244,245,246,247,248,249,250,251,252,253,254,255,256,257,258,259,260,261,262,263,264,265,266,267,268,269,270,271,272,273,274,275,276,277,278,279,280,281,282,283,284,285,286,287,288,289,290,291,292,293,294,295,296,297,298,299,300,301,302,303,304,305,306,307,308,309,310,311,312,313,314,315,316,317,318,319,320,321,322,323,324,325,326,327,328,329,330,331,332,333,334,335,336,337,338,339,340,341,342,343,344,345,346,347,348,349,350,351,352,353,354,355,356,357,358,359,360,361,362,363,364,365,366,367,368,369,370,371,372,373,374,375,376,377,378,379,380,381,382,383,384,385,386,387,388,389,390,391,392,393,394,395,396,397,398,399,400,401,402,403,404,405,406,407,408,409,410,411,412,413,414,415,416,417,418,419,420,421,422,423,424,425,426,427,428,429,430,431,432,433,434,435,436,437,438,439,440,441,442,443,444,445,446,447,448,449,450,451,452,453,454,455,456,457,458,459,460,461,462,463,464,465,466,467,468,469,470,471,472,473,474,475,476,477,478,479,480,481,482,483,484,485,486,487,488,489,490,491,492,493,494,495,496,497,498,499,500],"tree_info":[0,0,0,0,0,0,0,0,0,0,0,0,0,0,0,0,0,0,0,0,0,0,0,0,0,0,0,0,0,0,0,0,0,0,0,0,0,0,0,0,0,0,0,0,0,0,0,0,0,0,0,0,0,0,0,0,0,0,0,0,0,0,0,0,0,0,0,0,0,0,0,0,0,0,0,0,0,0,0,0,0,0,0,0,0,0,0,0,0,0,0,0,0,0,0,0,0,0,0,0,0,0,0,0,0,0,0,0,0,0,0,0,0,0,0,0,0,0,0,0,0,0,0,0,0,0,0,0,0,0,0,0,0,0,0,0,0,0,0,0,0,0,0,0,0,0,0,0,0,0,0,0,0,0,0,0,0,0,0,0,0,0,0,0,0,0,0,0,0,0,0,0,0,0,0,0,0,0,0,0,0,0,0,0,0,0,0,0,0,0,0,0,0,0,0,0,0,0,0,0,0,0,0,0,0,0,0,0,0,0,0,0,0,0,0,0,0,0,0,0,0,0,0,0,0,0,0,0,0,0,0,0,0,0,0,0,0,0,0,0,0,0,0,0,0,0,0,0,0,0,0,0,0,0,0,0,0,0,0,0,0,0,0,0,0,0,0,0,0,0,0,0,0,0,0,0,0,0,0,0,0,0,0,0,0,0,0,0,0,0,0,0,0,0,0,0,0,0,0,0,0,0,0,0,0,0,0,0,0,0,0,0,0,0,0,0,0,0,0,0,0,0,0,0,0,0,0,0,0,0,0,0,0,0,0,0,0,0,0,0,0,0,0,0,0,0,0,0,0,0,0,0,0,0,0,0,0,0,0,0,0,0,0,0,0,0,0,0,0,0,0,0,0,0,0,0,0,0,0,0,0,0,0,0,0,0,0,0,0,0,0,0,0,0,0,0,0,0,0,0,0,0,0,0,0,0,0,0,0,0,0,0,0,0,0,0,0,0,0,0,0,0,0,0,0,0,0,0,0,0,0,0,0,0,0,0,0,0,0,0,0,0,0,0,0,0,0,0,0,0,0,0,0,0,0,0,0,0,0,0,0,0,0,0,0,0,0,0,0,0,0,0,0,0,0,0,0,0,0,0,0,0,0,0,0,0,0,0,0,0,0,0,0,0,0,0,0,0,0,0],"trees":[{"base_weights":[3.466223E-2,1.8694288E-1,-1.2928669E-1,2.914268E-1,-5.579967E-2,-8.6120345E-2,-7.326273E-3,1.4395471E-1,4.3448466E-1,-2.4191941E-1,2.2986065E-1,1.06096044E-1,-2.1580505E-1,2.8601184E-3,-2.4572485E-3,6.647366E-3,1.4876705E-3,-6.534403E-3,-5.2381016E-4,-1.917478E-3,6.6384887E-3,1.08636E-4,6.9079525E-3,7.7103014E-4,-3.5413026E-3],"categories":[],"categories_nodes":[],"categories_segments":[],"categories_sizes":[],"default_left":[0,0,0,0,0,0,0,0,0,0,0,0,0,0,0,0,0,0,0,0,0,0,0,0,0],"id":0,"left_children":[1,3,5,7,9,11,-1,13,15,17,19,21,23,-1,-1,-1,-1,-1,-1,-1,-1,-1,-1,-1,-1],"loss_changes":[2.099066E1,1.123983E1,9.899873E0,6.002924E0,7.215028E0,9.60511E0,0E0,8.946625E0,9.34203E0,5.9966073E0,1.026651E1,8.184823E0,9.525833E0,0E0,0E0,0E0,0E0,0E0,0E0,0E0,0E0,0E0,0E0,0E0,0E0],"parents":[2147483647,0,0,1,1,2,2,3,3,4,4,5,5,7,7,8,8,9,9,10,10,11,11,12,12],"right_children":[2,4,6,8,10,12,-1,14,16,18,20,22,24,-1,-1,-1,-1,-1,-1,-1,-1,-1,-1,-1,-1],"split_conditions":[2.4647519E-1,8.807162E-3,4.9871343E-1,8.6967146E-1,3.3964032E-1,-1.8120557E-3,-7.326273E-3,2.6116027E-3,1.1980229E-3,6.0824665E1,5.9922137E-3,5.5712813E-1,2.1435413E-1,2.8601184E-3,-2.4572485E-3,6.647366E-3,1.4876705E-3,-6.534403E-3,-5.2381016E-4,-1.917478E-3,6.6384887E-3,1.08636E-4,6.9079525E-3,7.7103014E-4,-3.5413026E-3],"split_indices":[33,4,39,19,32,9,0,0,11,20,11,41,26,0,0,0,0,0,0,0,0,0,0,0,0],"split_type":[0,0,0,0,0,0,0,0,0,0,0,0,0,0,0,0,0,0,0,0,0,0,0,0,0],"sum_hessian":[8.337026E2,4.335953E2,4.0010727E2,3.041415E2,1.2945381E2,3.773654E2,2.2741886E1,1.544449E2,1.496966E2,7.972156E1,4.9732258E1,1.5069624E2,2.2666914E2,1.14709076E2,3.9735825E1,7.972156E1,6.997504E1,2.1992155E1,5.7729404E1,2.5490906E1,2.4241352E1,1.3295258E2,1.774367E1,7.197433E1,1.5469481E2],"tree_param":{"num_deleted":"0","num_feature":"61","num_nodes":"25","size_leaf_vector":"1"}},{"base_weights":[-1.682919E-2,-1.5487051E-1,1.466333E-1,-2.0927489E-1,3.490201E-1,-1.1335212E-1,2.8388774E-1,-9.0102956E-2,-4.7147435E-1,6.5363455E-3,-1.0373773E-4,3.8389256E-3,-2.4234553E-1,4.025928E-1,-1.649752E-2,-1.9749568E-3,7.8149524E-4,-2.796605E-5,-6.013809E-3,-4.011211E-3,2.0509474E-3,3.8969814E-4,5.1703844E-3,-2.192034E-3,4.966226E-3],"categories":[],"categories_nodes":[],"categories_segments":[],"categories_sizes":[],"default_left":[0,0,0,0,0,0,0,0,0,0,0,0,0,0,0,0,0,0,0,0,0,0,0,0,0],"id":1,"left_children":[1,3,5,7,9,11,13,15,17,-1,-1,-1,19,21,23,-1,-1,-1,-1,-1,-1,-1,-1,-1,-1],"loss_changes":[1.8737617E1,1.2529042E1,1.3692154E1,1.2414013E1,5.184679E0,8.655894E0,9.123966E0,5.294428E0,7.3769894E0,0E0,0E0,0E0,7.9614077E0,7.1702824E0,7.7260294E0,0E0,0E0,0E0,0E0,0E0,0E0,0E0,0E0,0E0,0E0],"parents":[2147483647,0,0,1,1,2,2,3,3,4,4,5,5,6,6,7,7,8,8,12,12,13,13,14,14],"right_children":[2,4,6,8,10,12,14,16,18,-1,-1,-1,20,22,24,-1,-1,-1,-1,-1,-1,-1,-1,-1,-1],"split_conditions":[2.5634462E-1,1.5262306E0,7.819963E-1,8.744394E-1,1.4478126E0,-3.591585E-3,1.3993074E0,3.0244398E-4,1.2231499E-1,6.5363455E-3,-1.0373773E-4,3.8389256E-3,4.8342007E-3,1.3189662E-1,5E-1,-1.9749568E-3,7.8149524E-4,-2.796605E-5,-6.013809E-3,-4.011211E-3,2.0509474E-3,3.8969814E-4,5.1703844E-3,-2.192034E-3,4.966226E-3],"split_indices":[32,13,17,12,17,0,16,8,26,0,0,0,5,31,28,0,0,0,0,0,0,0,0,0,0],"split_type":[0,0,0,0,0,0,0,0,0,0,0,0,0,0,0,0,0,0,0,0,0,0,0,0,0],"sum_hessian":[8.24198E2,4.485888E2,3.756092E2,4.073537E2,4.1235104E1,1.2870244E2,2.4690675E2,2.8414514E2,1.2320857E2,2.1742079E1,1.9493023E1,2.4490793E1,1.0421164E2,1.7743317E2,6.947358E1,1.7493645E2,1.09208694E2,2.8239481E1,9.4969086E1,7.797131E1,2.6240334E1,4.448461E1,1.3294856E2,5.1730507E1,1.7743073E1],"tree_param":{"num_deleted":"0","num_feature":"61","num_nodes":"25","size_leaf_vector":"1"}},{"base_weights":[2.4075843E-2,-7.7941395E-2,1.7904438E-1,-3.3108424E-2,-4.654024E-1,2.3493332E-1,-1.9608034E-1,-1.2747078E-1,1.2739459E-1,-6.5904334E-3,-1.516412E-3,2.6488582E-2,3.2339534E-1,1.537015E-3,-5.6119934E-3,2.7748127E-3,-2.1380596E-3,3.8129808E-3,-1.2217916E-3,-1.1897236E-3,3.954791E-3,3.7726208E-3,-9.648475E-4],"categories":[],"categories_nodes":[],"categories_segments":[],"categories_sizes":[],"default_left":[0,0,0,0,0,0,0,0,0,0,0,0,0,0,0,0,0,0,0,0,0,0,0],"id":2,"left_children":[1,3,5,7,9,11,13,15,17,-1,-1,19,21,-1,-1,-1,-1,-1,-1,-1,-1,-1,-1],"loss_changes":[1.3264795E1,8.434874E0,7.1519575E0,6.9375887E0,2.3774147E0,5.1998997E0,6.0479364E0,1.0281624E1,1.0911431E1,0E0,0E0,5.2288704E0,4.856018E0,0E0,0E0,0E0,0E0,0E0,0E0,0E0,0E0,0E0,0E0],"parents":[2147483647,0,0,1,1,2,2,3,3,4,4,5,5,6,6,7,7,8,8,11,11,12,12],"right_children":[2,4,6,8,10,12,14,16,18,-1,-1,20,22,-1,-1,-1,-1,-1,-1,-1,-1,-1,-1],"split_conditions":[2.8974563E-1,1.5867605E0,5.984979E-1,3.4715114E-3,5.5193496E-1,-5E-1,-8.6347744E-2,1.6522556E1,1E0,-6.5904334E-3,-1.516412E-3,5E-1,7.5070524E-1,1.537015E-3,-5.6119934E-3,2.7748127E-3,-2.1380596E-3,3.8129808E-3,-1.2217916E-3,-1.1897236E-3,3.954791E-3,3.7726208E-3,-9.648475E-4],"split_indices":[32,19,41,1,26,29,42,25,34,0,0,28,50,0,0,0,0,0,0,0,0,0,0],"split_type":[0,0,0,0,0,0,0,0,0,0,0,0,0,0,0,0,0,0,0,0,0,0,0],"sum_hessian":[8.3019586E2,4.9958145E2,3.306144E2,4.518454E2,4.7736057E1,2.8987994E2,4.0734467E1,2.86903E2,1.6494237E2,2.6491564E1,2.1244493E1,8.921393E1,2.0066603E2,2.0991976E1,1.9742493E1,4.8233273E1,2.3866975E2,8.197016E1,8.2972206E1,6.4474785E1,2.473914E1,1.7917487E2,2.1491167E1],"tree_param":{"num_deleted":"0","num_feature":"61","num_nodes":"23","size_leaf_vector":"1"}},{"base_weights":[-6.805416E-3,-1.054313E-1,1.917434E-1,-7.7264183E-3,-3.627942E-1,2.8447756E-1,-8.750094E-2,-1.3350993E-1,1.4712115E-1,-6.9888586E-1,-1.2593369E-1,1.891451E-1,5.9627867E-1,2.220823E-1,-3.9514396E-1,2.111786E-3,-2.5753456E-3,6.0218484E-3,6.9230516E-4,-2.7945882E-3,-9.3683405E-3,2.4531588E-3,-3.432137E-3,-1.6139017E-3,3.130688E-3,8.4234215E-3,1.527307E-3,5.280101E-3,-1.432277E-3,-6.2115396E-5,-6.6043143E-3],"categories":[],"categories_nodes":[],"categories_segments":[],"categories_sizes":[],"default_left":[0,0,0,0,0,0,0,0,0,0,0,0,0,0,0,0,0,0,0,0,0,0,0,0,0,0,0,0,0,0,0],"id":3,"left_children":[1,3,5,7,9,11,13,15,17,19,21,23,25,27,29,-1,-1,-1,-1,-1,-1,-1,-1,-1,-1,-1,-1,-1,-1,-1,-1],"loss_changes":[1.6626635E1,1.414704E1,7.446561E0,8.190649E0,1.1699171E1,5.5974255E0,7.1092696E0,1.0186201E1,6.1650553E0,4.8675423E0,8.023116E0,7.5544844E0,4.27129E0,4.496784E0,3.5222554E0,0E0,0E0,0E0,0E0,0E0,0E0,0E0,0E0,0E0,0E0,0E0,0E0,0E0,0E0,0E0,0E0],"parents":[2147483647,0,0,1,1,2,2,3,3,4,4,5,5,6,6,7,7,8,8,9,9,10,10,11,11,12,12,13,13,14,14],"right_children":[2,4,6,8,10,12,14,16,18,20,22,24,26,28,30,-1,-1,-1,-1,-1,-1,-1,-1,-1,-1,-1,-1,-1,-1,-1,-1],"split_conditions":[3.3964032E-1,8.807162E-3,8.8398856E-1,9.0011996E-1,3.2979837E-3,6.6019267E-1,5.453286E-1,3.153664E1,1.4695144E-3,3.16839E-3,1.1512268E0,-2.4401887E-1,-1.5294002E-2,2.41989E-3,4.5250195E-1,2.111786E-3,-2.5753456E-3,6.0218484E-3,6.9230516E-4,-2.7945882E-3,-9.3683405E-3,2.4531588E-3,-3.432137E-3,-1.6139017E-3,3.130688E-3,8.4234215E-3,1.527307E-3,5.280101E-3,-1.432277E-3,-6.2115396E-5,-6.6043143E-3],"split_indices":[32,4,23,19,3,23,41,20,3,38,19,44,42,4,32,0,0,0,0,0,0,0,0,0,0,0,0,0,0,0,0],"split_type":[0,0,0,0,0,0,0,0,0,0,0,0,0,0,0,0,0,0,0,0,0,0,0,0,0,0,0,0,0,0,0],"sum_hessian":[8.451818E2,5.673067E2,2.778751E2,4.1484744E2,1.5245926E2,2.0990288E2,6.797224E1,2.3091573E2,1.8393172E2,5.9735355E1,9.272391E1,1.6567238E2,4.4230488E1,3.348507E1,3.4487164E1,5.9477257E1,1.7143846E2,2.2991978E1,1.6093974E2,2.4744076E1,3.499128E1,3.3240376E1,5.9483532E1,4.1981155E1,1.2369122E2,2.5988487E1,1.8242002E1,1.824142E1,1.524365E1,1.5993873E1,1.849329E1],"tree_param":{"num_deleted":"0","num_feature":"61","num_nodes":"31","size_leaf_vector":"1"}},{"base_weights":[3.793781E-2,1.1484872E-1,-2.2754508E-1,2.0928368E-1,-1.0689069E-1,8.345E-2,-3.6379248E-1,-1.67618E-2,2.9009497E-1,-1.9926095E-1,4.516133E-3,3.4493306E-3,-2.0800214E-3,-4.90544E-1,8.357272E-4,5.5808043E-3,-1.971529E-3,-2.1774154E-5,3.5333117E-3,-7.548841E-3,-9.66201E-4,-5.7102734E-4,-6.9159097E-3],"categories":[],"categories_nodes":[],"categories_segments":[],"categories_sizes":[],"default_left":[0,0,0,0,0,0,0,0,0,0,0,0,0,0,0,0,0,0,0,0,0,0,0],"id":4,"left_children":[1,3,5,7,9,11,13,15,17,19,-1,-1,-1,21,-1,-1,-1,-1,-1,-1,-1,-1,-1],"loss_changes":[1.7192526E1,1.384414E1,8.215908E0,8.596109E0,1.0264796E1,4.7594028E0,7.8518066E0,1.28995495E1,6.5051994E0,9.118483E0,0E0,0E0,0E0,8.632692E0,0E0,0E0,0E0,0E0,0E0,0E0,0E0,0E0,0E0],"parents":[2147483647,0,0,1,1,2,2,3,3,4,4,5,5,6,6,7,7,8,8,9,9,13,13],"right_children":[2,4,6,8,10,12,14,16,18,20,-1,-1,-1,22,-1,-1,-1,-1,-1,-1,-1,-1,-1],"split_conditions":[1.1912174E0,3.8032055E-1,-7.7959344E-2,-2.7879244E-1,5.8207847E-3,6.123234E-17,2.923896E-1,-4.9116072E-1,-1.500118E-2,-4.0320614E-1,4.516133E-3,3.4493306E-3,-2.0800214E-3,-5.2250963E-2,8.357272E-4,5.5808043E-3,-1.971529E-3,-2.1774154E-5,3.5333117E-3,-7.548841E-3,-9.66201E-4,-5.7102734E-4,-6.9159097E-3],"split_indices":[12,33,42,44,2,29,42,44,2,44,0,0,0,39,0,0,0,0,0,0,0,0,0],"split_type":[0,0,0,0,0,0,0,0,0,0,0,0,0,0,0,0,0,0,0,0,0,0,0],"sum_hessian":[8.379261E2,6.5248535E2,1.8544072E2,4.593006E2,1.9318472E2,5.5728626E1,1.297121E2,1.1995439E2,3.3934622E2,1.681925E2,2.4992224E1,2.9988659E1,2.5739967E1,1.01719986E2,2.7992115E1,2.6489346E1,9.346505E1,5.9470146E1,2.7987607E2,2.2493547E1,1.4569896E2,3.424011E1,6.747988E1],"tree_param":{"num_deleted":"0","num_feature":"61","num_nodes":"23","size_leaf_vector":"1"}},{"base_weights":[3.605734E-2,1.4390682E-1,-1.7280616E-1,3.365922E-2,3.1158394E-1,-3.1270507E-1,5.295E-3,-9.006068E-2,2.6482844E-1,3.1378623E-2,4.0250123E-1,-5.5030692E-2,-5.749896E-1,2.346498E-1,-1.6812326E-1,5.8085565E-3,-1.6582067E-3,3.657203E-3,-2.864353E-3,-2.7925372E-3,2.9457458E-3,2.8735306E-3,9.384447E-3,3.6478688E-3,-3.1942783E-3,-7.276121E-4,-7.351832E-3,-2.9709737E-3,4.685854E-3,-3.5244876E-3,1.4523912E-3],"categories":[],"categories_nodes":[],"categories_segments":[],"categories_sizes":[],"default_left":[0,0,0,0,0,0,0,0,0,0,0,0,0,0,0,0,0,0,0,0,0,0,0,0,0,0,0,0,0,0,0],"id":5,"left_children":[1,3,5,7,9,11,13,15,17,19,21,23,25,27,29,-1,-1,-1,-1,-1,-1,-1,-1,-1,-1,-1,-1,-1,-1,-1,-1],"loss_changes":[1.9069998E1,1.0143512E1,7.3136015E0,9.965151E0,5.3467636E0,1.0569156E1,5.231156E0,1.1475747E1,7.1226597E0,5.0345635E0,8.724581E0,9.897722E0,5.809597E0,7.653614E0,4.486926E0,0E0,0E0,0E0,0E0,0E0,0E0,0E0,0E0,0E0,0E0,0E0,0E0,0E0,0E0,0E0,0E0],"parents":[2147483647,0,0,1,1,2,2,3,3,4,4,5,5,6,6,7,7,8,8,9,9,10,10,11,11,12,12,13,13,14,14],"right_children":[2,4,6,8,10,12,14,16,18,20,22,24,26,28,30,-1,-1,-1,-1,-1,-1,-1,-1,-1,-1,-1,-1,-1,-1,-1,-1],"split_conditions":[3.4556992E-3,2.8974563E-1,9.710133E-1,1.0502235E0,-5.9075644E-3,-1.8369701E-16,-6.6399485E-2,1.8323631E-3,4.513085E-1,4.0166695E1,5.04021E-1,-2.1361602E-3,2.8640092E-3,-3.6351633E-1,4.432851E-3,5.8085565E-3,-1.6582067E-3,3.657203E-3,-2.864353E-3,-2.7925372E-3,2.9457458E-3,2.8735306E-3,9.384447E-3,3.6478688E-3,-3.1942783E-3,-7.276121E-4,-7.351832E-3,-2.9709737E-3,4.685854E-3,-3.5244876E-3,1.4523912E-3],"split_indices":[18,32,13,13,43,29,39,37,39,20,31,43,10,39,38,0,0,0,0,0,0,0,0,0,0,0,0,0,0,0,0],"split_type":[0,0,0,0,0,0,0,0,0,0,0,0,0,0,0,0,0,0,0,0,0,0,0,0,0,0,0,0,0,0,0],"sum_hessian":[8.4091345E2,5.567533E2,2.8416016E2,3.3987186E2,2.1688144E2,1.5945103E2,1.2470912E2,2.2117117E2,1.187007E2,5.5467285E1,1.6141415E2,8.322483E1,7.622621E1,5.4480167E1,7.022895E1,1.9741674E1,2.014295E2,1.019573E2,1.6743397E1,2.4485706E1,3.0981577E1,1.3742882E2,2.3985334E1,3.0989159E1,5.223567E1,2.0243616E1,5.5982597E1,1.57445965E1,3.873557E1,4.498774E1,2.5241213E1],"tree_param":{"num_deleted":"0","num_feature":"61","num_nodes":"31","size_leaf_vector":"1"}},{"base_weights":[2.2757392E-2,-8.965147E-2,1.8969564E-1,4.0990643E-2,-2.5843236E-1,3.6769864E-1,2.9676855E-2,1.14683755E-1,-5.3603137E-3,-3.5035345E-1,4.348785E-2,-1.253371E-3,4.4818875E-1,1.5153697E-1,-4.0900978E-1,-1.2131193E-4,4.226679E-3,9.060502E-4,-4.5504123E-3,-2.8940535E-3,4.181999E-3,2.736727E-4,5.697368E-3,-9.249184E-4,4.966876E-3,-9.879126E-4,-6.546493E-3],"categories":[],"categories_nodes":[],"categories_segments":[],"categories_sizes":[],"default_left":[0,0,0,0,0,0,0,0,0,0,0,0,0,0,0,0,0,0,0,0,0,0,0,0,0,0,0],"id":6,"left_children":[1,3,5,7,9,11,13,15,-1,17,19,-1,21,23,25,-1,-1,-1,-1,-1,-1,-1,-1,-1,-1,-1,-1],"loss_changes":[1.5772969E1,1.11508045E1,9.419381E0,1.1981634E1,6.303302E0,6.6259995E0,9.848877E0,1.0127378E1,0E0,8.163452E0,7.005485E0,0E0,6.708994E0,1.2672918E1,2.4573755E0,0E0,0E0,0E0,0E0,0E0,0E0,0E0,0E0,0E0,0E0,0E0,0E0],"parents":[2147483647,0,0,1,1,2,2,3,3,4,4,5,5,6,6,7,7,9,9,10,10,12,12,13,13,14,14],"right_children":[2,4,6,8,10,12,14,16,-1,18,20,-1,22,24,26,-1,-1,-1,-1,-1,-1,-1,-1,-1,-1,-1,-1],"split_conditions":[2.8974563E-1,1.1004132E-3,-4.8775063E-4,4.186386E-1,1.1295203E-2,-9.709122E-3,9.335572E-1,3.8740917E-3,-5.3603137E-3,1.7112156E-3,1.5594184E-3,-1.253371E-3,4.416638E-1,1.4419213E-2,2.3350006E-3,-1.2131193E-4,4.226679E-3,9.060502E-4,-4.5504123E-3,-2.8940535E-3,4.181999E-3,2.736727E-4,5.697368E-3,-9.249184E-4,4.966876E-3,-9.879126E-4,-6.546493E-3],"split_indices":[32,18,4,39,27,0,23,1,0,2,44,0,16,44,1,0,0,0,0,0,0,0,0,0,0,0,0],"split_type":[0,0,0,0,0,0,0,0,0,0,0,0,0,0,0,0,0,0,0,0,0,0,0,0,0,0,0],"sum_hessian":[8.321529E2,4.9633594E2,3.35817E2,2.7938867E2,2.1694728E2,1.5565263E2,1.8016434E2,2.5064796E2,2.8740696E1,1.6721321E2,4.9734074E1,2.0738306E1,1.3491434E2,1.4342628E2,3.6738056E1,1.784345E2,7.221346E1,3.124264E1,1.3597057E2,2.5991718E1,2.3742355E1,3.1980633E1,1.029337E2,8.445924E1,5.8967045E1,1.8993357E1,1.7744698E1],"tree_param":{"num_deleted":"0","num_feature":"61","num_nodes":"27","size_leaf_vector":"1"}},{"base_weights":[1.0116183E-2,1.195909E-1,-1.4503334E-1,1.6264094E-1,-2.8525317E-1,1.837509E-2,-4.0931818E-1,2.4725808E-1,-2.629613E-2,-5.7825022E-3,1.016194E-4,-7.0745334E-2,3.4817076E-1,-5.150401E-1,-2.7622817E-2,-1.7872631E-3,3.1816128E-3,-2.0966213E-3,2.1877894E-3,1.8313958E-3,-2.0448058E-3,6.5834955E-3,5.4235285E-4,-8.9063164E-4,-6.839644E-3,2.2056638E-3,-3.020914E-3],"categories":[],"categories_nodes":[],"categories_segments":[],"categories_sizes":[],"default_left":[0,0,0,0,0,0,0,0,0,0,0,0,0,0,0,0,0,0,0,0,0,0,0,0,0,0,0],"id":7,"left_children":[1,3,5,7,9,11,13,15,17,-1,-1,19,21,23,25,-1,-1,-1,-1,-1,-1,-1,-1,-1,-1,-1,-1],"loss_changes":[1.4559437E1,8.874971E0,1.546843E1,7.4723825E0,4.4985933E0,6.6761513E0,5.182869E0,9.88489E0,6.5568023E0,0E0,0E0,6.045415E0,3.9570322E0,7.0205765E0,2.5391533E0,0E0,0E0,0E0,0E0,0E0,0E0,0E0,0E0,0E0,0E0,0E0,0E0],"parents":[2147483647,0,0,1,1,2,2,3,3,4,4,5,5,6,6,7,7,8,8,11,11,12,12,13,13,14,14],"right_children":[2,4,6,8,10,12,14,16,18,-1,-1,20,22,24,26,-1,-1,-1,-1,-1,-1,-1,-1,-1,-1,-1,-1],"split_conditions":[3.0289683E-1,1.2991733E-2,4.2438263E-1,7.1340454E-1,4.3436566E-1,-1.1212816E-1,7.1169995E-3,-4.7916564E-1,3.0244398E-4,-5.7825022E-3,1.016194E-4,1.7925926E-1,1.2314833E-1,2.0518886E-1,4.2533837E-3,-1.7872631E-3,3.1816128E-3,-2.0966213E-3,2.1877894E-3,1.8313958E-3,-2.0448058E-3,6.5834955E-3,5.4235285E-4,-8.9063164E-4,-6.839644E-3,2.2056638E-3,-3.020914E-3],"split_indices":[33,18,12,31,24,12,14,40,8,0,0,31,12,26,8,0,0,0,0,0,0,0,0,0,0,0,0],"split_type":[0,0,0,0,0,0,0,0,0,0,0,0,0,0,0,0,0,0,0,0,0,0,0,0,0,0,0],"sum_hessian":[8.518817E2,5.017519E2,3.501298E2,4.5626385E2,4.5488056E1,2.1691183E2,1.3321797E2,3.1631827E2,1.3994559E2,2.2245213E1,2.3242844E1,1.7142749E2,4.548434E1,1.0247616E2,3.074182E1,4.347966E1,2.728386E2,8.146607E1,5.847951E1,5.7472977E1,1.1395451E2,1.949336E1,2.599098E1,3.1239933E1,7.123622E1,1.5496508E1,1.5245311E1],"tree_param":{"num_deleted":"0","num_feature":"61","num_nodes":"27","size_leaf_vector":"1"}},{"base_weights":[-1.2863918E-3,1.3655049E-1,-1.7395481E-1,1.6477482E-1,-5.2548815E-3,-1.4738939E-2,-4.0414166E-1,3.0556673E-1,4.1505612E-2,5.1330127E-2,-5.467552E-3,-5.166652E-1,4.891746E-4,3.5573565E-3,-2.2127957E-3,1.8378256E-3,-1.3469101E-3,-1.13167785E-4,4.5666057E-3,2.8977345E-4,-5.9971474E-3],"categories":[],"categories_nodes":[],"categories_segments":[],"categories_sizes":[],"default_left":[0,0,0,0,0,0,0,0,0,0,0,0,0,0,0,0,0,0,0,0,0],"id":8,"left_children":[1,3,5,7,-1,9,11,13,15,17,-1,19,-1,-1,-1,-1,-1,-1,-1,-1,-1],"loss_changes":[1.9978048E1,8.7636385E0,1.3475016E1,7.576784E0,0E0,8.2548895E0,8.031599E0,5.777975E0,6.231483E0,5.377976E0,0E0,5.8876495E0,0E0,0E0,0E0,0E0,0E0,0E0,0E0,0E0,0E0],"parents":[2147483647,0,0,1,1,2,2,3,3,5,5,6,6,7,7,8,8,9,9,11,11],"right_children":[2,4,6,8,-1,10,12,14,16,18,-1,20,-1,-1,-1,-1,-1,-1,-1,-1,-1],"split_conditions":[2.7969122E-1,2.997787E2,1.5756501E-3,1.52961E-5,-5.2548815E-3,4.0728977E-1,4.645514E-3,1.8212607E0,2.5881904E-1,1.384024E0,-5.467552E-3,-2.0122905E-3,4.891746E-4,3.5573565E-3,-2.2127957E-3,1.8378256E-3,-1.3469101E-3,-1.13167785E-4,4.5666057E-3,2.8977345E-4,-5.9971474E-3],"split_indices":[33,21,9,6,0,39,3,17,29,17,0,0,0,0,0,0,0,0,0,0,0],"split_type":[0,0,0,0,0,0,0,0,0,0,0,0,0,0,0,0,0,0,0,0,0],"sum_hessian":[8.3263116E2,4.617553E2,3.708759E2,4.4576E2,1.5995278E1,2.2240605E2,1.4846982E2,2.0412543E2,2.4163458E2,1.9941252E2,2.2993544E1,1.1947817E2,2.8991644E1,1.8813379E2,1.5991637E1,1.3518372E2,1.06450874E2,1.7417511E2,2.5237408E1,1.5245657E1,1.0423251E2],"tree_param":{"num_deleted":"0","num_feature":"61","num_nodes":"21","size_leaf_vector":"1"}},{"base_weights":[-6.3869487E-3,8.620744E-2,-1.876887E-1,-1.3779417E-2,2.4536982E-1,-3.6498317E-1,-3.4023743E-2,5.772669E-2,-2.6513615E-1,-6.347277E-2,3.510121E-1,-1.3780732E-1,-6.8246615E-1,-4.311523E-3,6.274079E-2,-1.1600665E-3,2.030522E-3,3.1988283E-3,-4.666413E-3,-3.9619002E-3,1.7454321E-3,4.3225964E-3,-1.5011424E-3,1.6673331E-3,-4.770775E-3,-4.2017326E-3,-9.340151E-3,5.7273945E-3,-8.3660876E-4],"categories":[],"categories_nodes":[],"categories_segments":[],"categories_sizes":[],"default_left":[0,0,0,0,0,0,0,0,0,0,0,0,0,0,0,0,0,0,0,0,0,0,0,0,0,0,0,0,0],"id":9,"left_children":[1,3,5,7,9,11,13,15,17,19,21,23,25,-1,27,-1,-1,-1,-1,-1,-1,-1,-1,-1,-1,-1,-1,-1,-1],"loss_changes":[1.4110407E1,8.921562E0,7.525669E0,6.2670875E0,7.2362328E0,8.717869E0,6.315918E0,6.8274345E0,9.653246E0,4.770252E0,6.936306E0,8.734844E0,1.6254578E0,0E0,9.96106E0,0E0,0E0,0E0,0E0,0E0,0E0,0E0,0E0,0E0,0E0,0E0,0E0,0E0,0E0],"parents":[2147483647,0,0,1,1,2,2,3,3,4,4,5,5,6,6,7,7,8,8,9,9,10,10,11,11,12,12,14,14],"right_children":[2,4,6,8,10,12,14,16,18,20,22,24,26,-1,28,-1,-1,-1,-1,-1,-1,-1,-1,-1,-1,-1,-1,-1,-1],"split_conditions":[3.5296173E-3,2.8974563E-1,3.3656633E-3,2.0444989E-1,-2.6123643E-1,2.5881904E-1,-2.704989E-1,7.901532E-2,-1.9381475E-1,4.4484442E-1,1.8120537E0,2.9143621E-3,2.5942142E-3,-4.311523E-3,-1.08828135E-1,-1.1600665E-3,2.030522E-3,3.1988283E-3,-4.666413E-3,-3.9619002E-3,1.7454321E-3,4.3225964E-3,-1.5011424E-3,1.6673331E-3,-4.770775E-3,-4.2017326E-3,-9.340151E-3,5.7273945E-3,-8.3660876E-4],"split_indices":[18,32,3,32,44,29,39,32,42,16,16,5,3,0,39,0,0,0,0,0,0,0,0,0,0,0,0,0,0],"split_type":[0,0,0,0,0,0,0,0,0,0,0,0,0,0,0,0,0,0,0,0,0,0,0,0,0,0,0,0,0],"sum_hessian":[8.3161523E2,5.496922E2,2.81923E2,3.3735953E2,2.1233269E2,1.2747101E2,1.5445201E2,2.628933E2,7.4466225E1,5.3217426E1,1.5911525E2,7.772893E1,4.974208E1,2.924178E1,1.2521023E2,1.18451706E2,1.444416E2,1.7990797E1,5.647543E1,2.2238194E1,3.0979235E1,1.3813025E2,2.0985012E1,4.098831E1,3.6740616E1,2.9245838E1,2.0496243E1,2.6739737E1,9.847049E1],"tree_param":{"num_deleted":"0","num_feature":"61","num_nodes":"29","size_leaf_vector":"1"}},{"base_weights":[-6.57229E-3,5.1926956E-2,-2.2929215E-1,1.7591767E-2,4.049123E-1,-0E0,-6.070684E-1,-7.670016E-2,1.5784496E-1,6.0613024E-1,-7.563147E-5,-2.861539E-1,2.3283851E-1,-8.755849E-3,-1.1737348E-3,2.654061E-3,-1.3772305E-3,3.7429957E-3,-4.0256532E-4,8.579639E-3,1.5406691E-3,-4.800023E-3,1.2067849E-3,-0E0,8.014768E-3],"categories":[],"categories_nodes":[],"categories_segments":[],"categories_sizes":[],"default_left":[0,0,0,0,0,0,0,0,0,0,0,0,0,0,0,0,0,0,0,0,0,0,0,0,0],"id":10,"left_children":[1,3,5,7,9,11,13,15,17,19,-1,21,23,-1,-1,-1,-1,-1,-1,-1,-1,-1,-1,-1,-1],"loss_changes":[1.10439825E1,7.820122E0,1.5028998E1,8.143388E0,5.08315E0,7.798834E0,7.871664E0,7.657899E0,1.0860486E1,3.5920773E0,0E0,4.550785E0,8.437771E0,0E0,0E0,0E0,0E0,0E0,0E0,0E0,0E0,0E0,0E0,0E0,0E0],"parents":[2147483647,0,0,1,1,2,2,3,3,4,4,5,5,6,6,7,7,8,8,9,9,11,11,12,12],"right_children":[2,4,6,8,10,12,14,16,18,20,-1,22,24,-1,-1,-1,-1,-1,-1,-1,-1,-1,-1,-1,-1],"split_conditions":[8.660254E-1,6.4974013E-3,6.451945E-1,2.9186913E-1,1.1769205E-1,-1.242355E-3,8.432356E-1,1.6522556E1,3.5239432E-3,1.22687206E-1,-7.563147E-5,3.6685767E-3,-8.646148E-4,-8.755849E-3,-1.1737348E-3,2.654061E-3,-1.3772305E-3,3.7429957E-3,-4.0256532E-4,8.579639E-3,1.5406691E-3,-4.800023E-3,1.2067849E-3,-0E0,8.014768E-3],"split_indices":[29,7,22,32,42,43,17,25,38,39,0,3,2,0,0,0,0,0,0,0,0,0,0,0,0],"split_type":[0,0,0,0,0,0,0,0,0,0,0,0,0,0,0,0,0,0,0,0,0,0,0,0,0],"sum_hessian":[8.3510175E2,6.6142773E2,1.7367398E2,6.069547E2,5.447301E1,1.1068892E2,6.2985065E1,3.6162766E2,2.4532709E2,3.6480457E1,1.7992556E1,5.022271E1,6.046621E1,3.8492954E1,2.4492111E1,5.1979416E1,3.0964822E2,1.1716403E2,1.2816304E2,2.0988546E1,1.549191E1,3.4482067E1,1.5740642E1,4.497437E1,1.54918375E1],"tree_param":{"num_deleted":"0","num_feature":"61","num_nodes":"25","size_leaf_vector":"1"}},{"base_weights":[4.2852317E-3,1.1938633E-1,-1.3925079E-1,1.8232735E-1,-1.9783403E-1,-2.611401E-1,9.748992E-2,-7.0667155E-2,2.4898742E-1,7.429394E-2,-4.5938128E-1,-7.009246E-2,-4.8691583E-1,-3.7575497E-3,2.5374973E-1,2.7310478E-3,-4.917541E-3,4.7741435E-3,1.3481509E-3,-2.9556218E-3,5.237134E-3,-1.1308535E-3,-7.384067E-3,-1.786916E-3,4.07446E-3,1.0943015E-3,-5.9774616E-3,4.282365E-3,3.9274144E-4],"categories":[],"categories_nodes":[],"categories_segments":[],"categories_sizes":[],"default_left":[0,0,0,0,0,0,0,0,0,0,0,0,0,0,0,0,0,0,0,0,0,0,0,0,0,0,0,0,0],"id":11,"left_children":[1,3,5,7,9,11,13,15,17,19,21,23,25,-1,27,-1,-1,-1,-1,-1,-1,-1,-1,-1,-1,-1,-1,-1,-1],"loss_changes":[1.3977092E1,9.518871E0,1.09756775E1,6.8286943E0,5.862412E0,1.0388552E1,9.705406E0,1.2593266E1,7.7430897E0,7.2242117E0,3.3087254E0,7.3614907E0,7.8912373E0,0E0,3.4193034E0,0E0,0E0,0E0,0E0,0E0,0E0,0E0,0E0,0E0,0E0,0E0,0E0,0E0,0E0],"parents":[2147483647,0,0,1,1,2,2,3,3,4,4,5,5,6,6,7,7,8,8,9,9,10,10,11,11,12,12,14,14],"right_children":[2,4,6,8,10,12,14,16,18,20,22,24,26,-1,28,-1,-1,-1,-1,-1,-1,-1,-1,-1,-1,-1,-1,-1,-1],"split_conditions":[2.7969122E-1,5.849312E-1,3.7958715E-3,-2.4975938E-1,8.2500684E-1,5.633415E-1,-1.3965777E-2,5.03101E-1,-9.352296E-3,5.486133E1,3.8623833E-3,4.7196797E-1,-7.821209E-3,-3.7575497E-3,-1.0203151E-3,2.7310478E-3,-4.917541E-3,4.7741435E-3,1.3481509E-3,-2.9556218E-3,5.237134E-3,-1.1308535E-3,-7.384067E-3,-1.786916E-3,4.07446E-3,1.0943015E-3,-5.9774616E-3,4.282365E-3,3.9274144E-4],"split_indices":[33,41,3,39,22,22,2,41,39,20,7,22,43,0,43,0,0,0,0,0,0,0,0,0,0,0,0,0,0],"split_type":[0,0,0,0,0,0,0,0,0,0,0,0,0,0,0,0,0,0,0,0,0,0,0,0,0,0,0,0,0],"sum_hessian":[8.405943E2,4.687185E2,3.7187576E2,3.9349536E2,7.522317E1,2.4667465E2,1.25201126E2,8.045687E1,3.1303848E2,3.6981617E1,3.824155E1,1.369423E2,1.09732346E2,2.9237936E1,9.596319E1,4.42216E1,3.6235268E1,9.96809E1,2.1335759E2,2.0239626E1,1.6741991E1,1.9744562E1,1.8496986E1,1.1395235E2,2.2989954E1,1.6496418E1,9.323592E1,4.998036E1,4.5982834E1],"tree_param":{"num_deleted":"0","num_feature":"61","num_nodes":"29","size_leaf_vector":"1"}},{"base_weights":[2.2706655E-3,1.91856E-1,-1.05525926E-1,2.5610173E-1,-2.0378448E-1,-9.039672E-3,-3.0554864E-1,-8.480443E-2,3.6550733E-1,1.9673875E-3,-4.6206657E-3,5.9598975E-2,-2.4043992E-1,-5.497497E-1,3.0543406E-2,3.4081344E-3,-3.6094242E-3,1.3603014E-3,5.0322926E-3,-2.2050675E-3,1.8975821E-3,-7.055158E-4,-6.7188498E-3,-8.0738845E-4,-7.3385932E-3,-2.0655547E-3,2.206101E-3],"categories":[],"categories_nodes":[],"categories_segments":[],"categories_sizes":[],"default_left":[0,0,0,0,0,0,0,0,0,0,0,0,0,0,0,0,0,0,0,0,0,0,0,0,0,0,0],"id":12,"left_children":[1,3,5,7,9,11,13,15,17,-1,-1,19,21,23,25,-1,-1,-1,-1,-1,-1,-1,-1,-1,-1,-1,-1],"loss_changes":[1.7359104E1,8.031915E0,1.0227641E1,1.0231897E1,4.9284153E0,5.979343E0,1.4546713E1,8.18962E0,5.941925E0,0E0,0E0,1.0486195E1,5.824053E0,8.178093E0,3.52256E0,0E0,0E0,0E0,0E0,0E0,0E0,0E0,0E0,0E0,0E0,0E0,0E0],"parents":[2147483647,0,0,1,1,2,2,3,3,4,4,5,5,6,6,7,7,8,8,11,11,12,12,13,13,14,14],"right_children":[2,4,6,8,10,12,14,16,18,-1,-1,20,22,24,26,-1,-1,-1,-1,-1,-1,-1,-1,-1,-1,-1,-1],"split_conditions":[1.5598983E-1,1E0,3.5296173E-3,1.812848E1,-8.632106E-3,1.384589E0,3.7958715E-3,-7.3275075E-4,1.7871326E-1,1.9673875E-3,-4.6206657E-3,4.7486624E-1,4.0728977E-1,2.0518886E-1,3.2068482E-1,3.4081344E-3,-3.6094242E-3,1.3603014E-3,5.0322926E-3,-2.2050675E-3,1.8975821E-3,-7.055158E-4,-6.7188498E-3,-8.0738845E-4,-7.3385932E-3,-2.0655547E-3,2.206101E-3],"split_indices":[33,59,18,25,6,16,3,6,32,0,0,16,39,26,33,0,0,0,0,0,0,0,0,0,0,0,0],"split_type":[0,0,0,0,0,0,0,0,0,0,0,0,0,0,0,0,0,0,0,0,0,0,0,0,0,0,0],"sum_hessian":[8.413262E2,3.0580176E2,5.355244E2,2.6507898E2,4.0722767E1,3.6506226E2,1.7046216E2,6.3455894E1,2.016231E2,1.5486505E1,2.5236263E1,2.8159982E2,8.3462425E1,9.848472E1,7.197743E1,2.3980642E1,3.947525E1,7.921907E1,1.2240402E2,8.746001E1,1.9413982E2,6.321858E1,2.024385E1,2.9744183E1,6.874054E1,3.0739946E1,4.1237488E1],"tree_param":{"num_deleted":"0","num_feature":"61","num_nodes":"27","size_leaf_vector":"1"}},{"base_weights":[5.6179937E-2,-1.0351738E-1,1.2795605E-1,-3.711889E-1,-9.837454E-3,1.9287024E-1,-2.3727286E-1,-7.583348E-1,2.0048015E-3,-1.10530786E-1,4.009373E-1,3.016874E-1,8.1521705E-2,1.7863376E-3,-4.4771412E-1,-1.0119943E-2,-3.6970596E-3,-1.798532E-3,3.147879E-3,7.076521E-3,3.7007463E-5,-5.6889147E-4,3.665142E-3,3.3208562E-4,4.713456E-3,-6.8023615E-3,-8.384948E-4],"categories":[],"categories_nodes":[],"categories_segments":[],"categories_sizes":[],"default_left":[0,0,0,0,0,0,0,0,0,0,0,0,0,0,0,0,0,0,0,0,0,0,0,0,0,0,0],"id":13,"left_children":[1,3,5,7,9,11,13,15,-1,17,19,21,23,-1,25,-1,-1,-1,-1,-1,-1,-1,-1,-1,-1,-1,-1],"loss_changes":[9.686834E0,6.3217125E0,1.3947074E1,1.53368225E1,8.142976E0,5.7709923E0,8.09654E0,2.1777496E0,0E0,4.86934E0,4.3256636E0,5.9956284E0,4.458376E0,0E0,4.543456E0,0E0,0E0,0E0,0E0,0E0,0E0,0E0,0E0,0E0,0E0,0E0,0E0],"parents":[2147483647,0,0,1,1,2,2,3,3,4,4,5,5,6,6,7,7,9,9,10,10,11,11,12,12,14,14],"right_children":[2,4,6,8,10,12,14,16,-1,18,20,22,24,-1,26,-1,-1,-1,-1,-1,-1,-1,-1,-1,-1,-1,-1],"split_conditions":[-2.0840639E-1,3.3333334E-1,5.984979E-1,4.441245E-3,1.3330227E0,-8.101476E-3,2.044704E0,5.3676342E1,2.0048015E-3,9.456978E-1,-1.5777213E1,6.507059E-1,7.9577845E-1,1.7863376E-3,6.518835E-1,-1.0119943E-2,-3.6970596E-3,-1.798532E-3,3.147879E-3,7.076521E-3,3.7007463E-5,-5.6889147E-4,3.665142E-3,3.3208562E-4,4.713456E-3,-6.8023615E-3,-8.384948E-4],"split_indices":[44,30,41,5,19,42,46,20,0,17,21,19,49,0,41,0,0,0,0,0,0,0,0,0,0,0,0],"split_type":[0,0,0,0,0,0,0,0,0,0,0,0,0,0,0,0,0,0,0,0,0,0,0,0,0,0,0],"sum_hessian":[8.3755994E2,2.5714212E2,5.804178E2,6.2976162E1,1.9416594E2,4.951897E2,8.522811E1,3.7485363E1,2.54908E1,1.5867891E2,3.5487034E1,2.4557701E2,2.4961269E2,2.7989134E1,5.7238976E1,1.8991154E1,1.849421E1,1.3894014E2,1.9738777E1,1.7992008E1,1.7495024E1,3.647535E1,2.0910167E2,2.2612581E2,2.3486885E1,3.2492554E1,2.4746422E1],"tree_param":{"num_deleted":"0","num_feature":"61","num_nodes":"27","size_leaf_vector":"1"}},{"base_weights":[-2.1033895E-3,1.1069086E-1,-1.3502909E-1,2.006931E-1,-1.09446E-1,2.9173655E-2,-2.6240262E-1,2.3590766E-1,-3.2418557E-3,-2.4880163E-1,2.1348669E-1,4.3538368E-1,-8.844832E-2,-4.3441445E-1,8.204135E-2,1.8765448E-3,6.69261E-3,-4.535183E-3,2.200274E-3,4.5267185E-3,-1.1411054E-3,7.267249E-4,6.3183233E-3,-5.449624E-3,9.102086E-5,-0E0,-5.5388156E-3,2.4698074E-3,-3.607252E-3],"categories":[],"categories_nodes":[],"categories_segments":[],"categories_sizes":[],"default_left":[0,0,0,0,0,0,0,0,0,0,0,0,0,0,0,0,0,0,0,0,0,0,0,0,0,0,0,0,0],"id":14,"left_children":[1,3,5,7,9,11,13,15,-1,17,19,21,23,25,27,-1,-1,-1,-1,-1,-1,-1,-1,-1,-1,-1,-1,-1,-1],"loss_changes":[1.2614584E1,9.080727E0,8.251516E0,6.173827E0,6.103911E0,8.431321E0,1.3343553E1,5.598757E0,0E0,9.482832E0,3.4768486E0,2.3406677E0,6.2364106E0,7.4846077E0,5.6857247E0,0E0,0E0,0E0,0E0,0E0,0E0,0E0,0E0,0E0,0E0,0E0,0E0,0E0,0E0],"parents":[2147483647,0,0,1,1,2,2,3,3,4,4,5,5,6,6,7,7,9,9,10,10,11,11,12,12,13,13,14,14],"right_children":[2,4,6,8,10,12,14,16,-1,18,20,22,24,26,28,-1,-1,-1,-1,-1,-1,-1,-1,-1,-1,-1,-1,-1,-1],"split_conditions":[1.5845748E-3,3.9657143E-1,1.9137569E-1,1.9106909E0,4.4290113E-1,2.1125262E-3,3.611194E-3,6.5602628E-3,-3.2418557E-3,5.711963E-1,1.0685818E-1,2.0485725E1,1.784101E1,1.7245378E1,2.017535E-2,1.8765448E-3,6.69261E-3,-4.535183E-3,2.200274E-3,4.5267185E-3,-1.1411054E-3,7.267249E-4,6.3183233E-3,-5.449624E-3,9.102086E-5,-0E0,-5.5388156E-3,2.4698074E-3,-3.607252E-3],"split_indices":[10,33,33,17,49,3,3,7,0,26,44,25,25,25,2,0,0,0,0,0,0,0,0,0,0,0,0,0,0],"split_type":[0,0,0,0,0,0,0,0,0,0,0,0,0,0,0,0,0,0,0,0,0,0,0,0,0,0,0,0,0],"sum_hessian":[8.345484E2,4.4969745E2,3.8485092E2,3.209957E2,1.2870175E2,1.6741562E2,2.174353E2,3.0325433E2,1.7741348E1,9.146758E1,3.723417E1,3.6726414E1,1.3068921E2,1.4546138E2,7.197393E1,2.777772E2,2.5477142E1,6.447757E1,2.6990011E1,2.17413E1,1.54928665E1,1.5241112E1,2.1485302E1,2.1489466E1,1.0919974E2,3.2739777E1,1.127216E2,5.4228535E1,1.774539E1],"tree_param":{"num_deleted":"0","num_feature":"61","num_nodes":"29","size_leaf_vector":"1"}},{"base_weights":[-2.1641583E-3,2.0082042E-2,-4.31343E-1,-5.4438166E-2,1.6644818E-1,-2.7723709E-6,-7.921883E-3,5.577652E-2,-2.0558845E-1,2.554908E-1,-3.4218034E-1,1.962958E-3,-1.4663414E-3,-2.8445444E-3,4.1313116E-3,1.9574056E-3,8.031975E-3,-0E0,-5.8768294E-3],"categories":[],"categories_nodes":[],"categories_segments":[],"categories_sizes":[],"default_left":[0,0,0,0,0,0,0,0,0,0,0,0,0,0,0,0,0,0,0],"id":15,"left_children":[1,3,5,7,9,-1,-1,11,13,15,17,-1,-1,-1,-1,-1,-1,-1,-1],"loss_changes":[8.223287E0,8.782194E0,6.2123575E0,8.9131565E0,1.2540864E1,0E0,0E0,8.816596E0,1.1287066E1,6.689624E0,3.6593819E0,0E0,0E0,0E0,0E0,0E0,0E0,0E0,0E0],"parents":[2147483647,0,0,1,1,2,2,3,3,4,4,7,7,8,8,9,9,10,10],"right_children":[2,4,6,8,10,-1,-1,12,14,16,18,-1,-1,-1,-1,-1,-1,-1,-1],"split_conditions":[2.5136998E2,3.7765054E-3,9.571974E-1,7.933105E-4,8.664562E-1,-2.7723709E-6,-7.921883E-3,7.6406014E-1,1.135159E0,8.6717343E-1,5.9605404E-3,1.962958E-3,-1.4663414E-3,-2.8445444E-3,4.1313116E-3,1.9574056E-3,8.031975E-3,-0E0,-5.8768294E-3],"split_indices":[21,3,23,0,40,0,0,13,13,44,1,0,0,0,0,0,0,0,0],"split_type":[0,0,0,0,0,0,0,0,0,0,0,0,0,0,0,0,0,0,0],"sum_hessian":[8.3403455E2,7.9454443E2,3.9490074E1,5.2547473E2,2.6906973E2,1.999363E1,1.9496447E1,3.0306958E2,2.2240514E2,2.3109023E2,3.7979523E1,1.8039503E2,1.2267454E2,1.9941525E2,2.2989876E1,2.128546E2,1.8235624E1,1.649119E1,2.1488335E1],"tree_param":{"num_deleted":"0","num_feature":"61","num_nodes":"19","size_leaf_vector":"1"}},{"base_weights":[-3.6926158E-2,2.8805712E-2,-1.6779347E-1,5.2220738E-3,1.1110703E-3,-4.9154317E-1,-6.0728077E-2,-4.0764496E-2,2.750847E-1,-0E0,-6.589461E-1,1.0647244E-1,-3.4169257E-1,1.3599526E-3,-9.890645E-4,4.1947374E-3,-1.6373089E-3,-8.633885E-3,-1.9261123E-3,-8.571522E-5,7.5870827E-3,1.5670998E-4,-6.243633E-3],"categories":[],"categories_nodes":[],"categories_segments":[],"categories_sizes":[],"default_left":[0,0,0,0,0,0,0,0,0,0,0,0,0,0,0,0,0,0,0,0,0,0,0],"id":16,"left_children":[1,3,5,-1,7,9,11,13,15,-1,17,19,21,-1,-1,-1,-1,-1,-1,-1,-1,-1,-1],"loss_changes":[7.1832914E0,7.24362E0,9.3021755E0,0E0,6.164225E0,5.5577545E0,1.0288517E1,4.7049465E0,4.8617578E0,0E0,3.7866516E0,1.0558004E1,8.590299E0,0E0,0E0,0E0,0E0,0E0,0E0,0E0,0E0,0E0,0E0],"parents":[2147483647,0,0,1,1,2,2,4,4,5,5,6,6,7,7,8,8,10,10,11,11,12,12],"right_children":[2,4,6,-1,8,10,12,14,16,-1,18,20,22,-1,-1,-1,-1,-1,-1,-1,-1,-1,-1],"split_conditions":[3.4556992E-3,5.1632854E-3,4.696767E-3,5.2220738E-3,5.8823E-3,1.67437E0,5.968083E-1,3.9870925E-3,1.3705329E0,-0E0,1.8640343E-2,1.9371575E0,8.806437E-1,1.3599526E-3,-9.890645E-4,4.1947374E-3,-1.6373089E-3,-8.633885E-3,-1.9261123E-3,-8.571522E-5,7.5870827E-3,1.5670998E-4,-6.243633E-3],"split_indices":[18,26,2,0,4,46,41,14,16,0,4,16,16,0,0,0,0,0,0,0,0,0,0],"split_type":[0,0,0,0,0,0,0,0,0,0,0,0,0,0,0,0,0,0,0,0,0,0,0],"sum_hessian":[8.22293E2,5.46378E2,2.7591507E2,2.5231813E1,5.211462E2,6.4731995E1,2.1118309E2,4.5268417E2,6.846198E1,1.7243053E1,4.748894E1,1.324477E2,7.873539E1,1.0892378E2,3.437604E2,5.2469078E1,1.5992906E1,3.0493862E1,1.6995077E1,1.1445385E2,1.7993845E1,3.5243717E1,4.349167E1],"tree_param":{"num_deleted":"0","num_feature":"61","num_nodes":"23","size_leaf_vector":"1"}},{"base_weights":[3.6809336E-2,1.945855E-1,-3.875618E-2,-4.277676E-3,2.611035E-1,6.6185825E-2,-2.710139E-1,4.1740444E-1,7.721762E-2,4.089719E-1,2.2132229E-2,6.219956E-2,-3.8474146E-1,3.215876E-4,5.3432346E-3,-1.5699604E-3,2.9715453E-3,7.191326E-3,1.2135864E-3,-4.1247946E-3,5.8776507E-4,-2.6001655E-3,3.684258E-3,-7.6470147E-3,-1.9687063E-3],"categories":[],"categories_nodes":[],"categories_segments":[],"categories_sizes":[],"default_left":[0,0,0,0,0,0,0,0,0,0,0,0,0,0,0,0,0,0,0,0,0,0,0,0,0],"id":17,"left_children":[1,3,5,-1,7,9,11,13,15,17,19,21,23,-1,-1,-1,-1,-1,-1,-1,-1,-1,-1,-1,-1],"loss_changes":[9.945832E0,1.143167E1,1.3774161E1,0E0,6.7428837E0,5.582693E0,6.900914E0,5.571764E0,6.3111567E0,3.1062493E0,5.4110126E0,4.903795E0,8.541353E0,0E0,0E0,0E0,0E0,0E0,0E0,0E0,0E0,0E0,0E0,0E0,0E0],"parents":[2147483647,0,0,1,1,2,2,4,4,5,5,6,6,7,7,8,8,9,9,10,10,11,11,12,12],"right_children":[2,4,6,-1,8,10,12,14,16,18,20,22,24,-1,-1,-1,-1,-1,-1,-1,-1,-1,-1,-1,-1],"split_conditions":[-1.164661E-1,-3.6850163E-1,2.2326617E0,-4.277676E-3,2.1051136E-1,4.2339325E-2,-5.003881E-3,-1.17987525E-2,1.06615815E-2,8.193815E-1,2.7944243E-1,1.5973777E-2,1.3472924E-3,3.215876E-4,5.3432346E-3,-1.5699604E-3,2.9715453E-3,7.191326E-3,1.2135864E-3,-4.1247946E-3,5.8776507E-4,-2.6001655E-3,3.684258E-3,-7.6470147E-3,-1.9687063E-3],"split_indices":[42,39,46,0,33,33,43,4,15,17,16,4,43,0,0,0,0,0,0,0,0,0,0,0,0],"split_type":[0,0,0,0,0,0,0,0,0,0,0,0,0,0,0,0,0,0,0,0,0,0,0,0,0],"sum_hessian":[8.227785E2,2.6706168E2,5.557168E2,2.3488663E1,2.4357301E2,3.8276346E2,1.7295335E2,1.2813278E2,1.1544024E2,3.9466873E1,3.432966E2,4.3236458E1,1.2971689E2,3.1719452E1,9.641332E1,5.5220432E1,6.0219803E1,1.5987043E1,2.3479832E1,2.3240768E1,3.2005582E2,2.0493156E1,2.2743301E1,3.8989655E1,9.072724E1],"tree_param":{"num_deleted":"0","num_feature":"61","num_nodes":"25","size_leaf_vector":"1"}},{"base_weights":[-3.3290163E-2,7.672352E-2,-2.1195452E-1,-1.7667101E-1,1.2064167E-1,-1.2414148E-1,-4.9933848E-1,1.8718386E-1,-4.4987106E-1,-0E0,2.7165627E-1,5.33863E-3,-2.9841492E-1,-7.0159435E-1,-6.0398557E-4,-4.2296457E-4,4.164321E-3,-1.6291501E-3,-7.816987E-3,-1.4961445E-3,2.0523018E-3,8.398358E-3,1.8914705E-3,-2.8595298E-3,2.239119E-3,-6.1199646E-3,-1.2358725E-3,-1.0113033E-2,-3.7440609E-3],"categories":[],"categories_nodes":[],"categories_segments":[],"categories_sizes":[],"default_left":[0,0,0,0,0,0,0,0,0,0,0,0,0,0,0,0,0,0,0,0,0,0,0,0,0,0,0,0,0],"id":18,"left_children":[1,3,5,7,9,11,13,15,17,19,21,23,25,27,-1,-1,-1,-1,-1,-1,-1,-1,-1,-1,-1,-1,-1,-1,-1],"loss_changes":[1.6691038E1,5.849141E0,7.6759977E0,8.008144E0,8.237423E0,5.869505E0,6.0152626E0,2.0404408E0,3.4755306E0,7.8033624E0,8.390106E0,9.500668E0,5.4204073E0,3.1607838E0,0E0,0E0,0E0,0E0,0E0,0E0,0E0,0E0,0E0,0E0,0E0,0E0,0E0,0E0,0E0],"parents":[2147483647,0,0,1,1,2,2,3,3,4,4,5,5,6,6,7,7,8,8,9,9,10,10,11,11,12,12,13,13],"right_children":[2,4,6,8,10,12,14,16,18,20,22,24,26,28,-1,-1,-1,-1,-1,-1,-1,-1,-1,-1,-1,-1,-1,-1,-1],"split_conditions":[2.6519306E-3,-1.9240546E2,8.660254E-1,4.0909457E-1,2.5881904E-1,4.5091157E0,-2.1481749E-2,4.412114E-1,2.5881904E-1,-8.2447296E-1,-1.725542E0,5.940204E1,5.591958E0,3.7793901E-3,-6.0398557E-4,-4.2296457E-4,4.164321E-3,-1.6291501E-3,-7.816987E-3,-1.4961445E-3,2.0523018E-3,8.398358E-3,1.8914705E-3,-2.8595298E-3,2.239119E-3,-6.1199646E-3,-1.2358725E-3,-1.0113033E-2,-3.7440609E-3],"split_indices":[18,21,29,41,29,46,40,31,28,46,12,20,46,5,0,0,0,0,0,0,0,0,0,0,0,0,0,0,0],"split_type":[0,0,0,0,0,0,0,0,0,0,0,0,0,0,0,0,0,0,0,0,0,0,0,0,0,0,0,0,0],"sum_hessian":[8.40256E2,5.193662E2,3.208898E2,7.369797E1,4.4566824E2,2.504102E2,7.047959E1,3.1225468E1,4.2472504E1,2.4855846E2,1.9710977E2,1.43691E2,1.0671921E2,4.623914E1,2.4240448E1,1.5737497E1,1.548797E1,2.5982874E1,1.648963E1,1.4488463E2,1.03673836E2,2.073402E1,1.7637575E2,6.022159E1,8.346941E1,3.4491493E1,7.2227715E1,1.9746607E1,2.6492535E1],"tree_param":{"num_deleted":"0","num_feature":"61","num_nodes":"29","size_leaf_vector":"1"}},{"base_weights":[-2.3680506E-2,-1.5469237E-1,1.264962E-1,-2.3672993E-1,2.2849834E-1,1.7704803E-1,-3.966388E-1,-3.183909E-2,-4.5576954E-1,4.5983827E-1,-8.301702E-2,3.4675816E-1,3.577043E-2,-6.223939E-3,-9.086287E-4,2.0759956E-3,-2.0497704E-3,-0E0,-5.165458E-3,2.653405E-4,7.592874E-3,3.509608E-3,-5.1864404E-3,1.7869028E-3,6.814638E-3,-6.0298527E-4,3.7884477E-3],"categories":[],"categories_nodes":[],"categories_segments":[],"categories_sizes":[],"default_left":[0,0,0,0,0,0,0,0,0,0,0,0,0,0,0,0,0,0,0,0,0,0,0,0,0,0,0],"id":19,"left_children":[1,3,5,7,9,11,13,15,17,19,21,23,25,-1,-1,-1,-1,-1,-1,-1,-1,-1,-1,-1,-1,-1,-1],"loss_changes":[1.6461908E1,1.4250115E1,1.0361242E1,1.6387915E1,6.028825E0,8.324812E0,1.8374777E0,8.267646E0,4.7287903E0,5.641633E0,7.337416E0,8.21129E0,6.8073916E0,0E0,0E0,0E0,0E0,0E0,0E0,0E0,0E0,0E0,0E0,0E0,0E0,0E0,0E0],"parents":[2147483647,0,0,1,1,2,2,3,3,4,4,5,5,6,6,7,7,8,8,9,9,10,10,11,11,12,12],"right_children":[2,4,6,8,10,12,14,16,18,20,22,24,26,-1,-1,-1,-1,-1,-1,-1,-1,-1,-1,-1,-1,-1,-1],"split_conditions":[7.596459E-3,4.296021E-3,1.962182E-2,1E0,6.2248306E-3,-4.7519717E-2,5.005049E-2,-4.3742154E-3,-1.08857376E2,-2.6785288E-2,5E-1,3.5629408E-3,1.2787607E-2,-6.223939E-3,-9.086287E-4,2.0759956E-3,-2.0497704E-3,-0E0,-5.165458E-3,2.653405E-4,7.592874E-3,3.509608E-3,-5.1864404E-3,1.7869028E-3,6.814638E-3,-6.0298527E-4,3.7884477E-3],"split_indices":[44,3,2,36,37,42,42,6,21,42,29,11,27,0,0,0,0,0,0,0,0,0,0,0,0,0,0],"split_type":[0,0,0,0,0,0,0,0,0,0,0,0,0,0,0,0,0,0,0,0,0,0,0,0,0,0,0],"sum_hessian":[8.299945E2,4.4501202E2,3.8498248E2,3.6855853E2,7.645348E1,3.5374014E2,3.1242317E1,1.9338445E2,1.751741E2,4.39739E1,3.247958E1,1.5710947E2,1.9663069E2,1.5245197E1,1.5997121E1,7.969139E1,1.1369305E2,2.1738203E1,1.534359E2,1.9987484E1,2.3986418E1,1.59877E1,1.649188E1,1.0864856E2,4.8460915E1,1.5440807E2,4.2222614E1],"tree_param":{"num_deleted":"0","num_feature":"61","num_nodes":"27","size_leaf_vector":"1"}},{"base_weights":[-8.141977E-3,-9.2500955E-2,1.6261345E-1,-1.6228376E-1,8.9561924E-2,-1.9938692E-1,2.882112E-1,-5.6138527E-2,-3.538995E-1,1.8945217E-1,-3.8098823E-3,9.771802E-2,-6.2815994E-3,-2.8400405E-3,3.5893136E-1,-1.8196293E-3,2.0326911E-3,-6.5254546E-3,-1.9518757E-3,8.397448E-4,7.1989563E-3,3.9562625E-3,-3.6000719E-3,4.7380175E-3,5.435612E-4],"categories":[],"categories_nodes":[],"categories_segments":[],"categories_sizes":[],"default_left":[0,0,0,0,0,0,0,0,0,0,0,0,0,0,0,0,0,0,0,0,0,0,0,0,0],"id":20,"left_children":[1,3,5,7,9,11,13,15,17,19,-1,21,-1,-1,23,-1,-1,-1,-1,-1,-1,-1,-1,-1,-1],"loss_changes":[1.1962268E1,7.1850433E0,1.2651827E1,8.020216E0,7.401846E0,9.519184E0,8.651264E0,8.8273535E0,5.9702053E0,6.7271266E0,0E0,6.439897E0,0E0,0E0,6.1249847E0,0E0,0E0,0E0,0E0,0E0,0E0,0E0,0E0,0E0,0E0],"parents":[2147483647,0,0,1,1,2,2,3,3,4,4,5,5,6,6,7,7,8,8,9,9,11,11,14,14],"right_children":[2,4,6,8,10,12,14,16,18,20,-1,22,-1,-1,24,-1,-1,-1,-1,-1,-1,-1,-1,-1,-1],"split_conditions":[3.3964032E-1,1.1647074E0,5.047565E-1,2.3945933E-3,6.78621E1,6.437785E-4,2.1976137E-3,2.9493662E-2,6.120688E-1,9.538921E1,-3.8098823E-3,1.3131022E0,-6.2815994E-3,-2.8400405E-3,5.7060516E-1,-1.8196293E-3,2.0326911E-3,-6.5254546E-3,-1.9518757E-3,8.397448E-4,7.1989563E-3,3.9562625E-3,-3.6000719E-3,4.7380175E-3,5.435612E-4],"split_indices":[32,13,16,0,20,0,7,44,23,21,0,46,0,0,32,0,0,0,0,0,0,0,0,0,0],"split_type":[0,0,0,0,0,0,0,0,0,0,0,0,0,0,0,0,0,0,0,0,0,0,0,0,0],"sum_hessian":[8.267399E2,5.56241E2,2.704989E2,4.0433557E2,1.5190541E2,6.819691E1,2.02302E2,2.643742E2,1.3996136E2,1.2765999E2,2.4245434E1,4.0963028E1,2.723388E1,2.0479471E1,1.8182253E2,1.7992538E2,8.444882E1,4.423678E1,9.5724594E1,1.1017036E2,1.748963E1,2.572161E1,1.5241419E1,1.2962576E2,5.219677E1],"tree_param":{"num_deleted":"0","num_feature":"61","num_nodes":"25","size_leaf_vector":"1"}},{"base_weights":[-1.1168584E-2,1.19519696E-1,-1.6626813E-1,2.0847973E-1,-1.09228045E-1,-7.322967E-2,-4.8662147E-1,3.080472E-1,-0E0,-4.2924598E-1,2.1276694E-2,1.1102236E-1,-2.0549493E-1,-6.7878574E-1,-7.619743E-4,3.8141317E-3,-1.0570872E-3,-1.6992993E-3,4.2625396E-3,-7.950263E-3,2.0240789E-4,-1.5941812E-3,2.7726383E-3,2.4648287E-5,7.035641E-3,1.5561423E-3,-2.9480534E-3,-9.544187E-3,-2.6447698E-3],"categories":[],"categories_nodes":[],"categories_segments":[],"categories_sizes":[],"default_left":[0,0,0,0,0,0,0,0,0,0,0,0,0,0,0,0,0,0,0,0,0,0,0,0,0,0,0,0,0],"id":21,"left_children":[1,3,5,7,9,11,13,15,17,19,21,23,25,27,-1,-1,-1,-1,-1,-1,-1,-1,-1,-1,-1,-1,-1,-1,-1],"loss_changes":[1.6830372E1,9.242548E0,1.0963901E1,6.8997746E0,5.49148E0,7.423347E0,6.0899067E0,6.9909477E0,7.8239584E0,6.6398954E0,4.410633E0,7.7256956E0,5.9216895E0,5.026335E0,0E0,0E0,0E0,0E0,0E0,0E0,0E0,0E0,0E0,0E0,0E0,0E0,0E0,0E0,0E0],"parents":[2147483647,0,0,1,1,2,2,3,3,4,4,5,5,6,6,7,7,8,8,9,9,10,10,11,11,12,12,13,13],"right_children":[2,4,6,8,10,12,14,16,18,20,22,24,26,28,-1,-1,-1,-1,-1,-1,-1,-1,-1,-1,-1,-1,-1,-1,-1],"split_conditions":[1.976743E-3,3.9657143E-1,8.660254E-1,8.827153E-4,4.7591135E-1,1.8947369E-1,1.1540409E0,1.6316495E0,3.905666E-3,3.6490855E-3,5.9555165E-5,4.7203884E-1,1.784101E1,2.4015326E1,-7.619743E-4,3.8141317E-3,-1.0570872E-3,-1.6992993E-3,4.2625396E-3,-7.950263E-3,2.0240789E-4,-1.5941812E-3,2.7726383E-3,2.4648287E-5,7.035641E-3,1.5561423E-3,-2.9480534E-3,-9.544187E-3,-2.6447698E-3],"split_indices":[10,33,29,0,33,33,13,17,1,5,27,49,25,25,0,0,0,0,0,0,0,0,0,0,0,0,0,0,0],"split_type":[0,0,0,0,0,0,0,0,0,0,0,0,0,0,0,0,0,0,0,0,0,0,0,0,0,0,0,0,0],"sum_hessian":[8.2322754E2,4.453967E2,3.7783084E2,3.2244818E2,1.2294852E2,2.968615E2,8.0969315E1,2.187758E2,1.0367239E2,3.4735523E1,8.8213E1,1.22673225E2,1.7418831E2,5.2982555E1,2.7986761E1,1.8705135E2,3.172445E1,7.619763E1,2.7474758E1,1.8492762E1,1.6242762E1,5.1229733E1,3.698326E1,1.0693781E2,1.5735407E1,3.2986835E1,1.4120146E2,2.8742725E1,2.4239832E1],"tree_param":{"num_deleted":"0","num_feature":"61","num_nodes":"29","size_leaf_vector":"1"}},{"base_weights":[-1.7414138E-2,9.285648E-2,-1.7370188E-1,1.24174684E-1,-6.7180125E-3,-2.6795838E-2,-3.7864667E-1,-8.994194E-3,2.87507E-1,-1.5031005E-1,4.2825067E-1,-5.8076155E-1,3.7613835E-2,4.624592E-3,-7.554979E-4,4.93466E-3,1.0569067E-3,-2.870369E-3,8.375707E-4,6.362666E-4,7.7768695E-3,-4.6318665E-4,-7.307873E-3,-3.1344127E-3,2.5309902E-3],"categories":[],"categories_nodes":[],"categories_segments":[],"categories_sizes":[],"default_left":[0,0,0,0,0,0,0,0,0,0,0,0,0,0,0,0,0,0,0,0,0,0,0,0,0],"id":22,"left_children":[1,3,5,7,-1,9,11,13,15,17,19,21,23,-1,-1,-1,-1,-1,-1,-1,-1,-1,-1,-1,-1],"loss_changes":[1.4396591E1,1.1635273E1,1.0195042E1,1.0388369E1,0E0,1.1654705E1,1.236516E1,8.088362E0,7.5295544E0,5.4677496E0,5.0342894E0,7.3057175E0,3.894642E0,0E0,0E0,0E0,0E0,0E0,0E0,0E0,0E0,0E0,0E0,0E0,0E0],"parents":[2147483647,0,0,1,1,2,2,3,3,5,5,6,6,7,7,8,8,9,9,10,10,11,11,12,12],"right_children":[2,4,6,8,-1,10,12,14,16,18,20,22,24,-1,-1,-1,-1,-1,-1,-1,-1,-1,-1,-1,-1],"split_conditions":[2.9338062E-1,2.997787E2,3.607335E-1,2.946926E-1,-6.7180125E-3,-1.1212816E-1,3.7958715E-3,1.7696415E-3,3.5239432E-3,5.399221E-1,5.686419E-3,-5.554583E-3,-9.696993E-3,4.624592E-3,-7.554979E-4,4.93466E-3,1.0569067E-3,-2.870369E-3,8.375707E-4,6.362666E-4,7.7768695E-3,-4.6318665E-4,-7.307873E-3,-3.1344127E-3,2.5309902E-3],"split_indices":[33,21,12,32,0,12,3,3,38,26,14,43,43,0,0,0,0,0,0,0,0,0,0,0,0],"split_type":[0,0,0,0,0,0,0,0,0,0,0,0,0,0,0,0,0,0,0,0,0,0,0,0,0],"sum_hessian":[8.2720917E2,4.838451E2,3.433641E2,4.6784998E2,1.5995092E1,2.0339842E2,1.3996568E2,2.5759775E2,2.1025226E2,1.6242021E2,4.0978218E1,9.422865E1,4.5737022E1,2.8729742E1,2.28868E2,9.4880554E1,1.153717E2,1.0344915E2,5.8971058E1,2.2488947E1,1.848927E1,2.2244644E1,7.198401E1,1.5994948E1,2.9742075E1],"tree_param":{"num_deleted":"0","num_feature":"61","num_nodes":"25","size_leaf_vector":"1"}},{"base_weights":[-1.6704146E-2,1.1501735E-1,-1.3833141E-1,1.526485E-1,-5.101237E-3,-1.0225109E-1,-6.550063E-3,1.0129396E-1,7.0117135E-3,1.9980935E-2,-2.7060443E-1,-1.9589154E-4,2.4834385E-3,-4.818443E-4,4.0948144E-3,-3.937948E-3,3.74343E-4],"categories":[],"categories_nodes":[],"categories_segments":[],"categories_sizes":[],"default_left":[0,0,0,0,0,0,0,0,0,0,0,0,0,0,0,0,0],"id":23,"left_children":[1,3,5,7,-1,9,-1,11,-1,13,15,-1,-1,-1,-1,-1,-1],"loss_changes":[1.3623933E1,9.609119E0,7.6888466E0,1.0262905E1,0E0,8.764794E0,0E0,6.4824643E0,0E0,6.7142453E0,6.984479E0,0E0,0E0,0E0,0E0,0E0,0E0],"parents":[2147483647,0,0,1,1,2,2,3,3,5,5,7,7,9,9,10,10],"right_children":[2,4,6,8,-1,10,-1,12,-1,14,16,-1,-1,-1,-1,-1,-1],"split_conditions":[2.2486487E-1,2.2730533E-2,2.395259E0,6.4685135E-3,-5.101237E-3,2.6725176E-1,-6.550063E-3,9.456279E-1,7.0117135E-3,2.866298E-3,7.0710677E-1,-1.9589154E-4,2.4834385E-3,-4.818443E-4,4.0948144E-3,-3.937948E-3,3.74343E-4],"split_indices":[33,2,16,7,0,12,0,13,0,4,28,0,0,0,0,0,0],"split_type":[0,0,0,0,0,0,0,0,0,0,0,0,0,0,0,0,0],"sum_hessian":[8.4367664E2,4.0313565E2,4.40541E2,3.8313937E2,1.9996277E1,4.1604898E2,2.4492008E1,3.5442267E2,2.8716686E1,2.4085298E2,1.75196E2,1.940791E2,1.6034357E2,2.0612485E2,3.4728138E1,1.25710175E2,4.9485825E1],"tree_param":{"num_deleted":"0","num_feature":"61","num_nodes":"17","size_leaf_vector":"1"}},{"base_weights":[-1.1717068E-2,6.7158125E-2,-1.9726786E-1,1.2934045E-1,-2.9033408E-1,-3.2604668E-1,-0E0,-2.4152845E-1,1.7171787E-1,-5.516251E-1,-3.5903197E-2,-4.9701887E-1,-0E0,1.7469856E-1,-3.1332257E-1,-4.426068E-3,1.1858387E-4,1.2919583E-3,5.925316E-3,-1.5805167E-3,-9.023083E-3,3.8348755E-3,-3.6388503E-3,5.4612744E-4,-6.4369505E-3,-1.9776952E-3,3.768283E-3,-2.2088045E-3,4.0661013E-3,-0E0,-6.198426E-3],"categories":[],"categories_nodes":[],"categories_segments":[],"categories_sizes":[],"default_left":[0,0,0,0,0,0,0,0,0,0,0,0,0,0,0,0,0,0,0,0,0,0,0,0,0,0,0,0,0,0,0],"id":24,"left_children":[1,3,5,7,9,11,13,15,17,19,21,23,25,27,29,-1,-1,-1,-1,-1,-1,-1,-1,-1,-1,-1,-1,-1,-1,-1,-1],"loss_changes":[1.22362385E1,1.296996E1,6.348426E0,7.932625E0,5.3619976E0,8.559589E0,5.73151E0,2.8403907E0,7.476489E0,4.7330465E0,6.9747686E0,8.4683075E0,4.331024E0,6.5294027E0,3.8091218E0,0E0,0E0,0E0,0E0,0E0,0E0,0E0,0E0,0E0,0E0,0E0,0E0,0E0,0E0,0E0,0E0],"parents":[2147483647,0,0,1,1,2,2,3,3,4,4,5,5,6,6,7,7,8,8,9,9,10,10,11,11,12,12,13,13,14,14],"right_children":[2,4,6,8,10,12,14,16,18,20,22,24,26,28,30,-1,-1,-1,-1,-1,-1,-1,-1,-1,-1,-1,-1,-1,-1,-1,-1],"split_conditions":[3.8032055E-1,5.968083E-1,4.1841627E-3,-2.1445517E-1,8.469225E-1,5.839249E-1,5.819335E-3,9.822854E-1,6.4974013E-3,4.323462E-3,1.2616211E-2,-2.8262946E-1,1.155496E0,3.6309117E-3,1.4473684E-1,-4.426068E-3,1.1858387E-4,1.2919583E-3,5.925316E-3,-1.5805167E-3,-9.023083E-3,3.8348755E-3,-3.6388503E-3,5.4612744E-4,-6.4369505E-3,-1.9776952E-3,3.768283E-3,-2.2088045E-3,4.0661013E-3,-0E0,-6.198426E-3],"split_indices":[33,41,7,57,13,33,5,17,7,0,6,44,17,5,32,0,0,0,0,0,0,0,0,0,0,0,0,0,0,0,0],"split_type":[0,0,0,0,0,0,0,0,0,0,0,0,0,0,0,0,0,0,0,0,0,0,0,0,0,0,0,0,0,0,0],"sum_hessian":[8.259132E2,5.7900525E2,2.4690796E2,4.960375E2,8.296773E1,1.4819968E2,9.87083E1,4.821176E1,4.4782574E2,3.8233727E1,4.4734E1,9.67179E1,5.148177E1,6.422416E1,3.448413E1,2.6731565E1,2.1480198E1,4.1136743E2,3.645831E1,2.0737648E1,1.7496078E1,1.8739548E1,2.5994455E1,1.9994629E1,7.6723274E1,3.423862E1,1.7243149E1,2.299225E1,4.1231915E1,1.7991983E1,1.649215E1],"tree_param":{"num_deleted":"0","num_feature":"61","num_nodes":"31","size_leaf_vector":"1"}},{"base_weights":[-7.2472594E-3,6.813951E-2,-1.7137259E-1,9.222693E-2,-5.2072913E-3,-6.2855023E-1,-9.507329E-2,-8.7002136E-2,1.7438605E-1,-8.786749E-3,-3.0520079E-3,-2.8282785E-1,4.3903302E-2,-2.47973E-3,2.7585353E-3,1.3040977E-3,6.4281323E-3,-9.854988E-5,-5.362315E-3,-3.20514E-3,1.4723705E-3],"categories":[],"categories_nodes":[],"categories_segments":[],"categories_sizes":[],"default_left":[0,0,0,0,0,0,0,0,0,0,0,0,0,0,0,0,0,0,0,0,0],"id":25,"left_children":[1,3,5,7,-1,9,11,13,15,-1,-1,17,19,-1,-1,-1,-1,-1,-1,-1,-1],"loss_changes":[1.0472429E1,8.089442E0,8.777485E0,8.276687E0,0E0,1.5746374E0,6.2471275E0,1.040436E1,7.2754784E0,0E0,0E0,6.7123327E0,5.1458483E0,0E0,0E0,0E0,0E0,0E0,0E0,0E0,0E0],"parents":[2147483647,0,0,1,1,2,2,3,3,5,5,6,6,7,7,8,8,11,11,12,12],"right_children":[2,4,6,8,-1,10,12,14,16,-1,-1,18,20,-1,-1,-1,-1,-1,-1,-1,-1],"split_conditions":[3.9912676E-3,2.107284E0,1.71457E1,-5E-1,-5.2072913E-3,7.675446E-1,3.713044E-3,3.3818881E-3,2.9601667E-3,-8.786749E-3,-3.0520079E-3,1.5727226E0,4.8420462E-1,-2.47973E-3,2.7585353E-3,1.3040977E-3,6.4281323E-3,-9.854988E-5,-5.362315E-3,-3.20514E-3,1.4723705E-3],"split_indices":[18,17,21,29,0,26,5,1,9,0,0,12,16,0,0,0,0,0,0,0,0],"split_type":[0,0,0,0,0,0,0,0,0,0,0,0,0,0,0,0,0,0,0,0,0],"sum_hessian":[8.3639886E2,5.7225586E2,2.6414304E2,5.530143E2,1.9241581E1,3.3735622E1,2.3040741E2,1.7185411E2,3.8116016E2,1.5244658E1,1.8490963E1,9.821433E1,1.3219308E2,1.2065614E2,5.119797E1,3.529295E2,2.8230669E1,4.9731785E1,4.8482544E1,2.6741714E1,1.0545136E2],"tree_param":{"num_deleted":"0","num_feature":"61","num_nodes":"21","size_leaf_vector":"1"}},{"base_weights":[-1.3929884E-2,6.564574E-2,-2.041154E-1,-1.4511542E-1,1.1995228E-1,-2.8342283E-1,7.249133E-2,5.601081E-2,-5.953319E-1,2.1539482E-1,-4.949239E-2,-1.9114873E-1,-9.504699E-3,3.7412408E-1,-4.5356806E-3,4.4290842E-3,-1.1971918E-3,-8.947613E-4,-9.187681E-3,3.9018097E-3,5.852302E-4,-4.1155005E-3,1.4088367E-3,-2.8494895E-3,2.5755528E-3,-5.645494E-4,7.545361E-3],"categories":[],"categories_nodes":[],"categories_segments":[],"categories_sizes":[],"default_left":[0,0,0,0,0,0,0,0,0,0,0,0,0,0,0,0,0,0,0,0,0,0,0,0,0,0,0],"id":26,"left_children":[1,3,5,7,9,11,13,15,17,19,21,23,-1,25,-1,-1,-1,-1,-1,-1,-1,-1,-1,-1,-1,-1,-1],"loss_changes":[1.2695758E1,6.755327E0,5.605467E0,1.120694E1,7.716865E0,1.086716E1,9.390947E0,6.0793867E0,5.463546E0,8.018933E0,1.2021463E1,7.617839E0,0E0,6.6983795E0,0E0,0E0,0E0,0E0,0E0,0E0,0E0,0E0,0E0,0E0,0E0,0E0,0E0],"parents":[2147483647,0,0,1,1,2,2,3,3,4,4,5,5,6,6,7,7,8,8,9,9,10,10,11,11,13,13],"right_children":[2,4,6,8,10,12,14,16,18,20,22,24,-1,26,-1,-1,-1,-1,-1,-1,-1,-1,-1,-1,-1,-1,-1],"split_conditions":[3.8032055E-1,-3.1062102E-1,7.6533104E-3,-3.790319E-1,8.141366E-1,1.889669E-2,1.009194E-2,9.84819E-2,5.038036E-1,-4.4131774E-2,-6.905203E-2,4.3965415E-3,-9.504699E-3,1.7154926E-2,-4.5356806E-3,4.4290842E-3,-1.1971918E-3,-8.947613E-4,-9.187681E-3,3.9018097E-3,5.852302E-4,-4.1155005E-3,1.4088367E-3,-2.8494895E-3,2.5755528E-3,-5.645494E-4,7.545361E-3],"split_indices":[33,44,14,44,12,15,14,33,41,40,40,7,0,15,0,0,0,0,0,0,0,0,0,0,0,0,0],"split_type":[0,0,0,0,0,0,0,0,0,0,0,0,0,0,0,0,0,0,0,0,0,0,0,0,0,0,0],"sum_hessian":[8.286516E2,5.837429E2,2.4490869E2,1.16681984E2,4.670609E2,1.916837E2,5.322498E1,8.170011E1,3.498188E1,3.0013956E2,1.6692137E2,1.7243907E2,1.9244627E1,3.4983185E1,1.8241795E1,2.498211E1,5.6718002E1,1.5740106E1,1.9241774E1,1.3834586E2,1.6179369E2,5.7227333E1,1.0969403E2,1.4445117E2,2.7987904E1,1.6991426E1,1.7991758E1],"tree_param":{"num_deleted":"0","num_feature":"61","num_nodes":"27","size_leaf_vector":"1"}},{"base_weights":[-3.0173697E-2,1.0630923E-1,-1.703417E-1,1.8541907E-1,-1.3703704E-1,-1.02547385E-1,-5.244239E-1,1.3335988E-1,7.8028277E-3,-8.731907E-3,5.3503465E-2,-6.740253E-2,-6.801908E-3,-3.8061422E-4,-6.604306E-1,2.0812755E-3,-2.136659E-3,2.5911795E-3,-4.4802064E-3,-1.6036893E-3,2.2314184E-3,-2.5877424E-3,-8.078291E-3],"categories":[],"categories_nodes":[],"categories_segments":[],"categories_sizes":[],"default_left":[0,0,0,0,0,0,0,0,0,0,0,0,0,0,0,0,0,0,0,0,0,0,0],"id":27,"left_children":[1,3,5,7,9,11,13,15,-1,-1,17,19,-1,-1,21,-1,-1,-1,-1,-1,-1,-1,-1],"loss_changes":[1.6172695E1,8.302857E0,9.554278E0,9.276153E0,1.5236816E1,6.7072024E0,3.8898335E0,7.98353E0,0E0,0E0,9.066961E0,9.241435E0,0E0,0E0,1.7987843E0,0E0,0E0,0E0,0E0,0E0,0E0,0E0,0E0],"parents":[2147483647,0,0,1,1,2,2,3,3,4,4,5,5,6,6,7,7,10,10,11,11,14,14],"right_children":[2,4,6,8,10,12,14,16,-1,-1,18,20,-1,-1,22,-1,-1,-1,-1,-1,-1,-1,-1],"split_conditions":[2.4647519E-1,6.867299E-3,6.1413245E-3,6.3966718E-3,8.628562E-3,4.9871343E-1,2.261603E-3,4.6850364E-3,7.8028277E-3,-8.731907E-3,8.660254E-1,1.6591594E-1,-6.801908E-3,-3.8061422E-4,1.6783319E-3,2.0812755E-3,-2.136659E-3,2.5911795E-3,-4.4802064E-3,-1.6036893E-3,2.2314184E-3,-2.5877424E-3,-8.078291E-3],"split_indices":[33,9,0,7,9,39,9,7,0,0,29,39,0,0,8,0,0,0,0,0,0,0,0],"split_type":[0,0,0,0,0,0,0,0,0,0,0,0,0,0,0,0,0,0,0,0,0,0,0],"sum_hessian":[8.3787305E2,4.2307672E2,4.1479633E2,3.2137064E2,1.01706085E2,3.5257208E2,6.222424E1,2.996592E2,2.1711433E1,1.9241707E1,8.246438E1,3.363251E2,1.6246977E1,1.5240342E1,4.69839E1,2.4871454E2,5.0944664E1,6.0221706E1,2.2242674E1,2.5711896E2,7.920615E1,1.5743192E1,3.1240705E1],"tree_param":{"num_deleted":"0","num_feature":"61","num_nodes":"23","size_leaf_vector":"1"}},{"base_weights":[-1.2511285E-3,1.19502075E-1,-9.943777E-2,1.6936162E-1,-3.1812024E-1,-3.1884223E-2,-4.1922614E-1,1.2529434E-1,6.6076317E-3,-6.909382E-3,4.543351E-4,-1.2534332E-1,1.440468E-1,-5.8717674E-1,1.8189263E-3,-3.6526416E-4,2.4540462E-3,2.8259621E-4,-3.4614482E-3,-3.2955682E-4,6.08119E-3,9.411444E-5,-7.950503E-3],"categories":[],"categories_nodes":[],"categories_segments":[],"categories_sizes":[],"default_left":[0,0,0,0,0,0,0,0,0,0,0,0,0,0,0,0,0,0,0,0,0,0,0],"id":28,"left_children":[1,3,5,7,9,11,13,15,-1,-1,-1,17,19,21,-1,-1,-1,-1,-1,-1,-1,-1,-1],"loss_changes":[9.926837E0,8.238863E0,9.769035E0,6.6857595E0,5.598236E0,6.4250107E0,8.546582E0,6.2567425E0,0E0,0E0,0E0,8.900375E0,1.1367861E1,8.287468E0,0E0,0E0,0E0,0E0,0E0,0E0,0E0,0E0,0E0],"parents":[2147483647,0,0,1,1,2,2,3,3,4,4,5,5,6,6,7,7,11,11,12,12,13,13],"right_children":[2,4,6,8,10,12,14,16,-1,-1,-1,18,20,22,-1,-1,-1,-1,-1,-1,-1,-1,-1],"split_conditions":[2.0871505E-1,3.7176397E-2,8.394449E-1,6.639718E-3,1.1976639E0,2.9356773E-3,1.3313215E0,8.721815E-1,6.6076317E-3,-6.909382E-3,4.543351E-4,3.2958032E-3,3.7397894E-3,1.9442255E1,1.8189263E-3,-3.6526416E-4,2.4540462E-3,2.8259621E-4,-3.4614482E-3,-3.2955682E-4,6.08119E-3,9.411444E-5,-7.950503E-3],"split_indices":[33,6,22,7,19,1,13,19,0,0,0,5,4,25,0,0,0,0,0,0,0,0,0],"split_type":[0,0,0,0,0,0,0,0,0,0,0,0,0,0,0,0,0,0,0,0,0,0,0],"sum_hessian":[8.320983E2,3.7059036E2,4.6150797E2,3.3536304E2,3.522733E1,3.8503424E2,7.647374E1,3.1215265E2,2.3210398E1,1.6737299E1,1.849003E1,2.5387431E2,1.3115993E2,6.0477802E1,1.5995937E1,1.3210143E2,1.8005122E2,1.4992732E2,1.0394699E2,9.6183846E1,3.4976086E1,1.574609E1,4.4731712E1],"tree_param":{"num_deleted":"0","num_feature":"61","num_nodes":"23","size_leaf_vector":"1"}},{"base_weights":[2.1829445E-2,1.5724814E-1,-8.515214E-2,4.731997E-1,8.5768275E-2,-1.246019E-1,2.976287E-1,9.683669E-2,8.370118E-3,1.8795434E-2,5.434167E-1,-1.9096929E-1,9.687385E-2,5.099064E-3,-4.480339E-4,-1.2553051E-3,3.5358928E-3,1.5636687E-3,-2.2538367E-3,7.917661E-3,1.3734121E-3,2.2134501E-3,-2.5057762E-3,-3.041481E-3,2.3687652E-3],"categories":[],"categories_nodes":[],"categories_segments":[],"categories_sizes":[],"default_left":[0,0,0,0,0,0,0,0,0,0,0,0,0,0,0,0,0,0,0,0,0,0,0,0,0],"id":29,"left_children":[1,3,5,7,9,11,13,15,-1,17,19,21,23,-1,-1,-1,-1,-1,-1,-1,-1,-1,-1,-1,-1],"loss_changes":[1.2228536E1,8.030017E0,7.099367E0,8.4533415E0,9.171464E0,6.3939943E0,3.4612331E0,2.3574722E0,0E0,9.274287E0,3.0856056E0,8.342741E0,5.7375274E0,0E0,0E0,0E0,0E0,0E0,0E0,0E0,0E0,0E0,0E0,0E0,0E0],"parents":[2147483647,0,0,1,1,2,2,3,3,4,4,5,5,6,6,7,7,9,9,10,10,11,11,12,12],"right_children":[2,4,6,8,10,12,14,16,-1,18,20,22,24,-1,-1,-1,-1,-1,-1,-1,-1,-1,-1,-1,-1],"split_conditions":[2.1051136E-1,2.6300838E-3,1.4759591E0,6.526177E-2,6.2743076E-3,1.2494442E-1,6.3325566E-1,1.0392988E-4,8.370118E-3,4.6635795E-1,2.8953366E-3,4.2240754E-2,-2.8882354E-1,5.099064E-3,-4.480339E-4,-1.2553051E-3,3.5358928E-3,1.5636687E-3,-2.2538367E-3,7.917661E-3,1.3734121E-3,2.2134501E-3,-2.5057762E-3,-3.041481E-3,2.3687652E-3],"split_indices":[33,7,13,44,7,51,23,8,0,24,0,26,44,0,0,0,0,0,0,0,0,0,0,0,0],"split_type":[0,0,0,0,0,0,0,0,0,0,0,0,0,0,0,0,0,0,0,0,0,0,0,0,0],"sum_hessian":[8.358252E2,3.703259E2,4.6549927E2,6.392276E1,3.0640314E2,4.2502542E2,4.0473846E1,3.396199E1,2.9960768E1,2.7096548E2,3.5437675E1,3.290832E2,9.594223E1,2.4980846E1,1.5493001E1,1.7977749E1,1.5984241E1,1.7531749E2,9.564799E1,1.9457235E1,1.5980439E1,3.9478695E1,2.896045E2,2.2992912E1,7.294932E1],"tree_param":{"num_deleted":"0","num_feature":"61","num_nodes":"25","size_leaf_vector":"1"}},{"base_weights":[1.5665913E-2,8.444933E-2,-1.8491739E-1,1.3751657E-1,-1.7396642E-1,-3.7744623E-1,6.428317E-2,1.1048486E-1,6.6051134E-3,1.545412E-1,-3.64894E-1,-1.9064054E-1,-9.328531E-3,3.8048148E-1,-2.1669193E-1,1.9456432E-3,-6.996714E-4,-1.9058625E-3,5.957161E-3,-5.917891E-3,1.382302E-3,-3.2796618E-3,2.2709602E-3,5.9292284E-3,8.947019E-4,1.7410058E-4,-5.8304933E-3],"categories":[],"categories_nodes":[],"categories_segments":[],"categories_sizes":[],"default_left":[0,0,0,0,0,0,0,0,0,0,0,0,0,0,0,0,0,0,0,0,0,0,0,0,0,0,0],"id":30,"left_children":[1,3,5,7,9,11,13,15,-1,17,19,21,-1,23,25,-1,-1,-1,-1,-1,-1,-1,-1,-1,-1,-1,-1],"loss_changes":[1.1665918E1,8.74424E0,1.0547617E1,6.874961E0,7.028713E0,1.1655426E1,8.784171E0,7.8039823E0,0E0,6.744444E0,8.458685E0,5.804392E0,0E0,2.386931E0,4.7270703E0,0E0,0E0,0E0,0E0,0E0,0E0,0E0,0E0,0E0,0E0,0E0,0E0],"parents":[2147483647,0,0,1,1,2,2,3,3,4,4,5,5,6,6,7,7,9,9,10,10,11,11,13,13,14,14],"right_children":[2,4,6,8,10,12,14,16,-1,18,20,22,-1,24,26,-1,-1,-1,-1,-1,-1,-1,-1,-1,-1,-1,-1],"split_conditions":[4.9643472E-1,6.760445E-3,4.2681117E-3,2.2355486E-2,7.516398E-10,3.8970036E-3,-1.5294002E-2,3.2757153E-3,6.6051134E-3,1.102986E0,3.6312778E-2,3.320112E-3,-9.328531E-3,3.4076993E-3,8.665029E-3,1.9456432E-3,-6.996714E-4,-1.9058625E-3,5.957161E-3,-5.917891E-3,1.382302E-3,-3.2796618E-3,2.2709602E-3,5.9292284E-3,8.947019E-4,1.7410058E-4,-5.8304933E-3],"split_indices":[24,0,7,10,27,18,42,11,0,13,27,3,0,10,14,0,0,0,0,0,0,0,0,0,0,0,0],"split_type":[0,0,0,0,0,0,0,0,0,0,0,0,0,0,0,0,0,0,0,0,0,0,0,0,0,0,0],"sum_hessian":[8.4279755E2,6.307369E2,2.120607E2,5.260481E2,1.0468875E2,1.1989446E2,9.216624E1,5.0455908E2,2.1489037E1,3.7727768E1,6.696099E1,9.340768E1,2.6486784E1,4.3702377E1,4.846386E1,3.459186E2,1.5864046E2,2.148831E1,1.6239456E1,4.6469593E1,2.0491396E1,7.168406E1,2.1723616E1,2.2469143E1,2.1233232E1,3.0479889E1,1.7983969E1],"tree_param":{"num_deleted":"0","num_feature":"61","num_nodes":"27","size_leaf_vector":"1"}},{"base_weights":[-3.8218724E-3,8.073242E-2,-1.4355366E-1,-2.1507052E-1,1.41776E-1,1.3805428E-1,-2.4123676E-1,8.8129304E-2,-4.97505E-1,2.3590408E-1,-5.9461858E-2,5.8449046E-3,-4.752665E-2,-5.2209234E-1,-1.2751687E-1,4.1365544E-3,-1.3994297E-3,-8.758972E-3,-1.5753731E-3,-4.320887E-4,3.320579E-3,2.1246441E-3,-1.8995979E-3,-4.8376294E-3,1.2485132E-3,-8.024658E-3,-2.6020939E-3,-6.012745E-3,-3.696691E-4],"categories":[],"categories_nodes":[],"categories_segments":[],"categories_sizes":[],"default_left":[0,0,0,0,0,0,0,0,0,0,0,0,0,0,0,0,0,0,0,0,0,0,0,0,0,0,0,0,0],"id":31,"left_children":[1,3,5,7,9,11,13,15,17,19,21,-1,23,25,27,-1,-1,-1,-1,-1,-1,-1,-1,-1,-1,-1,-1,-1,-1],"loss_changes":[9.923202E0,9.43459E0,8.894452E0,7.9277763E0,8.347508E0,7.1823025E0,7.089221E0,3.6105406E0,5.1415005E0,8.181257E0,5.0405707E0,0E0,4.8889694E0,3.7226372E0,7.1179295E0,0E0,0E0,0E0,0E0,0E0,0E0,0E0,0E0,0E0,0E0,0E0,0E0,0E0,0E0],"parents":[2147483647,0,0,1,1,2,2,3,3,4,4,5,5,6,6,7,7,8,8,9,9,10,10,12,12,13,13,14,14],"right_children":[2,4,6,8,10,12,14,16,18,20,22,-1,24,26,28,-1,-1,-1,-1,-1,-1,-1,-1,-1,-1,-1,-1,-1,-1],"split_conditions":[2.6519306E-3,-1.500118E-2,8.420796E-2,4.1880345E-1,3.8032055E-1,5.315003E-1,4.1889073E-3,1.6591594E-1,2.940582E1,1.9295013E-1,-7.849676E-3,5.8449046E-3,6.5704733E-1,5.4980606E-1,2.8980789E-3,4.1365544E-3,-1.3994297E-3,-8.758972E-3,-1.5753731E-3,-4.320887E-4,3.320579E-3,2.1246441E-3,-1.8995979E-3,-4.8376294E-3,1.2485132E-3,-8.024658E-3,-2.6020939E-3,-6.012745E-3,-3.696691E-4],"split_indices":[18,2,33,41,33,31,2,39,25,22,10,0,23,16,38,0,0,0,0,0,0,0,0,0,0,0,0,0,0],"split_type":[0,0,0,0,0,0,0,0,0,0,0,0,0,0,0,0,0,0,0,0,0,0,0,0,0,0,0,0,0],"sum_hessian":[8.312858E2,5.164567E2,3.148291E2,8.565107E1,4.3080566E2,7.944393E1,2.353852E2,4.1448616E1,4.4202454E1,2.9485596E2,1.359497E2,2.2224949E1,5.721898E1,6.346786E1,1.7191733E2,1.6973553E1,2.4475065E1,1.7984882E1,2.6217573E1,7.464119E1,2.2021477E2,4.223219E1,9.3717514E1,1.5492796E1,4.1726185E1,2.6739014E1,3.6728848E1,2.3985025E1,1.479323E2],"tree_param":{"num_deleted":"0","num_feature":"61","num_nodes":"29","size_leaf_vector":"1"}},{"base_weights":[7.2908127E-3,1.1010786E-1,-1.3707358E-1,1.4731973E-1,-2.9006994E-1,-2.5667036E-1,1.5792765E-1,3.733156E-2,2.6250863E-1,-2.0389052E-4,-5.725822E-3,-7.08469E-2,-4.375078E-1,3.2194293E-1,-1.9826E-3,2.352648E-3,-5.226396E-4,2.490549E-4,4.391798E-3,-4.1848877E-3,8.7064673E-4,-2.713475E-3,-8.776756E-3,4.908674E-3,-6.5014284E-4],"categories":[],"categories_nodes":[],"categories_segments":[],"categories_sizes":[],"default_left":[0,0,0,0,0,0,0,0,0,0,0,0,0,0,0,0,0,0,0,0,0,0,0,0,0],"id":32,"left_children":[1,3,5,7,9,11,13,15,17,-1,-1,19,21,23,-1,-1,-1,-1,-1,-1,-1,-1,-1,-1,-1],"loss_changes":[1.2370344E1,7.341376E0,1.2345961E1,5.530714E0,2.8291795E0,7.9828377E0,6.1067843E0,4.318377E0,8.862114E0,0E0,0E0,7.257991E0,7.757248E0,4.930702E0,0E0,0E0,0E0,0E0,0E0,0E0,0E0,0E0,0E0,0E0,0E0],"parents":[2147483647,0,0,1,1,2,2,3,3,4,4,5,5,6,6,7,7,8,8,11,11,12,12,13,13],"right_children":[2,4,6,8,10,12,14,16,18,-1,-1,20,22,24,-1,-1,-1,-1,-1,-1,-1,-1,-1,-1,-1],"split_conditions":[2.9338062E-1,1.8481595E-2,7.0398003E-3,7.596459E-3,1.1288619E-1,1.3631234E-3,9.3646515E-3,-1.9681377E-3,8.625829E-1,-2.0389052E-4,-5.725822E-3,9.4915256E-2,1.3338524E0,8.660254E-1,-1.9826E-3,2.352648E-3,-5.226396E-4,2.490549E-4,4.391798E-3,-4.1848877E-3,8.7064673E-4,-2.713475E-3,-8.776756E-3,4.908674E-3,-6.5014284E-4],"split_indices":[33,2,14,44,33,11,14,0,19,0,0,32,12,29,0,0,0,0,0,0,0,0,0,0,0],"split_type":[0,0,0,0,0,0,0,0,0,0,0,0,0,0,0,0,0,0,0,0,0,0,0,0,0],"sum_hessian":[8.2826373E2,4.8617957E2,3.420842E2,4.4769424E2,3.848531E1,2.4488841E2,9.719578E1,2.3326962E2,2.1442462E2,2.2240906E1,1.6244406E1,1.2420208E2,1.2068633E2,6.770948E1,2.9486294E1,7.290716E1,1.6036246E2,9.4110054E1,1.20314575E2,3.8237724E1,8.5964355E1,9.195811E1,2.872823E1,4.7472225E1,2.0237257E1],"tree_param":{"num_deleted":"0","num_feature":"61","num_nodes":"25","size_leaf_vector":"1"}},{"base_weights":[-2.8029395E-2,5.926205E-2,-2.1694116E-1,-3.1258788E-2,2.0642354E-1,-7.47184E-1,-1.3485518E-1,-1.5634583E-1,1.3843781E-1,2.9669613E-1,-2.5522017E-1,-1.0232946E-2,-3.375823E-3,-4.8184106E-1,-1.882E-2,9.403137E-4,-2.7820112E-3,5.3259348E-5,4.674847E-3,-2.6035153E-3,3.674488E-3,-5.9046177E-3,1.1569666E-3,-1.7596935E-3,-7.258902E-3,3.9816424E-4,-5.496501E-3],"categories":[],"categories_nodes":[],"categories_segments":[],"categories_sizes":[],"default_left":[0,0,0,0,0,0,0,0,0,0,0,0,0,0,0,0,0,0,0,0,0,0,0,0,0,0,0],"id":33,"left_children":[1,3,5,7,9,11,13,15,17,19,21,-1,-1,23,25,-1,-1,-1,-1,-1,-1,-1,-1,-1,-1,-1,-1],"loss_changes":[1.3886934E1,7.7220535E0,1.084967E1,7.59759E0,9.424956E0,2.1542797E0,9.189028E0,6.490525E0,6.3391623E0,7.6904716E0,5.00897E0,0E0,0E0,3.4745731E0,5.935706E0,0E0,0E0,0E0,0E0,0E0,0E0,0E0,0E0,0E0,0E0,0E0,0E0],"parents":[2147483647,0,0,1,1,2,2,3,3,4,4,5,5,6,6,7,7,8,8,9,9,10,10,13,13,14,14],"right_children":[2,4,6,8,10,12,14,16,18,20,22,-1,-1,24,26,-1,-1,-1,-1,-1,-1,-1,-1,-1,-1,-1,-1],"split_conditions":[3.9912676E-3,2.9189445E-3,1.71457E1,2.9186913E-1,4.186386E-1,7.970427E-1,1.7699598E-3,-2.7491236E-3,3.9741012E-1,3.06081E-3,-1.7099624E-2,-1.0232946E-2,-3.375823E-3,-8.4292635E-2,2.0746013E-2,9.403137E-4,-2.7820112E-3,5.3259348E-5,4.674847E-3,-2.6035153E-3,3.674488E-3,-5.9046177E-3,1.1569666E-3,-1.7596935E-3,-7.258902E-3,3.9816424E-4,-5.496501E-3],"split_indices":[18,1,21,32,39,26,1,0,31,38,6,0,0,39,18,0,0,0,0,0,0,0,0,0,0,0,0],"split_type":[0,0,0,0,0,0,0,0,0,0,0,0,0,0,0,0,0,0,0,0,0,0,0,0,0,0,0],"sum_hessian":[8.320035E2,5.686545E2,2.63349E2,3.5144284E2,2.1721167E2,3.1228266E1,2.3212073E2,2.0414532E2,1.472975E2,1.834866E2,3.372507E1,1.5239734E1,1.5988532E1,5.472052E1,1.774002E2,6.571071E1,1.3843462E2,1.0812498E2,3.9172527E1,1.8976376E1,1.6451022E2,1.7489788E1,1.6235283E1,2.748496E1,2.7235558E1,1.6140427E2,1.5995941E1],"tree_param":{"num_deleted":"0","num_feature":"61","num_nodes":"27","size_leaf_vector":"1"}},{"base_weights":[-1.2182721E-2,6.9607966E-2,-1.5397647E-1,-0E0,2.3602957E-1,-3.565122E-1,2.2988988E-2,5.789071E-2,-5.4469144E-1,1.1987872E-1,6.427932E-3,-5.658926E-1,7.834966E-2,1.6160502E-1,-2.6699492E-1,1.2623844E-3,-3.4845804E-3,-8.241608E-3,-1.5417923E-3,2.2633867E-3,-3.220342E-3,-3.0254158E-3,-9.996355E-3,4.408644E-3,-3.1810938E-3,-8.3949236E-4,5.118358E-3,-6.177969E-3,2.0489962E-4],"categories":[],"categories_nodes":[],"categories_segments":[],"categories_sizes":[],"default_left":[0,0,0,0,0,0,0,0,0,0,0,0,0,0,0,0,0,0,0,0,0,0,0,0,0,0,0,0,0],"id":34,"left_children":[1,3,5,7,9,11,13,15,17,19,-1,21,23,25,27,-1,-1,-1,-1,-1,-1,-1,-1,-1,-1,-1,-1,-1,-1],"loss_changes":[9.621631E0,5.958218E0,1.1098709E1,1.166165E1,6.585059E0,1.3434177E1,6.665452E0,9.466461E0,3.000063E0,5.9644356E0,0E0,9.628979E0,7.4478316E0,1.0141434E1,5.6793284E0,0E0,0E0,0E0,0E0,0E0,0E0,0E0,0E0,0E0,0E0,0E0,0E0,0E0,0E0],"parents":[2147483647,0,0,1,1,2,2,3,3,4,4,5,5,6,6,7,7,8,8,9,9,11,11,12,12,13,13,14,14],"right_children":[2,4,6,8,10,12,14,16,18,20,-1,22,24,26,28,-1,-1,-1,-1,-1,-1,-1,-1,-1,-1,-1,-1,-1,-1],"split_conditions":[2.9465328E-3,-1.3353041E-1,3.3656633E-3,-9.2055E-4,3.6685767E-3,6.526177E-2,3.1574402E-2,1.6718049E0,-3.165163E-4,4.8624408E-3,6.427932E-3,2.607969E-3,6.2156147E-3,4.2220125E-1,4.227411E-2,1.2623844E-3,-3.4845804E-3,-8.241608E-3,-1.5417923E-3,2.2633867E-3,-3.220342E-3,-3.0254158E-3,-9.996355E-3,4.408644E-3,-3.1810938E-3,-8.3949236E-4,5.118358E-3,-6.177969E-3,2.0489962E-4],"split_indices":[18,12,3,18,3,44,6,17,18,2,0,3,18,26,6,0,0,0,0,0,0,0,0,0,0,0,0,0,0],"split_type":[0,0,0,0,0,0,0,0,0,0,0,0,0,0,0,0,0,0,0,0,0,0,0,0,0,0,0,0,0],"sum_hessian":[8.202263E2,5.18907E2,3.0131934E2,3.695644E2,1.4934256E2,1.4040662E2,1.6091272E2,3.371001E2,3.2464302E1,1.2014785E2,2.9194712E1,9.494005E1,4.546657E1,1.1093617E2,4.9976547E1,2.9138733E2,4.5712784E1,1.6234419E1,1.6229883E1,9.891374E1,2.1234114E1,6.2959126E1,3.1980919E1,2.4233273E1,2.1233301E1,6.571516E1,4.5221016E1,2.1740328E1,2.823622E1],"tree_param":{"num_deleted":"0","num_feature":"61","num_nodes":"29","size_leaf_vector":"1"}},{"base_weights":[-1.8073232E-3,7.785433E-2,-1.9192691E-1,1.8707001E-1,-1.0945241E-1,-9.605698E-2,-4.6961105E-1,2.2991236E-1,-1.963197E-1,-2.4811973E-1,2.1624577E-1,4.993213E-3,-1.680731E-1,-8.641736E-3,-1.432961E-1,1.0091324E-3,3.832895E-3,9.921018E-4,-4.6052677E-3,-3.350238E-3,4.2635393E-3,4.032414E-3,-3.0196789E-3,-2.842645E-3,2.3146379E-3,1.2902056E-3,-4.8566326E-3],"categories":[],"categories_nodes":[],"categories_segments":[],"categories_sizes":[],"default_left":[0,0,0,0,0,0,0,0,0,0,0,0,0,0,0,0,0,0,0,0,0,0,0,0,0,0,0],"id":35,"left_children":[1,3,5,7,9,11,13,15,17,19,21,-1,23,-1,25,-1,-1,-1,-1,-1,-1,-1,-1,-1,-1,-1,-1],"loss_changes":[1.2868362E1,1.225802E1,6.2804565E0,6.364402E0,1.0072504E1,8.325197E0,7.1675596E0,6.423313E0,3.3207603E0,9.5355425E0,6.807192E0,0E0,8.320621E0,0E0,3.9539452E0,0E0,0E0,0E0,0E0,0E0,0E0,0E0,0E0,0E0,0E0,0E0,0E0],"parents":[2147483647,0,0,1,1,2,2,3,3,4,4,5,5,6,6,7,7,8,8,9,9,10,10,12,12,14,14],"right_children":[2,4,6,8,10,12,14,16,18,20,22,-1,24,-1,26,-1,-1,-1,-1,-1,-1,-1,-1,-1,-1,-1,-1],"split_conditions":[3.8684952E-1,1.7554387E0,1.7503016E-2,1.708127E0,1.135159E0,-1.3366828E-2,5.3846273E-3,3.320112E-3,3.636942E-3,6.4974013E-3,2.1374878E-2,4.993213E-3,3.70952E-3,-8.641736E-3,7.8115046E-1,1.0091324E-3,3.832895E-3,9.921018E-4,-4.6052677E-3,-3.350238E-3,4.2635393E-3,4.032414E-3,-3.0196789E-3,-2.842645E-3,2.3146379E-3,1.2902056E-3,-4.8566326E-3],"split_indices":[33,46,15,17,13,10,38,3,38,7,2,0,3,0,16,0,0,0,0,0,0,0,0,0,0,0,0],"split_type":[0,0,0,0,0,0,0,0,0,0,0,0,0,0,0,0,0,0,0,0,0,0,0,0,0,0,0],"sum_hessian":[8.399379E2,5.913141E2,2.4862383E2,3.752088E2,2.1610529E2,1.8915633E2,5.9467503E1,3.3974832E2,3.546047E1,1.5315056E2,6.295473E1,1.774122E1,1.714151E2,2.3986822E1,3.5480682E1,1.8901201E2,1.5073633E2,1.6729105E1,1.8731363E1,1.3766408E2,1.5486477E1,4.7459553E1,1.5495176E1,1.3443605E2,3.6979053E1,1.9989887E1,1.5490795E1],"tree_param":{"num_deleted":"0","num_feature":"61","num_nodes":"27","size_leaf_vector":"1"}},{"base_weights":[-3.1216491E-2,-9.412113E-2,1.4831331E-1,-3.7411027E-2,-3.1838876E-1,2.02151E-1,-3.136155E-3,1.8192896E-1,-1.2356129E-1,6.472642E-3,-4.900744E-1,6.6802173E-4,3.5157785E-1,2.8390134E-5,3.7413884E-3,8.5137854E-4,-1.8620867E-3,-2.7477553E-3,-8.49863E-3,5.4689827E-3,-1.7941253E-3,1.4371776E-3,6.537755E-3],"categories":[],"categories_nodes":[],"categories_segments":[],"categories_sizes":[],"default_left":[0,0,0,0,0,0,0,0,0,0,0,0,0,0,0,0,0,0,0,0,0,0,0],"id":36,"left_children":[1,3,5,7,9,11,-1,13,15,-1,17,19,21,-1,-1,-1,-1,-1,-1,-1,-1,-1,-1],"loss_changes":[9.443575E0,7.699261E0,5.499626E0,9.51989E0,2.133041E1,5.724435E0,0E0,4.664719E0,4.8531995E0,0E0,7.018917E0,9.124118E0,6.2989225E0,0E0,0E0,0E0,0E0,0E0,0E0,0E0,0E0,0E0,0E0],"parents":[2147483647,0,0,1,1,2,2,3,3,4,4,5,5,7,7,8,8,10,10,11,11,12,12],"right_children":[2,4,6,8,10,12,-1,14,16,-1,18,20,22,-1,-1,-1,-1,-1,-1,-1,-1,-1,-1],"split_conditions":[1.1647074E0,8.660254E-1,1.7345268E0,-1.4260234E-1,-2.948389E-2,6.123234E-17,-3.136155E-3,-2.4297856E-1,1.2004663E-1,6.472642E-3,6.6279E-1,-3.3968499E0,1.2246469E-16,2.8390134E-5,3.7413884E-3,8.5137854E-4,-1.8620867E-3,-2.7477553E-3,-8.49863E-3,5.4689827E-3,-1.7941253E-3,1.4371776E-3,6.537755E-3],"split_indices":[13,29,13,42,6,29,0,42,26,0,22,46,28,0,0,0,0,0,0,0,0,0,0],"split_type":[0,0,0,0,0,0,0,0,0,0,0,0,0,0,0,0,0,0,0,0,0,0,0],"sum_hessian":[8.319046E2,6.19169E2,2.1273558E2,4.9877475E2,1.2039425E2,1.9300987E2,1.9725704E1,1.3808049E2,3.6069427E2,1.64799E1,1.03914345E2,8.489686E1,1.08113014E2,7.440235E1,6.367813E1,8.11843E1,2.7950998E2,6.919102E1,3.472333E1,2.0222498E1,6.4674355E1,6.765753E1,4.0455482E1],"tree_param":{"num_deleted":"0","num_feature":"61","num_nodes":"23","size_leaf_vector":"1"}},{"base_weights":[8.10773E-3,-7.627359E-2,1.7560461E-1,-3.299289E-2,-4.9442634E-1,2.9778758E-1,-1.7311937E-1,1.8250778E-1,-1.4948688E-1,-6.916534E-3,-1.1074578E-3,2.2871365E-1,8.869736E-3,1.3085246E-1,-5.714674E-1,6.7113265E-3,1.0691521E-3,-1.3125593E-4,-3.9209905E-3,1.4024978E-3,8.346692E-3,-2.5868472E-3,4.6366407E-3,-7.820343E-3,-2.3949272E-3],"categories":[],"categories_nodes":[],"categories_segments":[],"categories_sizes":[],"default_left":[0,0,0,0,0,0,0,0,0,0,0,0,0,0,0,0,0,0,0,0,0,0,0,0,0],"id":37,"left_children":[1,3,5,7,9,11,13,15,17,-1,-1,19,-1,21,23,-1,-1,-1,-1,-1,-1,-1,-1,-1,-1],"loss_changes":[1.1932406E1,9.773397E0,1.2300545E1,1.2851792E1,3.226387E0,7.4687004E0,9.455708E0,5.9912133E0,1.0823858E1,0E0,0E0,9.599144E0,0E0,6.158602E0,1.2677069E0,0E0,0E0,0E0,0E0,0E0,0E0,0E0,0E0,0E0,0E0],"parents":[2147483647,0,0,1,1,2,2,3,3,4,4,5,5,6,6,7,7,8,8,11,11,13,13,14,14],"right_children":[2,4,6,8,10,12,14,16,18,-1,-1,20,-1,22,24,-1,-1,-1,-1,-1,-1,-1,-1,-1,-1],"split_conditions":[3.3684632E-1,4.186386E-1,5.1086904E-3,-1.9197484E-3,4.2918968E-1,6.1449427E-3,3.8006923E-3,-1.9422188E-2,3.183572E-3,-6.916534E-3,-1.1074578E-3,1.6903602E-2,8.869736E-3,5.2998847E-1,3.6392699E-3,6.7113265E-3,1.0691521E-3,-1.3125593E-4,-3.9209905E-3,1.4024978E-3,8.346692E-3,-2.5868472E-3,4.6366407E-3,-7.820343E-3,-2.3949272E-3],"split_indices":[32,39,8,0,24,7,10,9,11,0,0,10,0,16,11,0,0,0,0,0,0,0,0,0,0],"split_type":[0,0,0,0,0,0,0,0,0,0,0,0,0,0,0,0,0,0,0,0,0,0,0,0,0],"sum_hessian":[8.3490063E2,5.5430334E2,2.8059732E2,5.063285E2,4.7974846E1,2.0917896E2,7.1418365E1,1.7556363E2,3.3076486E2,2.923545E1,1.8739393E1,1.9171606E2,1.7462881E1,4.09384E1,3.0479965E1,1.9468885E1,1.5609474E2,2.1509367E2,1.15671196E2,1.7123662E2,2.047945E1,1.847744E1,2.2460962E1,1.5240119E1,1.5239846E1],"tree_param":{"num_deleted":"0","num_feature":"61","num_nodes":"25","size_leaf_vector":"1"}},{"base_weights":[-1.1871674E-2,-9.6336186E-2,1.4557058E-1,-1.8127666E-1,8.841239E-2,-2.2056755E-2,2.7665445E-1,-3.9980543E-1,-8.954846E-2,1.6352503E-1,-5.0101075E-3,-4.5230943E-1,1.4001341E-1,3.7815833E-1,-2.143098E-3,-1.3631858E-3,-8.217453E-3,4.7911145E-4,-2.3661405E-3,7.8208344E-5,4.2002946E-3,-1.3198247E-3,-6.336006E-3,-3.3234786E-3,2.8969075E-3,-2.657698E-3,4.6973918E-3],"categories":[],"categories_nodes":[],"categories_segments":[],"categories_sizes":[],"default_left":[0,0,0,0,0,0,0,0,0,0,0,0,0,0,0,0,0,0,0,0,0,0,0,0,0,0,0],"id":38,"left_children":[1,3,5,7,9,11,13,15,17,19,-1,21,23,25,-1,-1,-1,-1,-1,-1,-1,-1,-1,-1,-1,-1,-1],"loss_changes":[1.1269207E1,8.796871E0,6.61794E0,7.319803E0,7.816963E0,9.436617E0,8.656959E0,1.1489506E1,5.6886816E0,6.0895944E0,0E0,1.5279913E0,7.064872E0,8.760584E0,0E0,0E0,0E0,0E0,0E0,0E0,0E0,0E0,0E0,0E0,0E0,0E0,0E0],"parents":[2147483647,0,0,1,1,2,2,3,3,4,4,5,5,6,6,7,7,8,8,9,9,11,11,12,12,13,13],"right_children":[2,4,6,8,10,12,14,16,18,20,-1,22,24,26,-1,-1,-1,-1,-1,-1,-1,-1,-1,-1,-1,-1,-1],"split_conditions":[3.3684632E-1,1.126291E0,2.2068802E-1,7.1273394E-2,2.6969124E-2,4.7942474E-1,9.751206E-1,3.0406462E-3,1.9417475E-1,1.2246469E-16,-5.0101075E-3,3.1974644E-3,2.8515926E-3,-2.1302688E-1,-2.143098E-3,-1.3631858E-3,-8.217453E-3,4.7911145E-4,-2.3661405E-3,7.8208344E-5,4.2002946E-3,-1.3198247E-3,-6.336006E-3,-3.3234786E-3,2.8969075E-3,-2.657698E-3,4.6973918E-3],"split_indices":[32,13,31,32,4,16,23,18,32,28,0,5,7,57,0,0,0,0,0,0,0,0,0,0,0,0,0],"split_type":[0,0,0,0,0,0,0,0,0,0,0,0,0,0,0,0,0,0,0,0,0,0,0,0,0,0,0],"sum_hessian":[8.4310583E2,5.5155054E2,2.9155533E2,3.7972836E2,1.7182214E2,1.2736477E2,1.6419055E2,1.076771E2,2.7205127E2,1.5507614E2,1.6746006E1,3.4223415E1,9.314135E1,1.3747594E2,2.6714617E1,6.945752E1,3.8219578E1,1.3990622E2,1.3214505E2,9.96357E1,5.5440437E1,1.5239128E1,1.8984285E1,2.0727234E1,7.2414116E1,1.5727331E1,1.21748604E2],"tree_param":{"num_deleted":"0","num_feature":"61","num_nodes":"27","size_leaf_vector":"1"}},{"base_weights":[2.7218627E-2,8.2374714E-2,-2.2488636E-1,5.922187E-2,5.7229637E-3,3.01273E-3,-3.0479702E-1,1.1078574E-1,-1.0507887E-1,-4.2219222E-1,1.3324706E-3,8.4533583E-4,6.0465876E-3,-5.4251603E-3,5.0827727E-4,-2.9437395E-3,-9.114267E-3],"categories":[],"categories_nodes":[],"categories_segments":[],"categories_sizes":[],"default_left":[0,0,0,0,0,0,0,0,0,0,0,0,0,0,0,0,0],"id":39,"left_children":[1,3,5,7,-1,-1,9,11,13,15,-1,-1,-1,-1,-1,-1,-1],"loss_changes":[1.138785E1,7.258472E0,6.4323797E0,5.5487003E0,0E0,0E0,6.967842E0,5.970179E0,1.0872622E1,5.075325E0,0E0,0E0,0E0,0E0,0E0,0E0,0E0],"parents":[2147483647,0,0,1,1,2,2,3,3,6,6,7,7,8,8,9,9],"right_children":[2,4,6,8,-1,-1,10,12,14,16,-1,-1,-1,-1,-1,-1,-1],"split_conditions":[4.5091157E0,1.51769025E-2,-2.7073434E-1,3.8752812E-3,5.7229637E-3,3.01273E-3,4.0823242E1,3.6922922E0,7.011445E-1,7.3422253E-1,1.3324706E-3,8.4533583E-4,6.0465876E-3,-5.4251603E-3,5.0827727E-4,-2.9437395E-3,-9.114267E-3],"split_indices":[46,11,42,11,0,0,25,46,17,26,0,0,0,0,0,0,0],"split_type":[0,0,0,0,0,0,0,0,0,0,0,0,0,0,0,0,0],"sum_hessian":[8.170955E2,6.737041E2,1.4339142E2,6.4748816E2,2.6215948E1,1.6985523E1,1.2640589E2,4.958818E2,1.5160637E2,1.0067511E2,2.573078E1,4.7515076E2,2.0731054E1,3.872393E1,1.1288243E2,8.4441025E1,1.623409E1],"tree_param":{"num_deleted":"0","num_feature":"61","num_nodes":"17","size_leaf_vector":"1"}},{"base_weights":[2.9707327E-2,1.3040513E-1,-1.4373164E-1,5.174199E-2,2.5447112E-1,-3.5454923E-1,-3.134249E-2,1.2573946E-1,-1.7390542E-1,5.6924325E-1,1.5783884E-1,-2.844541E-2,-6.013128E-1,7.849666E-2,-3.127256E-1,1.1992385E-4,4.0856213E-3,1.673018E-4,-5.8076065E-3,8.111736E-3,1.3917914E-3,3.8704013E-3,-0E0,-4.564393E-3,2.5159689E-3,-0E0,-8.822671E-3,-2.4129574E-3,2.07417E-3,-5.3463606E-3,-2.0115642E-4],"categories":[],"categories_nodes":[],"categories_segments":[],"categories_sizes":[],"default_left":[0,0,0,0,0,0,0,0,0,0,0,0,0,0,0,0,0,0,0,0,0,0,0,0,0,0,0,0,0,0,0],"id":40,"left_children":[1,3,5,7,9,11,13,15,17,19,21,23,25,27,29,-1,-1,-1,-1,-1,-1,-1,-1,-1,-1,-1,-1,-1,-1,-1,-1],"loss_changes":[1.4664741E1,5.007571E0,7.0474987E0,5.5903263E0,5.5574036E0,8.07624E0,6.5291433E0,7.9353604E0,6.644501E0,3.9136677E0,5.7513266E0,6.3454723E0,1.008157E1,6.2605567E0,3.5511613E0,0E0,0E0,0E0,0E0,0E0,0E0,0E0,0E0,0E0,0E0,0E0,0E0,0E0,0E0,0E0,0E0],"parents":[2147483647,0,0,1,1,2,2,3,3,4,4,5,5,6,6,7,7,8,8,9,9,10,10,11,11,12,12,13,13,14,14],"right_children":[2,4,6,8,10,12,14,16,18,20,22,24,26,28,30,-1,-1,-1,-1,-1,-1,-1,-1,-1,-1,-1,-1,-1,-1,-1,-1],"split_conditions":[5.024131E-3,6.030606E-1,8.432356E-1,4.5879097E1,-6.4914306E-3,2.0141993E-1,5.968083E-1,-5.333259E-3,4.5725125E-1,5.0408845E-3,2.8764603E-1,6.7069917E-3,4.741133E-1,1.33946305E-2,6.419576E-1,1.1992385E-4,4.0856213E-3,1.673018E-4,-5.8076065E-3,8.111736E-3,1.3917914E-3,3.8704013E-3,-0E0,-4.564393E-3,2.5159689E-3,-0E0,-8.822671E-3,-2.4129574E-3,2.07417E-3,-5.3463606E-3,-2.0115642E-4],"split_indices":[10,23,17,20,43,32,41,4,23,7,26,11,12,6,41,0,0,0,0,0,0,0,0,0,0,0,0,0,0,0,0],"split_type":[0,0,0,0,0,0,0,0,0,0,0,0,0,0,0,0,0,0,0,0,0,0,0,0,0,0,0,0,0,0,0],"sum_hessian":[8.3383014E2,5.298368E2,3.0399338E2,3.2931702E2,2.0051976E2,1.0191333E2,2.0208003E2,2.5066092E2,7.865612E1,4.24372E1,1.5808257E2,4.6213356E1,5.5699978E1,1.45622E2,5.6458035E1,1.8225554E2,6.8405365E1,5.468206E1,2.397406E1,2.4713577E1,1.772362E1,6.2182835E1,9.5899734E1,1.8237066E1,2.7976288E1,1.8481157E1,3.721882E1,3.9973263E1,1.05648735E2,2.9724972E1,2.673306E1],"tree_param":{"num_deleted":"0","num_feature":"61","num_nodes":"31","size_leaf_vector":"1"}},{"base_weights":[-8.095112E-3,7.814815E-2,-1.7260434E-1,5.6170795E-2,5.545855E-3,-4.3195975E-1,3.7489638E-2,-3.1191853E-1,8.6821586E-2,-2.8536266E-1,-8.852803E-3,1.2665685E-1,-3.8337177E-3,2.879116E-4,-6.138194E-3,-1.2652199E-3,1.4556856E-3,-1.0565798E-3,-5.4861614E-3,-3.2733802E-3,2.7377715E-3],"categories":[],"categories_nodes":[],"categories_segments":[],"categories_sizes":[],"default_left":[0,0,0,0,0,0,0,0,0,0,0,0,0,0,0,0,0,0,0,0,0],"id":41,"left_children":[1,3,5,7,-1,9,11,13,15,17,-1,19,-1,-1,-1,-1,-1,-1,-1,-1,-1],"loss_changes":[1.2002605E1,5.3709264E0,1.6143944E1,5.9604073E0,0E0,7.4209633E0,6.1299934E0,4.482845E0,6.2543764E0,4.4622326E0,0E0,9.435671E0,0E0,0E0,0E0,0E0,0E0,0E0,0E0,0E0,0E0],"parents":[2147483647,0,0,1,1,2,2,3,3,5,5,6,6,7,7,8,8,9,9,11,11],"right_children":[2,4,6,8,-1,10,12,14,16,18,-1,20,-1,-1,-1,-1,-1,-1,-1,-1,-1],"split_conditions":[3.3266966E-3,6.767388E-1,3.3828896E-3,8.220399E-2,5.545855E-3,7.3812777E-1,1.8573834E-2,-4.027622E-3,-2.4975938E-1,2.5942142E-3,-8.852803E-3,5.7302696E1,-3.8337177E-3,2.879116E-4,-6.138194E-3,-1.2652199E-3,1.4556856E-3,-1.0565798E-3,-5.4861614E-3,-3.2733802E-3,2.7377715E-3],"split_indices":[18,32,3,31,0,26,18,18,39,3,0,20,0,0,0,0,0,0,0,0,0],"split_type":[0,0,0,0,0,0,0,0,0,0,0,0,0,0,0,0,0,0,0,0,0],"sum_hessian":[8.36799E2,5.4803143E2,2.887676E2,5.2807526E2,1.9956188E1,1.2888022E2,1.5988739E2,3.722254E1,4.908527E2,1.0191416E2,2.6966057E1,1.3464548E2,2.5241915E1,1.7984217E1,1.9238323E1,1.0339496E2,3.8745773E2,6.419566E1,3.7718494E1,3.1222687E1,1.0342279E2],"tree_param":{"num_deleted":"0","num_feature":"61","num_nodes":"21","size_leaf_vector":"1"}},{"base_weights":[-2.6854115E-2,9.301359E-2,-1.16752386E-1,1.7186946E-1,-1.9773093E-1,-3.1890057E-2,-4.329007E-1,8.68821E-2,4.426814E-1,1.2239568E-3,-4.2181462E-1,-3.0712828E-1,5.7267845E-2,-5.6393985E-2,-6.0411155E-1,1.8692738E-3,-2.0214973E-3,6.2275873E-3,-0E0,-7.223305E-3,-6.256452E-4,-6.575696E-3,-1.385941E-3,1.2301621E-3,-4.339127E-3,-5.0076055E-3,3.878085E-3,-8.066407E-3,-2.4750398E-3],"categories":[],"categories_nodes":[],"categories_segments":[],"categories_sizes":[],"default_left":[0,0,0,0,0,0,0,0,0,0,0,0,0,0,0,0,0,0,0,0,0,0,0,0,0,0,0,0,0],"id":42,"left_children":[1,3,5,7,9,11,13,15,17,-1,19,21,23,25,27,-1,-1,-1,-1,-1,-1,-1,-1,-1,-1,-1,-1,-1,-1],"loss_changes":[8.942952E0,8.186474E0,1.24859085E1,6.0823727E0,5.713131E0,9.488848E0,5.9596043E0,6.4342837E0,5.1914864E0,0E0,4.432151E0,4.920475E0,9.297447E0,7.5907464E0,3.7087612E0,0E0,0E0,0E0,0E0,0E0,0E0,0E0,0E0,0E0,0E0,0E0,0E0,0E0,0E0],"parents":[2147483647,0,0,1,1,2,2,3,3,4,4,5,5,6,6,7,7,8,8,10,10,11,11,12,12,13,13,14,14],"right_children":[2,4,6,8,10,12,14,16,18,-1,20,22,24,26,28,-1,-1,-1,-1,-1,-1,-1,-1,-1,-1,-1,-1,-1,-1],"split_conditions":[1.9531576E-1,8.660254E-1,1.1912174E0,1.0091698E2,6.136142E-2,-2.4975938E-1,-6.6399485E-2,2.765001E1,1.4332424E0,1.2239568E-3,4.0212497E-3,3.3333334E-1,4.0728977E-1,1.3316751E2,4.041871E-1,1.8692738E-3,-2.0214973E-3,6.2275873E-3,-0E0,-7.223305E-3,-6.256452E-4,-6.575696E-3,-1.385941E-3,1.2301621E-3,-4.339127E-3,-5.0076055E-3,3.878085E-3,-8.066407E-3,-2.4750398E-3],"split_indices":[33,29,12,21,33,39,39,21,16,0,37,30,39,21,33,0,0,0,0,0,0,0,0,0,0,0,0,0,0],"split_type":[0,0,0,0,0,0,0,0,0,0,0,0,0,0,0,0,0,0,0,0,0,0,0,0,0,0,0,0,0],"sum_hessian":[8.227783E2,3.501855E2,4.7259283E2,2.7778958E2,7.239591E1,3.7643274E2,9.616007E1,2.1585715E2,6.1932446E1,2.9451494E1,4.2944416E1,9.1680565E1,2.847522E2,3.2218185E1,6.394189E1,1.6242513E2,5.343202E1,4.3195923E1,1.8736525E1,2.0974928E1,2.1969486E1,2.5982346E1,6.569822E1,2.5401666E2,3.0735518E1,1.6477867E1,1.5740316E1,3.747216E1,2.6469728E1],"tree_param":{"num_deleted":"0","num_feature":"61","num_nodes":"29","size_leaf_vector":"1"}},{"base_weights":[8.374568E-3,3.053637E-1,-5.3670045E-2,1.8234117E-1,6.21206E-1,2.2215724E-2,-2.0553178E-1,3.4099004E-1,-1.9399036E-1,1.5218076E-3,8.903033E-3,1.5613681E-1,-2.2912239E-1,-4.4231087E-1,7.1867583E-3,1.2522581E-3,6.9956677E-3,-4.101938E-3,2.6700684E-4,3.807216E-4,3.8088416E-3,-4.7816853E-3,-6.281532E-4,-2.6694909E-3,-7.83394E-3,3.841122E-3,-1.5843173E-3],"categories":[],"categories_nodes":[],"categories_segments":[],"categories_sizes":[],"default_left":[0,0,0,0,0,0,0,0,0,0,0,0,0,0,0,0,0,0,0,0,0,0,0,0,0,0,0],"id":43,"left_children":[1,3,5,7,9,11,13,15,17,-1,-1,19,21,23,25,-1,-1,-1,-1,-1,-1,-1,-1,-1,-1,-1,-1],"loss_changes":[1.5413843E1,4.882986E0,8.002246E0,6.8133774E0,3.8926497E0,1.5467815E1,1.1852546E1,5.444194E0,1.8215327E0,0E0,0E0,7.747394E0,6.2219E0,5.4501724E0,8.000242E0,0E0,0E0,0E0,0E0,0E0,0E0,0E0,0E0,0E0,0E0,0E0,0E0],"parents":[2147483647,0,0,1,1,2,2,3,3,4,4,5,5,6,6,7,7,8,8,11,11,12,12,13,13,14,14],"right_children":[2,4,6,8,10,12,14,16,18,-1,-1,20,22,24,26,-1,-1,-1,-1,-1,-1,-1,-1,-1,-1,-1,-1],"split_conditions":[6.687898E-2,1.3456346E0,3.1201395E-3,9.602031E-3,4.8512277E-1,3.9431188E-1,3.3828896E-3,3.8196836E-3,-1.1752599E-2,1.5218076E-3,8.903033E-3,6.4126328E-3,6.351962E-1,2.76804E-3,6.478519E-3,1.2522581E-3,6.9956677E-3,-4.101938E-3,2.6700684E-4,3.807216E-4,3.8088416E-3,-4.7816853E-3,-6.281532E-4,-2.6694909E-3,-7.83394E-3,3.841122E-3,-1.5843173E-3],"split_indices":[33,17,18,4,41,33,3,5,39,0,0,14,16,3,14,0,0,0,0,0,0,0,0,0,0,0,0],"split_type":[0,0,0,0,0,0,0,0,0,0,0,0,0,0,0,0,0,0,0,0,0,0,0,0,0,0,0],"sum_hessian":[8.2400275E2,1.417554E2,6.822473E2,1.0656334E2,3.5192062E1,4.5443396E2,2.2781339E2,7.6094696E1,3.0468647E1,1.5219592E1,1.9972471E1,2.9850598E2,1.5592798E2,1.0738955E2,1.2042383E2,5.0905643E1,2.5189053E1,1.5233995E1,1.5234651E1,1.9945886E2,9.9047134E1,5.8977123E1,9.695085E1,7.5425E1,3.196455E1,3.6474342E1,8.3949486E1],"tree_param":{"num_deleted":"0","num_feature":"61","num_nodes":"27","size_leaf_vector":"1"}},{"base_weights":[-2.3799676E-2,8.455606E-2,-1.6503884E-1,1.0945468E-1,-4.970702E-3,-5.4486105E-3,-1.2572065E-1,2.1963929E-1,-3.1676467E-3,-2.1536711E-1,2.5057842E-4,1.3607577E-3,5.9479605E-3,-1.5379123E-3,1.7059826E-3,-1.4526377E-3,-6.953165E-3,1.4171087E-3,-3.5061361E-3],"categories":[],"categories_nodes":[],"categories_segments":[],"categories_sizes":[],"default_left":[0,0,0,0,0,0,0,0,0,0,0,0,0,0,0,0,0,0,0],"id":44,"left_children":[1,3,5,7,-1,-1,9,11,13,15,17,-1,-1,-1,-1,-1,-1,-1,-1],"loss_changes":[1.2779977E1,6.768406E0,4.883457E0,5.7379E0,0E0,0E0,3.882218E0,6.6496735E0,5.9588084E0,5.9249935E0,6.975506E0,0E0,0E0,0E0,0E0,0E0,0E0,0E0,0E0],"parents":[2147483647,0,0,1,1,2,2,3,3,6,6,7,7,8,8,9,9,10,10],"right_children":[2,4,6,8,-1,-1,10,12,14,16,18,-1,-1,-1,-1,-1,-1,-1,-1],"split_conditions":[2.7969122E-1,2.997787E2,2.1799288E-3,2.6061882E-3,-4.970702E-3,-5.4486105E-3,1.4514915E-3,1.0091698E2,1.5594184E-3,-4.232771E-5,1.3562005E-2,1.3607577E-3,5.9479605E-3,-1.5379123E-3,1.7059826E-3,-1.4526377E-3,-6.953165E-3,1.4171087E-3,-3.5061361E-3],"split_indices":[33,21,37,6,0,0,43,21,44,43,43,0,0,0,0,0,0,0,0],"split_type":[0,0,0,0,0,0,0,0,0,0,0,0,0,0,0,0,0,0,0],"sum_hessian":[8.267054E2,4.664888E2,3.6021655E2,4.5049866E2,1.5990136E1,2.897939E1,3.3123715E2,2.2851692E2,2.2198174E2,1.945952E2,1.3664197E2,1.9132219E2,3.7194736E1,1.2063517E2,1.01346565E2,1.7411328E2,2.0481915E1,9.967051E1,3.697146E1],"tree_param":{"num_deleted":"0","num_feature":"61","num_nodes":"19","size_leaf_vector":"1"}},{"base_weights":[2.5440272E-2,1.4876977E-1,-1.3520496E-1,-0E0,2.3954368E-1,1.3595211E-2,-3.5423055E-1,1.7954105E-1,-3.0125833E-1,2.7556226E-1,-3.0683707E-3,-5.845841E-2,7.721206E-3,-6.510812E-2,-5.703803E-1,-6.3965935E-4,4.5050834E-3,-6.8752277E-3,-0E0,2.2116508E-3,7.885982E-3,1.7342366E-4,-7.1842885E-3,-2.026172E-3,2.8884772E-3,-7.2286925E-3,-1.6661636E-3],"categories":[],"categories_nodes":[],"categories_segments":[],"categories_sizes":[],"default_left":[0,0,0,0,0,0,0,0,0,0,0,0,0,0,0,0,0,0,0,0,0,0,0,0,0,0,0],"id":45,"left_children":[1,3,5,7,9,11,13,15,17,19,-1,21,-1,23,25,-1,-1,-1,-1,-1,-1,-1,-1,-1,-1,-1,-1],"loss_changes":[1.6668049E1,6.53263E0,1.2038557E1,1.0066992E1,6.1007595E0,1.2412745E1,8.857834E0,7.889633E0,8.05887E0,6.8396435E0,0E0,1.0461831E1,0E0,3.4396553E0,4.344736E0,0E0,0E0,0E0,0E0,0E0,0E0,0E0,0E0,0E0,0E0,0E0,0E0],"parents":[2147483647,0,0,1,1,2,2,3,3,4,4,5,5,6,6,7,7,8,8,9,9,11,11,13,13,14,14],"right_children":[2,4,6,8,10,12,14,16,18,20,-1,22,-1,24,26,-1,-1,-1,-1,-1,-1,-1,-1,-1,-1,-1,-1],"split_conditions":[2.7969122E-1,1.8270968E-1,3.607335E-1,4.342806E-3,4E-1,6.442896E-3,-1.5519164E-3,-6.45735E-3,5.44418E-1,6.3896904E0,-3.0683707E-3,4.0728977E-1,7.721206E-3,5.793718E-1,9.630877E-1,-6.3965935E-4,4.5050834E-3,-6.8752277E-3,-0E0,2.2116508E-3,7.885982E-3,1.7342366E-4,-7.1842885E-3,-2.026172E-3,2.8884772E-3,-7.2286925E-3,-1.6661636E-3],"split_indices":[33,32,12,10,45,4,43,10,23,46,0,39,0,33,13,0,0,0,0,0,0,0,0,0,0,0,0],"split_type":[0,0,0,0,0,0,0,0,0,0,0,0,0,0,0,0,0,0,0,0,0,0,0,0,0,0,0],"sum_hessian":[8.349102E2,4.74197E2,3.607132E2,1.7929152E2,2.9490546E2,2.151065E2,1.4560669E2,1.1233237E2,6.695915E1,2.7892053E2,1.5984948E1,1.9837239E2,1.673411E1,6.49484E1,8.065829E1,5.939928E1,5.293309E1,2.7481285E1,3.947787E1,2.5694455E2,2.1975958E1,1.798763E2,1.8496098E1,4.871738E1,1.6231024E1,5.5927055E1,2.4731234E1],"tree_param":{"num_deleted":"0","num_feature":"61","num_nodes":"27","size_leaf_vector":"1"}},{"base_weights":[9.409783E-3,8.033674E-2,-1.6032149E-1,-9.229198E-2,1.6458179E-1,-4.279619E-1,3.564735E-2,-1.6316873E-1,4.607466E-3,2.2946936E-1,-2.6488116E-1,-5.205049E-1,6.593822E-4,1.3759135E-1,-5.500639E-3,1.4031671E-4,-5.081918E-3,2.9705712E-3,-2.646652E-4,-4.9703317E-3,1.4928905E-3,-2.2256314E-3,-7.6971366E-3,-2.790466E-3,2.5139286E-3],"categories":[],"categories_nodes":[],"categories_segments":[],"categories_sizes":[],"default_left":[0,0,0,0,0,0,0,0,0,0,0,0,0,0,0,0,0,0,0,0,0,0,0,0,0],"id":46,"left_children":[1,3,5,7,9,11,13,15,-1,17,19,21,-1,23,-1,-1,-1,-1,-1,-1,-1,-1,-1,-1,-1],"loss_changes":[1.0121716E1,8.765961E0,1.318383E1,7.7522135E0,1.1431844E1,5.1574383E0,8.627363E0,1.106469E1,0E0,6.280195E0,5.535901E0,5.682474E0,0E0,6.1659603E0,0E0,0E0,0E0,0E0,0E0,0E0,0E0,0E0,0E0,0E0,0E0],"parents":[2147483647,0,0,1,1,2,2,3,3,4,4,5,5,6,6,7,7,9,9,10,10,11,11,13,13],"right_children":[2,4,6,8,10,12,14,16,-1,18,20,22,-1,24,-1,-1,-1,-1,-1,-1,-1,-1,-1,-1,-1],"split_conditions":[4.3772026E-3,-2.0840639E-1,3.3656633E-3,1.5378357E0,4.0728977E-1,8.77858E-3,2.8131356E-2,2.9727272E-3,4.607466E-3,2E-1,6.14901E-1,-1.7737405E-2,6.593822E-4,-2.7424315E-1,-5.500639E-3,1.4031671E-4,-5.081918E-3,2.9705712E-3,-2.646652E-4,-4.9703317E-3,1.4928905E-3,-2.2256314E-3,-7.6971366E-3,-2.790466E-3,2.5139286E-3],"split_indices":[9,44,3,19,39,0,2,11,0,45,31,39,0,39,0,0,0,0,0,0,0,0,0,0,0],"split_type":[0,0,0,0,0,0,0,0,0,0,0,0,0,0,0,0,0,0,0,0,0,0,0,0,0],"sum_hessian":[8.378895E2,5.941381E2,2.4375137E2,1.9281476E2,4.013234E2,1.0261161E2,1.4113976E2,1.7358702E2,1.9227724E1,3.508715E2,5.0451897E1,8.71356E1,1.5476012E1,1.2289807E2,1.8241686E1,1.1562962E2,5.79574E1,2.7873465E2,7.2136856E1,3.27191E1,1.7732794E1,4.3187885E1,4.3947716E1,2.4489605E1,9.840846E1],"tree_param":{"num_deleted":"0","num_feature":"61","num_nodes":"25","size_leaf_vector":"1"}},{"base_weights":[-9.701754E-3,5.1348697E-2,-2.0425782E-1,7.503289E-2,-3.7141797E-1,-3.425671E-1,7.752754E-2,1.4275198E-1,-8.495777E-2,-2.747458E-4,-6.2677995E-3,-8.447532E-3,-2.1108559E-1,3.2759926E-1,-2.5936856E-3,5.927461E-3,1.1608019E-3,-3.846317E-3,3.3546615E-4,3.0718162E-3,-3.493729E-3,-9.2210143E-4,6.0778135E-3],"categories":[],"categories_nodes":[],"categories_segments":[],"categories_sizes":[],"default_left":[0,0,0,0,0,0,0,0,0,0,0,0,0,0,0,0,0,0,0,0,0,0,0],"id":47,"left_children":[1,3,5,7,9,11,13,15,17,-1,-1,-1,19,21,-1,-1,-1,-1,-1,-1,-1,-1,-1],"loss_changes":[1.0127771E1,6.3690734E0,8.164536E0,6.6966734E0,2.5609598E0,8.08931E0,6.054505E0,4.640399E0,6.66722E0,0E0,0E0,0E0,8.559135E0,5.3021164E0,0E0,0E0,0E0,0E0,0E0,0E0,0E0,0E0,0E0],"parents":[2147483647,0,0,1,1,2,2,3,3,4,4,5,5,6,6,7,7,8,8,12,12,13,13],"right_children":[2,4,6,8,10,12,14,16,18,-1,-1,-1,20,22,-1,-1,-1,-1,-1,-1,-1,-1,-1],"split_conditions":[5.829013E-3,1.0631585E0,3.3964032E-1,4.8834887E-1,4.0876794E-1,5.7000375E-1,6.104636E-3,1.8280934E-3,7.4939024E-1,-2.747458E-4,-6.2677995E-3,-8.447532E-3,5.086916E-1,1.3010511E-2,-2.5936856E-3,5.927461E-3,1.1608019E-3,-3.846317E-3,3.3546615E-4,3.0718162E-3,-3.493729E-3,-9.2210143E-4,6.0778135E-3],"split_indices":[18,40,32,24,26,23,8,38,19,0,0,0,16,10,0,0,0,0,0,0,0,0,0],"split_type":[0,0,0,0,0,0,0,0,0,0,0,0,0,0,0,0,0,0,0,0,0,0,0],"sum_hessian":[8.405826E2,6.3953796E2,2.0104465E2,6.090671E2,3.0470854E1,1.3561014E2,6.543451E1,4.3035822E2,1.7870888E2,1.523365E1,1.5237204E1,2.3972208E1,1.1163793E2,3.845615E1,2.6978361E1,1.9468983E1,4.1088922E2,4.9929424E1,1.2877945E2,2.198055E1,8.965739E1,1.5483959E1,2.2972189E1],"tree_param":{"num_deleted":"0","num_feature":"61","num_nodes":"23","size_leaf_vector":"1"}},{"base_weights":[8.967408E-3,6.192008E-2,-2.2210526E-1,-0E0,2.3716141E-1,-3.9833593E-1,-1.1666856E-2,3.020457E-1,-3.3253893E-2,4.622039E-1,3.1821918E-2,-5.705296E-1,-8.341471E-2,-3.8755985E-3,2.0079297E-1,5.971394E-3,-1.8896527E-3,2.6758973E-4,-2.673552E-3,-0E0,5.697988E-3,1.5471745E-3,-3.8322064E-3,-3.1625575E-3,-9.06128E-3,3.1115212E-3,-4.8075574E-3,4.4247424E-3,-1.9504186E-3],"categories":[],"categories_nodes":[],"categories_segments":[],"categories_sizes":[],"default_left":[0,0,0,0,0,0,0,0,0,0,0,0,0,0,0,0,0,0,0,0,0,0,0,0,0,0,0,0,0],"id":48,"left_children":[1,3,5,7,9,11,13,15,17,19,21,23,25,-1,27,-1,-1,-1,-1,-1,-1,-1,-1,-1,-1,-1,-1,-1,-1],"loss_changes":[1.0407975E1,7.6934032E0,5.6431847E0,5.099405E0,8.230548E0,4.120246E0,6.4304237E0,7.8158607E0,6.7462935E0,4.508539E0,5.205657E0,3.0673275E0,5.936332E0,0E0,5.1615553E0,0E0,0E0,0E0,0E0,0E0,0E0,0E0,0E0,0E0,0E0,0E0,0E0,0E0,0E0],"parents":[2147483647,0,0,1,1,2,2,3,3,4,4,5,5,6,6,7,7,8,8,9,9,10,10,11,11,12,12,14,14],"right_children":[2,4,6,8,10,12,14,16,18,20,22,24,26,-1,28,-1,-1,-1,-1,-1,-1,-1,-1,-1,-1,-1,-1,-1,-1],"split_conditions":[4.174086E0,1.1647074E0,2.8046423E-3,-4.6280414E-1,2.6295544E1,9.1975653E-1,3.8949975E-1,8.6832605E-4,8.141366E-1,-3.2093126E-1,5.511352E-3,1.2661903E0,1.4332424E0,-3.8755985E-3,2.254229E-2,5.971394E-3,-1.8896527E-3,2.6758973E-4,-2.673552E-3,-0E0,5.697988E-3,1.5471745E-3,-3.8322064E-3,-3.1625575E-3,-9.06128E-3,3.1115212E-3,-4.8075574E-3,4.4247424E-3,-1.9504186E-3],"split_indices":[46,13,1,44,25,16,24,43,12,39,0,12,16,0,15,0,0,0,0,0,0,0,0,0,0,0,0,0,0],"split_type":[0,0,0,0,0,0,0,0,0,0,0,0,0,0,0,0,0,0,0,0,0,0,0,0,0,0,0,0,0],"sum_hessian":[8.507824E2,6.9571265E2,1.5506976E2,5.1430096E2,1.814117E2,8.164331E1,7.342645E1,4.7197014E1,4.6710394E2,8.360107E1,9.781062E1,5.0181973E1,3.1461334E1,2.6471992E1,4.695446E1,2.9710884E1,1.7486128E1,3.7220807E2,9.489587E1,1.5731307E1,6.786977E1,7.7846405E1,1.996422E1,3.2713108E1,1.7468866E1,1.54809E1,1.5980434E1,2.9718925E1,1.7235537E1],"tree_param":{"num_deleted":"0","num_feature":"61","num_nodes":"29","size_leaf_vector":"1"}},{"base_weights":[-1.0818795E-2,5.8889497E-2,-1.5485181E-1,-1.9324264E-1,1.2793984E-1,-4.1339806E-1,-4.754299E-2,-3.2184336E-1,1.397916E-1,1.8628712E-1,-1.8994059E-1,-6.866853E-1,3.9499873E-4,4.5320205E-3,-1.04444504E-1,8.2112517E-4,-4.368141E-3,3.7439659E-3,-9.681358E-4,-8.544986E-4,2.624725E-3,2.1619035E-3,-3.5264902E-3,-2.493361E-3,-8.792033E-3,-2.6108152E-3,4.6892744E-4],"categories":[],"categories_nodes":[],"categories_segments":[],"categories_sizes":[],"default_left":[0,0,0,0,0,0,0,0,0,0,0,0,0,0,0,0,0,0,0,0,0,0,0,0,0,0,0],"id":49,"left_children":[1,3,5,7,9,11,13,15,17,19,21,23,-1,-1,25,-1,-1,-1,-1,-1,-1,-1,-1,-1,-1,-1,-1],"loss_changes":[8.549837E0,9.940908E0,7.435653E0,5.4460373E0,8.445625E0,1.0295803E1,5.7097487E0,4.4611397E0,2.1882322E0,8.081185E0,4.9161654E0,3.0460854E0,0E0,0E0,4.5126038E0,0E0,0E0,0E0,0E0,0E0,0E0,0E0,0E0,0E0,0E0,0E0,0E0],"parents":[2147483647,0,0,1,1,2,2,3,3,4,4,5,5,6,6,7,7,8,8,9,9,10,10,11,11,14,14],"right_children":[2,4,6,8,10,12,14,16,18,20,22,24,-1,-1,26,-1,-1,-1,-1,-1,-1,-1,-1,-1,-1,-1,-1],"split_conditions":[8.141366E-1,-3.1062102E-1,9.2834055E-1,5.5274494E1,6.2661886E-1,3.3656633E-3,1.5151165E-3,3.3911166E-1,2.3330657E-3,7.689814E-2,3.976311E-1,4.8636864E1,3.9499873E-4,4.5320205E-3,8.921983E-2,8.2112517E-4,-4.368141E-3,3.7439659E-3,-9.681358E-4,-8.544986E-4,2.624725E-3,2.1619035E-3,-3.5264902E-3,-2.493361E-3,-8.792033E-3,-2.6108152E-3,4.6892744E-4],"split_indices":[12,44,19,20,40,3,3,24,9,32,41,21,0,0,44,0,0,0,0,0,0,0,0,0,0,0,0],"split_type":[0,0,0,0,0,0,0,0,0,0,0,0,0,0,0,0,0,0,0,0,0,0,0,0,0,0,0],"sum_hessian":[8.4104865E2,5.656099E2,2.7543872E2,1.18882515E2,4.467274E2,7.6912254E1,1.9852647E2,8.6920456E1,3.1962063E1,3.7982495E2,6.6902435E1,4.769037E1,2.9221886E1,1.7228754E1,1.8129773E2,1.8484083E1,6.843637E1,1.6232704E1,1.5729358E1,8.1654175E1,2.9817078E2,1.7975452E1,4.8926987E1,1.7474823E1,3.0215546E1,8.964342E1,9.1654305E1],"tree_param":{"num_deleted":"0","num_feature":"61","num_nodes":"27","size_leaf_vector":"1"}},{"base_weights":[8.170886E-3,7.895905E-2,-2.0428744E-1,3.5178778E-1,-9.508563E-3,1.7920388E-1,-3.3767813E-1,4.8696107E-1,-1.0996795E-1,4.171215E-2,-3.3899295E-1,-8.3905336E-4,4.300549E-3,-4.3451038E-1,9.748069E-4,-2.5387626E-4,6.229672E-3,1.2187826E-3,-3.443514E-3,1.5546879E-3,-1.7022137E-3,-5.7724165E-3,1.4434922E-3,-5.853115E-3,-1.7619338E-3],"categories":[],"categories_nodes":[],"categories_segments":[],"categories_sizes":[],"default_left":[0,0,0,0,0,0,0,0,0,0,0,0,0,0,0,0,0,0,0,0,0,0,0,0,0],"id":50,"left_children":[1,3,5,7,9,11,13,15,17,19,21,-1,-1,23,-1,-1,-1,-1,-1,-1,-1,-1,-1,-1,-1],"loss_changes":[1.2555415E1,1.540722E1,1.0898081E1,1.0081776E1,8.25633E0,3.8887386E0,6.8812084E0,8.848177E0,2.2433836E0,1.0076264E1,8.0597515E0,0E0,0E0,4.3478966E0,0E0,0E0,0E0,0E0,0E0,0E0,0E0,0E0,0E0,0E0,0E0],"parents":[2147483647,0,0,1,1,2,2,3,3,4,4,5,5,6,6,7,7,8,8,9,9,10,10,13,13],"right_children":[2,4,6,8,10,12,14,16,18,20,22,-1,-1,24,-1,-1,-1,-1,-1,-1,-1,-1,-1,-1,-1],